[0.2574915]
[0.09123579]
[0.00128204]
[0.24576353]
[0.21519342]
[0.30260354]
[-0.17264523]
[0.28091237]
[-0.05618137]
[-0.1302724]
[-0.12032396]
[-0.02744209]
[0.00558259]
[0.16471662]
[-0.15198998]
[-0.09298685]
[-0.00932033]
[0.25585753]
[0.31214058]
[-0.13090691]
[-0.13854387]
[0.3042136]
[0.23922561]
[-0.2640737]
[-0.07005449]
[0.21191806]
[-0.21345696]
[-0.21474408]
[-0.18990993]
[-0.06231729]
[0.15910347]
[0.1591815]
[-0.15306136]
[-0.21276562]
[-0.11539942]
[0.29152548]
[0.20531029]
[-0.08982414]
[-0.09966986]
[0.2168542]
[-0.16311742]
[0.03846276]
[0.03879914]
[0.09321079]
[0.27876896]
[-0.19919625]
[0.32354292]
[0.20088162]
[0.41377082]
[-0.0228957]
[0.0416954]
[0.13656682]
[-0.05484273]
[0.27290285]
[0.21436277]
[-0.01960667]
[0.14423114]
[0.37852675]
[-0.16503325]
[0.16054678]
[-0.14647907]
[-0.16192135]
[0.2761058]
[0.16797732]
[0.01194475]
[-0.0263691]
[0.02628182]
[0.13290451]
[-0.08388347]
[-0.10619218]
[-0.1805503]
[-0.1046573]
[-0.07547449]
[0.23784962]
[0.3420397]
[0.21155754]
[0.27375683]
[0.2787109]
[-0.10752114]
[-0.02938148]
[-0.02608344]
[0.12646231]
[0.25196308]
[0.2863445]
[0.28183404]
[0.03293278]
[0.04603037]
[0.12056274]
[-0.07506418]
[-0.1699659]
[0.07595184]
[0.15831076]
[-0.02731179]
[-0.02612492]
[0.05798538]
[0.29326236]
[0.13233167]
[0.02117043]
[-0.1011475]
[0.26832122]
[-0.29365534]
[-0.03706178]
[0.12715067]
[-0.2239286]
[0.0486906]
[0.05416069]
[0.21220383]
[0.00566399]
[-0.22870438]
[-0.19083074]
[-0.33141726]
[-0.21337044]
[0.07534084]
[-0.02038372]
[0.09737573]
[-0.30973393]
[-0.10159572]
[0.04381832]
[0.22082745]
[0.00076117]
[-0.03831636]
[0.10811472]
[-0.04816797]
[0.04182608]
[0.20653826]
[0.12901004]
[-0.26511306]
[0.21689531]
[0.14099643]
[-0.0034322]
[0.15785414]
[-0.12934493]
[-0.06290288]
[-0.22439152]
[-0.16288392]
[-0.00777723]
[-0.03092153]
[-0.23112312]
[-0.2986768]
[-0.16877915]
[0.01458563]
[0.17288795]
[-0.30940506]
[0.09199139]
