[-0.02725825]
[-0.04947423]
[-0.1522392]
[0.25177383]
[0.02393996]
[0.0367127]
[0.15096997]
[-0.1593557]
[0.05659831]
[-0.0766184]
[0.18112692]
[0.05748032]
[0.25188297]
[-0.14563799]
[0.13451302]
[-0.10328054]
[0.00625806]
[-0.05622505]
[0.03412515]
[0.148053]
[-0.05699817]
[0.20279852]
[0.23139611]
[0.22208735]
[-0.02468155]
[0.10383443]
[0.0484933]
[-0.10251678]
[0.20479175]
[0.22088014]
[-0.05823815]
[0.25560635]
[0.03122978]
[0.04481523]
[-0.1013153]
[-0.03142513]
[-0.02577185]
[0.08908874]
[-0.01149645]
[0.00451139]
[0.07592294]
[-0.13142152]
[-0.01932549]
[-0.08996354]
[-0.07883755]
[0.15183648]
[0.21939348]
[0.17963049]
[0.00368693]
[-0.09129648]
[0.2801834]
[0.20804554]
[-0.03071333]
[0.06587057]
[0.08506579]
[0.17872076]
[-0.05417366]
[-0.04965416]
[-0.13849637]
[-0.07939129]
[-0.08575773]
[-0.027911]
[-0.1488106]
[-0.16507228]
[0.10434818]
[0.13937947]
[0.2115939]
[0.02153496]
[-0.16126615]
[-0.21018377]
[0.09804206]
[0.11061268]
[-0.13974963]
[0.14433426]
[0.08450304]
[-0.06277622]
[0.07316111]
[0.08228124]
[-0.07160619]
[0.1253917]
[-0.12156916]
[0.23555547]
[0.06055915]
[-0.17349729]
[-0.03075539]
[-0.19966921]
[-0.01764728]
[-0.18476215]
[0.08943829]
[-0.01022345]
[-0.18066314]
[0.23825599]
[-0.16701342]
[0.16488585]
[-0.01344785]
[-0.17423236]
[0.26044548]
[0.04868418]
[-0.13329947]
[0.25124693]
[-0.07807646]
[0.02460879]
[0.12139051]
[0.11232798]
[-0.16887993]
[0.15205508]
[0.17104635]
[-0.12050097]
[0.14619483]
[0.196425]
[-0.02748941]
[0.13599816]
[0.23138638]
[-0.01296929]
[-0.19302541]
[0.22113922]
[0.08900337]
[-0.21484143]
[0.05883835]
[0.16659307]
[0.00557937]
[-0.06476112]
[0.1640251]
[0.16870174]
[0.08800409]
[0.22635391]
[-0.11217619]
[-0.13356453]
[-0.09635919]
[-0.00882973]
[-0.16423881]
[-0.09260504]
[0.08509746]
[0.12743403]
[-0.11674692]
[0.11551788]
[0.08235031]
[-0.04236086]
[-0.0100364]
[-0.11283186]
[-0.2172734]
[0.23481636]
[-0.11048823]
[0.2489128]
[0.2380107]
[-0.00709097]
[0.10681447]
[0.12867798]
[0.23248155]
[-0.13942994]
[0.15188883]
[0.05066842]
[-0.04553334]
[-0.12723611]
[0.18964483]
[-0.1518063]
[-0.17707881]
[0.07914797]
[-0.21409951]
[0.15263219]
[-0.0312727]
[0.1453882]
[-0.14294577]
[0.13838656]
[0.22048084]
[0.01933435]
[-0.20749639]
[-0.08041289]
[-0.04761137]
[-0.00903969]
[0.09976949]
[0.04520933]
[0.10754367]
[0.08444116]
[-0.1914259]
[-0.02642465]
[-0.10412831]
[0.00795248]
[0.12220892]
[-0.1137718]
[-0.19018866]
[-0.1999224]
[0.03271331]
[0.1207184]
[0.18714763]
[-0.14343609]
[0.18138067]
[0.05291883]
[0.13406204]
[0.16300817]
[0.0692775]
[0.23522624]
[0.14917083]
[0.0055471]
[-0.23724337]
[0.1510233]
[-0.0907304]
[-0.00874291]
[0.12693027]
[0.03716751]
[-0.04480978]
[0.00893173]
[-0.05164154]
[0.11546044]
[0.05127195]
[0.03976657]
[-0.1054859]
[-0.25984967]
[0.14119905]
[-0.13642198]
[-0.12343165]
[0.03051025]
[0.01167285]
[-0.09765996]
[-0.24654877]
[0.13536894]
[-0.1318433]
[0.09829451]
[0.14439043]
[0.1506342]
[-0.0592084]
[0.03433097]
[-0.21758322]
[-0.014728]
[0.15117642]
[-0.15922025]
[0.15101029]
[0.01745082]
[-0.23462218]
[-0.13741985]
[-0.12226089]
[0.16783513]
[-0.01442611]
[0.17629054]
[-0.14606002]
[0.09181935]
[0.13376503]
[-0.19718881]
[-0.01743043]
[0.08774101]
[0.08345859]
[-0.02561615]
[-0.01981814]
[-0.09982857]
[-0.11198992]
[0.12880352]
[-0.06503379]
[0.08071294]
[0.11445861]
[-0.18734422]
[-0.2329659]
[-0.22017807]
[-0.11410762]
[-0.02372633]
[0.10316855]
[0.16073117]
[0.13913643]
[0.21227509]
[0.06360288]
[0.0659677]
[-0.02781959]
[-0.07700878]
[-0.09712654]
[0.12878478]
[-0.24517453]
[-0.06613172]
[-0.06181074]
[-0.03075276]
[-0.13809992]
[0.13542101]
[-0.0450945]
[-0.08740222]
[-0.21607994]
[0.05904884]
[-0.22671838]
[-0.06620838]
[-0.04942162]
[-0.23422392]
[0.02922572]
[0.01473948]
[0.13178681]
[0.16275296]
[0.19263062]
[0.09391069]
[-0.146699]
[-0.11009167]
[0.16897993]
[-0.2239992]
