[0.09282171]
[0.06678411]
[-0.09678209]
[-0.02190031]
[0.326921]
[0.00940423]
[-0.07911336]
[-0.15746143]
[0.0921087]
[0.36161005]
[-0.0946627]
[-0.41498396]
[0.17516425]
[-0.13048671]
[-0.07590623]
[-0.22416279]
[0.2693]
[-0.02772382]
[-0.46854806]
[0.05124083]
[-0.22329134]
[0.10757621]
[-0.4858342]
[-0.09342341]
[0.06744252]
[-0.07217075]
[-0.11235192]
[0.07514396]
[0.2086113]
[0.19034186]
[-0.36626434]
[-0.01947995]
[0.05537502]
[-0.07152681]
[0.01901664]
[-0.27596223]
[0.24218854]
[0.37252477]
[-0.19712716]
[-0.14682277]
[-0.02083063]
[0.19570331]
[-0.25186843]
[-0.19463526]
[-0.00098554]
[0.37682158]
[-0.05718753]
[-0.40228015]
[0.28143075]
[0.15499762]
[-0.22419858]
[-0.2124247]
[0.03273984]
[0.2787876]
[0.1182633]
[0.02016243]
[0.26750386]
[0.21987437]
[-0.08865319]
[-0.16317357]
[0.2751756]
[0.21091157]
[-0.1773451]
[-0.10174765]
[0.07401675]
[-0.21094483]
[-0.27999637]
[0.06955577]
[-0.01822657]
[0.13057065]
[-0.22777568]
[-0.30454645]
[0.21926448]
[0.28597552]
[0.15129429]
[0.01578501]
[0.25816932]
[-0.21810277]
[-0.19567873]
[0.10362983]
[-0.10094661]
[0.24672076]
[-0.00375817]
[0.06115737]
[0.08742181]
[0.21691456]
[-0.20964622]
[0.01772466]
[-0.03886975]
[-0.21219873]
[0.16931461]
[-0.24907942]
[0.05705568]
[-0.13339338]
[-0.22718185]
[0.15862955]
[0.10163061]
[0.01873185]
[0.22480668]
[0.33760077]
[-0.31095654]
[-0.1658738]
[-0.02963948]
[0.3458437]
[0.06547689]
[-0.4400792]
[0.1194931]
[0.11296363]
[0.15373933]
[-0.09239961]
[-0.01929666]
[0.34244493]
[0.10340756]
[-0.3061031]
[-0.04818109]
[0.16304073]
[0.04301358]
[-0.2207312]
[0.20949563]
[-0.07831804]
[-0.29747438]
[-0.2786258]
[-0.06250489]
[0.00059241]
[-0.2555985]
[-0.15356296]
[0.00033741]
[0.14310332]
[-0.2089425]
[-0.229136]
[0.40648323]
[0.07852808]
[-0.12273683]
[0.04240957]
[0.40431806]
[0.10346654]
[-0.24814582]
[0.11897586]
[0.13752213]
[0.22029947]
[0.00140924]
[0.07898541]
[0.235403]
[0.02977741]
