[0.15703471]
[0.00409862]
[0.07632566]
[0.04571886]
[0.05616102]
[0.05704543]
[-0.01486729]
[0.02172461]
[-0.12632118]
[-0.17290367]
[-0.03998711]
[0.09247354]
[0.1221905]
[0.15061262]
[0.16071853]
[-0.13487694]
[-0.01322683]
[-0.01216837]
[-0.13616426]
[-0.15389195]
[0.10899305]
[0.04384076]
[0.05813669]
[0.13570963]
[0.13021809]
[0.0607629]
[-0.01199315]
[-0.13373399]
[-0.14912471]
[-0.06231122]
[0.1176921]
[0.00830697]
[0.18107107]
[0.12638955]
[0.01919045]
[-0.07389793]
[-0.04942004]
[-0.03430204]
[-0.02156588]
[-0.15686029]
[0.09461007]
[0.05367537]
[0.11068317]
[0.1009989]
[0.15512984]
[0.05952083]
[-0.00342888]
[0.01241709]
[-0.06855926]
[-0.0231154]
[0.14507791]
[0.11590189]
[-0.02156392]
[0.14756112]
[0.14198977]
[0.06975368]
[-0.07778185]
[-0.04111419]
[-0.09250057]
[-0.16088395]
[0.02934703]
[0.05300922]
[0.10512683]
[0.1096069]
[0.02375164]
[0.0070416]
[0.02396925]
[-0.14925924]
[0.0352866]
[-0.15920413]
[-0.00986008]
[0.07106284]
[0.01144088]
[0.08527622]
[0.02137762]
[0.04299352]
[-0.16808861]
[-0.08142566]
[-0.0947721]
[-0.03638796]
[0.05912379]
[0.12307043]
[0.08176967]
[0.10586805]
[0.0187795]
[0.01607531]
[-0.03284672]
[-0.1479957]
[-0.07671711]
[0.03399666]
[-0.02794215]
[0.05312738]
[0.05937596]
[0.13967505]
[0.11090959]
[0.03941067]
[-0.1250682]
[-0.08840035]
[-0.00925338]
[0.01622864]
[0.00565595]
[0.15759605]
[0.11441262]
[0.13165167]
[0.11417915]
[-0.06028567]
[-0.02788725]
[-0.0626611]
[0.00460756]
[-0.06152567]
[-0.00039346]
[0.11085515]
[0.14148074]
[0.01606211]
[0.00253098]
[-0.12566245]
[-0.03490784]
[-0.03348737]
[-0.12322386]
[-0.163539]
[0.14165917]
[0.03351019]
[0.03770899]
[0.10215541]
[0.06355926]
[0.06263527]
[-0.1262022]
[-0.05856397]
[-0.12448635]
[-0.04693235]
[0.04011669]
[0.05613392]
[0.05674663]
[-0.00361404]
[0.18983416]
[0.02440731]
[-0.0535844]
[-0.02703619]
[-0.14419617]
[-0.01221971]
[-0.03233626]
[0.08274175]
[0.0734726]
[0.0313846]
[0.1341559]
[-0.06060341]
[-0.06795696]
[-0.02245137]
[-0.08123107]
[-0.14013548]
[0.08351703]
[0.17920882]
[0.00120845]
[0.00787751]
[0.14475703]
[0.05955154]
[-0.14203995]
[0.04304781]
[-0.07265735]
[-0.10196494]
[0.03445904]
[-0.00776468]
[0.02011877]
[0.14328824]
[0.18750006]
[-0.04860394]
[0.0213118]
[0.02689111]
[-0.10811466]
[-0.09060434]
[0.10772397]
[0.17379048]
[0.11517336]
[-0.01348838]
[-0.02271999]
[0.02358512]
[-0.11863515]
[-0.0673427]
[-0.12915263]
[0.01775335]
[0.11893171]
[0.12827016]
[0.09780124]
[0.10806277]
[0.1777646]
[0.06578943]
[-0.07976378]
[-0.04180358]
[-0.07578815]
[-0.09124987]
[0.07932551]
[0.12665097]
[0.02520518]
[0.12686032]
[0.06459846]
[-0.04574666]
[-0.08774224]
[-0.00210075]
[-0.09706223]
[-0.04382484]
[0.05926361]
[0.11065336]
[0.12799338]
[0.08340739]
[0.15840927]
[-0.13087358]
[0.01064345]
[-0.07967417]
[0.04190999]
[0.00967048]
[0.09978397]
[0.05333999]
[-0.03094673]
[0.01492918]
[0.09464521]
[-0.11139308]
[-0.14093173]
[-0.13793428]
[-0.13766217]
[0.0262814]
[-0.04727533]
[0.12583904]
[0.07975955]
[0.00542816]
[0.14219488]
[-0.0740741]
[-0.12759483]
[-0.11002947]
[-0.07954255]
[0.02420795]
[0.10774174]
[0.01574151]
[0.07514926]
[0.17114072]
[0.14464137]
[-0.00802084]
[-0.04748783]
[-0.03595011]
[-0.04891409]
[-0.05001877]
[0.00012608]
[0.13205674]
[0.03659076]
[0.03199977]
[0.15254147]
[-0.0394212]
[-0.02025177]
[0.043872]
[-0.00533546]
[-0.14825213]
[0.07439135]
[0.03873263]
[0.17282572]
[0.13295884]
[0.01104639]
[-0.03744742]
[0.03621139]
[0.01106953]
[0.03562359]
[-0.05666237]
[0.07113927]
[-0.02303957]
[0.10328007]
[-0.01774906]
[0.04410276]
[-0.03437342]
[-0.08399836]
[-0.02236199]
[0.05399624]
[-0.1201742]
[0.02169517]
[0.04736174]
[0.15579203]
[0.03963086]
[0.03924286]
[-0.12399121]
[-0.0097268]
[-0.12791532]
[-0.14472333]
[0.00738736]
[0.11384512]
[0.12973902]
[0.15142359]
[-0.02150787]
[0.11829822]
[-0.08364695]
[-0.03396549]
[0.06341043]
[-0.09078042]
[-0.04638733]
[0.04945291]
[0.13564743]
[0.08210717]
[0.15385446]
[0.11552803]
[-0.09375275]
[-0.09053922]
[-0.03934385]
[-0.03718214]
[-0.03572557]
[-0.01483616]
[0.14006358]
[-0.02251773]
[0.16089997]
[0.06483021]
[-0.06792954]
[0.00355935]
[0.00392675]
[-0.02621727]
[-0.0981929]
[0.03506273]
[0.06473012]
[0.0158277]
[0.04538964]
[0.09942166]
[-0.1325413]
[-0.10785494]
[-0.11468419]
[0.02610716]
[-0.13888863]
[-0.00756502]
[0.1596615]
[0.01531152]
[0.15272728]
[0.1100316]
[0.01563365]
[-0.09404363]
[-0.04129706]
[0.03398287]
[-0.15691729]
[0.04580308]
[0.15077895]
[0.12797375]
[0.06511596]
[0.11695831]
[-0.03631115]
[-0.13430306]
[-0.0707049]
[-0.14917658]
[-0.07297249]
[0.06499682]
[0.09102735]
[0.10971817]
[0.07129613]
[0.03254842]
[-0.02754965]
[0.05068482]
[-0.10220253]
[-0.01491333]
[-0.0251041]
[0.02893712]
[0.02755065]
[0.1448321]
[0.07459421]
[0.01585673]
[-0.04921301]
[-0.02617053]
[-0.07612495]
[-0.14171202]
[-0.0512719]
[0.01429763]
[0.11947913]
[0.1289438]
[0.00978547]
[0.03467462]
[-0.12760828]
[-0.06336629]
[0.03858849]
[0.02717062]
[0.02286446]
[0.10642721]
[0.08263785]
[0.11038493]
[0.06711203]
[0.09628221]
[-0.01760785]
[-0.1081772]
[-0.12905622]
[-0.07600688]
[-0.11157139]
[0.07902327]
[0.00319616]
[0.08459418]
[0.11814386]
[0.12458773]
[0.00949486]
[-0.10388942]
[-0.00778591]
[-0.10265686]
[-0.08349594]
[0.0744292]
[0.02975689]
[-0.00259184]
[0.07443032]
[0.01931179]
[-0.05052802]
[-0.04317681]
[0.01496823]
[-0.00162973]
[0.05055671]
[-0.03120105]
[0.09974273]
[0.07888345]
[-0.02123685]
[0.10742726]
[-0.00766079]
[-0.0436318]
[-0.09293947]
[0.06616503]
[-0.11952506]
[0.04430811]
[-0.03070609]
[-0.0287147]
[-0.00711689]
[0.1497491]
[-0.11785306]
[0.05715968]
[-0.02240534]
[0.00312908]
[-0.01976559]
[0.01978767]
[-0.01695227]
[0.03061493]
[-0.01338154]
[0.03322558]
[-0.11973157]
[-0.04947199]
[-0.07467921]
[-0.01752796]
[-0.14374097]
[-0.03281707]
[0.15486117]
[0.03877656]
[0.00749801]
[0.06591224]
[0.02967789]
[-0.04542304]
[-0.10676938]
[-0.08653359]
[-0.00897339]
[0.0991715]
[-0.02525564]
[0.14007795]
[0.11011385]
[0.10185963]
[-0.03147678]
[0.00876924]
[0.02022225]
[-0.0505786]
[-0.13138016]
[-0.01482747]
[0.06881888]
[0.07665619]
[-0.05085762]
[-0.02603227]
[-0.09511771]
[-0.09197413]
[-0.00051555]
[-0.0761361]
[0.03081671]
[0.12661417]
[0.0766802]
[-0.04484549]
[0.14233726]
[0.10568592]
[-0.00615231]
[0.05918786]
[0.05508658]
[-0.09823102]
[0.0308772]
[0.02738044]
[0.01066951]
[-0.02760107]
[0.13126318]
[0.13059156]
[0.0168785]
[-0.04410657]
[-0.06415896]
[-0.03329602]
[0.02808094]
[-0.01453955]
[0.10518226]
[0.02269628]
[0.13552344]
[0.04229795]
[0.06145563]
[-0.0805746]
[-0.05001913]
[-0.13073505]
[-0.12240466]
[-0.03606075]
[0.15077978]
[-0.04698177]
[0.02293353]
[0.0246709]
[-0.00809554]
[-0.04813296]
[-0.10472982]
[-0.11900164]
[-0.12705885]
[0.0210104]
[0.08469104]
[0.1012006]
[-0.04489196]
[0.11399592]
[-0.07948974]
[-0.10946836]
[0.00184347]
[-0.09384641]
[-0.01509197]
[0.0316672]
[0.06593184]
[0.11524522]
[0.0455139]
[0.13158847]
[0.07351475]
[0.02729734]
[-0.0266807]
[0.05799063]
[-0.05701447]
[0.05144465]
[0.12451272]
[-0.01960567]
[0.14771183]
[-0.02194859]
[0.00345324]
[-0.08956181]
[0.0124728]
[-0.04478186]
[0.02624068]
[-0.03131003]
[-0.03982479]
[0.0210666]
[-0.02694193]
[0.02234605]
[-0.09068192]
[-0.06525613]
[-0.11489724]
[-0.10035032]
[-0.04574667]
[0.12881798]
[0.13615772]
[0.06246777]
[0.00818657]
[0.10902697]
[0.02101146]
[-0.10146978]
[-0.07165134]
[0.0385564]
[0.03167669]
[0.10501012]
[0.00285992]
[0.04527998]
[0.07525559]
[0.09128951]
[-0.05206418]
[0.04926603]
[-0.07084021]
[-0.09816103]
[-0.13731077]
[0.03642]
[0.00379102]
[0.12647036]
[-0.01660187]
[0.01201503]
[0.05645689]
[-0.02849257]
[-0.0341853]
[0.00672038]
[0.03769482]
[0.02292514]
[0.07881599]
[0.08599266]
[0.00063473]
[-0.01170887]
[-0.04233799]
[-0.10336866]
[0.01756]
[-0.10904682]
[-0.10958007]
[0.09835917]
[-0.02669938]
[0.09399685]
[-0.02132293]
[0.05936147]
[0.05051889]
[-0.1257692]
[0.00849372]
[-0.08328603]
[0.02019664]
[0.02312046]
[-0.02088194]
[0.10315189]
[0.05784738]
[-0.02237133]
[-0.04421059]
[-0.02411579]
[-0.07950129]
[0.00776736]
[0.04336622]
[0.06136388]
[-0.00330523]
[-0.00061324]
[-0.00123613]
[-0.02424103]
[-0.09816647]
[0.03976833]
[0.05185059]
[-0.03562941]
[-0.07299591]
[0.08740912]
[0.01875471]
[-0.01980254]
[-0.05348221]
[0.07876194]
[-0.081255]
[-0.10032864]
[-0.03388041]
[-0.06061224]
[-0.04419831]
[0.05307451]
[0.14471817]
[0.08918194]
[0.12252641]
[0.11875338]
[-0.05017375]
[-0.13617513]
[-0.09348397]
[-0.08657546]
[0.0715095]
[-0.04013433]
[-0.02393711]
[0.10671206]
[0.04278877]
[0.11056393]
[-0.00821551]
[-0.05772251]
[0.01972283]
[-0.09792839]
[-0.0510059]
[0.12763551]
[-0.03659196]
[0.00345021]
[0.08331077]
[0.03400292]
[-0.03682299]
[-0.04970496]
[-0.09045229]
[-0.08934682]
[-0.14135309]
[-0.05268926]
[0.06655199]
[0.11993967]
[0.1444123]
[0.02128953]
[-0.0474967]
[-0.13903034]
[0.04824611]
[-0.11920802]
[-0.00254963]
[0.06783953]
[0.1478379]
[-0.06404666]
[0.04256831]
[0.07375042]
[0.08847927]
[-0.02113272]
[0.04238135]
[0.00288318]
[-0.04842165]
[0.02711027]
[-0.05544176]
[0.10850614]
[0.00201927]
[0.02523151]
[0.0555895]
[-0.11775744]
[-0.06640881]
[0.0145472]
[0.00453326]
[-0.07386719]
[0.04279127]
[-0.02746384]
[-0.02630596]
[-0.01401343]
[0.07471861]
[-0.10929175]
[0.04638546]
[0.02839578]
[-0.01957703]
[-0.06965738]
[-0.04304752]
[0.12397809]
[0.00197212]
[-0.00083001]
[-0.07122384]
[-0.01725683]
[-0.08363523]
[-0.0880063]
[0.0456133]
[-0.00294985]
[0.0780715]
[-0.05919317]
[0.09749364]
[0.00266125]
[-0.07824443]
[0.02289644]
[0.02905692]
[0.00364638]
[0.07048258]
[-0.04020005]
[-0.04458823]
[0.04644034]
[0.02206086]
[-0.06352284]
[-0.1129325]
[-0.00322426]
[0.08088999]
[-0.09735145]
[0.03812901]
[0.02254741]
[-0.05607131]
[0.10384517]
[-0.0645301]
[0.04967002]
[0.04383717]
[0.06251508]
[-0.10930113]
[-0.07079305]
[0.00884725]
[-0.06537333]
[0.03321989]
[0.09692091]
[-0.0503603]
[-0.00175659]
[-0.05851737]
[-0.04115238]
[-0.01967926]
[-0.11023819]
[0.03671889]
[0.05345388]
[0.07672574]
[0.11221676]
[-0.01365134]
[0.10711059]
[-0.05405252]
[0.06107818]
[-0.07132442]
[-0.12681986]
[-0.08613993]
[0.01010895]
[0.14134243]
[0.0734617]
[0.02993749]
[0.02491168]
[-0.11833773]
[-0.00178244]
[0.05760619]
[-0.11390126]
[0.01483455]
[0.11994628]
[-0.0187085]
[0.1420967]
[0.08860645]
[0.06331259]
[0.03019396]
[-0.05897295]
[-0.08125512]
[0.0546364]
[-0.04206186]
[0.01258238]
[0.0603953]
[0.0278815]
[0.05241311]
[0.08029503]
[-0.04397413]
[-0.01502621]
[0.06461174]
[-0.06976324]
[0.07459291]
[0.05367018]
[-0.0564811]
[0.11651334]
[-0.05732118]
[0.08775543]
[-0.0862695]
[-0.11325935]
[0.08366415]
[-0.071078]
[-0.00378192]
[-0.06073558]
[0.05476556]
[-0.0062031]
[-0.07117262]
[-0.01609397]
[0.00386065]
[-0.08288473]
[0.08145496]
[0.07220392]
[0.03395455]
[0.01146688]
[-0.05261317]
[-0.01745627]
[-0.03446103]
[-0.01262333]
[0.06371623]
[-0.07112622]
[0.07563686]
[-0.04860773]
[-0.10341173]
[0.0469055]
[-0.06817085]
[0.0742356]
[0.13662559]
[0.00605918]
[-0.09040192]
[-0.07595292]
[-0.0893255]
[-0.0438247]
[-0.01790674]
[-0.01618489]
[0.10074498]
[0.10161537]
[0.04808663]
[-0.05163983]
[-0.09134693]
[0.03032276]
[0.06931873]
[-0.0162612]
[-0.06624079]
[0.08910227]
[0.12500128]
[0.09090878]
[0.00369366]
[0.0315986]
[0.02503271]
[0.04243027]
[0.00583478]
[0.02665136]
[-0.00907386]
[0.02942586]
[0.06657222]
[0.11156751]
[0.05260275]
[-0.01761358]
[0.00967969]
[-0.10238973]
[-0.123606]
[-0.00312194]
[0.00623319]
[-0.04571939]
[0.08524667]
[0.03671716]
[0.10665619]
[0.09322874]
[-0.00611254]
[-0.02072443]
[0.00285737]
[-0.03910568]
[-0.04640868]
[-0.00563573]
[0.02854832]
[-0.04165665]
[0.05579729]
[0.10986784]
[-0.06669812]
[-0.03326537]
[-0.03763516]
[-0.03962745]
[-0.00318152]
[0.0668046]
[0.05690795]
[0.09276947]
[0.07994853]
[-0.02592452]
[0.06411465]
[0.04502033]
[-0.0294721]
[-0.03714515]
[-0.12879203]
[0.02165913]
[-0.06369313]
[0.02648622]
[-0.03598586]
[0.1198041]
[-0.07373376]
[0.0248543]
[-0.07521157]
[0.04836643]
[0.00659568]
[-0.00214258]
[0.07807548]
[0.13185269]
[0.12468794]
[0.132806]
[-0.10788524]
[-0.00656021]
[0.04239759]
[0.08761764]
[-0.06374586]
[0.03172239]
[0.06132337]
[0.02244449]
[0.03108531]
[0.07278611]
[0.00781411]
[-0.07765605]
[-0.07361481]
[-0.09312426]
[0.02857364]
[-0.01523329]
[0.04963611]
[0.08590938]
[0.10839605]
[0.11723918]
[-0.06830948]
[-0.01315378]
[0.01052854]
[-0.05388246]
[-0.03099926]
[-0.07477709]
[0.02454895]
[-0.02908235]
[-0.02474347]
[0.04795315]
[-0.04283011]
[0.05049151]
[0.02256067]
[-0.00999301]
[-0.0813573]
[0.10946997]
[0.02837367]
[0.02152725]
[-0.00768165]
[-0.07969409]
[0.05330643]
[0.03770148]
[-0.0839375]
[-0.04726582]
[-0.02659404]
[-0.05654392]
[0.02691478]
[0.08852243]
[-0.03708924]
[0.07811822]
[-0.0908184]
[-0.05980677]
[-0.10894725]
[-0.0405639]
[0.05518977]
[0.05577553]
[-0.00747847]
[0.0272546]
[0.0361349]
[0.11194054]
[0.095743]
[-0.06728294]
[0.04779796]
[-0.06790493]
[-0.04038186]
[-0.04713939]
[-0.06617743]
[-0.08512376]
[0.06915168]
[-0.02404249]
[-0.03906702]
[0.01698178]
[-0.11822691]
[-0.02368205]
[-0.10238047]
[-0.00572363]
[0.06914392]
[0.06302994]
[0.11523474]
[0.0204388]
[0.04598385]
[-0.10908173]
[0.05410626]
[0.08496194]
[-0.0085499]
[0.00519941]
[-0.05305805]
[0.07934562]
[-0.00249958]
[0.01545616]
[0.08966808]
[-0.07186756]
[0.06457044]
[0.07976408]
[-0.04737467]
[0.09556742]
[-0.0133139]
[-0.00446798]
[-0.01423401]
[-0.05182614]
[-0.05028154]
[-0.04414159]
[-0.06988944]
[-0.1120332]
[-0.07606073]
[0.04570395]
[0.05994734]
[0.00035767]
[-0.02038911]
[0.07124893]
[-0.01337286]
[-0.03500255]
[-0.06021328]
[0.03759248]
[0.08855724]
[0.06995135]
[-0.06779309]
[-0.04012758]
[0.05319845]
[0.03960673]
[-0.04805681]
[-0.10149039]
[-0.03469852]
[0.0647959]
[-0.0643296]
[0.10288106]
[-0.02687941]
[0.0798137]
[0.08453844]
[0.11006807]
[0.06779072]
[0.06552707]
[-0.01658856]
[-0.03818769]
[0.00424359]
[-0.03582296]
[0.07183018]
[0.10506404]
[0.01484247]
[-0.07007575]
[-0.0813801]
[0.08425938]
[-0.06050609]
[-0.07263865]
[0.05872523]
[-0.04206073]
[-0.0761634]
[0.01521853]
[0.09678429]
[0.10622972]
[-0.03727887]
[0.07038707]
[0.08715786]
[0.02163869]
[-0.0953015]
[-0.08776782]
[0.07399815]
[-0.04100743]
[-0.04167484]
[0.09418553]
[-0.07965133]
[-0.11077851]
[0.07619777]
[-0.02848501]
[-0.11120162]
[-0.0850848]
[-0.03592834]
[-0.0170222]
[-0.05355414]
[-0.05316039]
[-0.02666287]
[-0.1141099]
[-0.10703586]
[-0.01083191]
[-0.09693375]
[-0.0570149]
[-0.03050415]
[0.09080415]
[0.07565561]
[-0.05634362]
[0.03118031]
[-0.03635605]
[0.02890585]
[0.05430853]
[-0.09537812]
[-0.08953695]
[0.00278996]
[-0.0808344]
[0.12012504]
[0.09769128]
[0.04840414]
[0.00642248]
[-0.01807265]
[0.07137702]
[-0.0083334]
[0.063625]
[0.02826745]
[0.01277896]
[0.07794337]
[-0.03653512]
[-0.00278374]
[0.06030432]
[-0.01389477]
[0.04279303]
[-0.05378623]
[0.10063716]
[-0.02750475]
[-0.03115816]
[-0.01214064]
[0.0971401]
[0.01751468]
[-0.09332366]
[-0.07345707]
[-0.10375836]
[-0.10230421]
[0.10663155]
[-0.05530227]
[0.07900379]
[0.02132521]
[0.02744171]
[-0.0252359]
[0.08116142]
[0.00572756]
[0.03562782]
[0.03556962]
[-0.03507971]
[-0.09310134]
[0.06020506]
[-0.08474344]
[-0.08326744]
[0.02677292]
[0.03456236]
[-0.02956658]
[0.04419241]
[-0.03180048]
[0.08211263]
[0.05407203]
[-0.04126641]
[-0.0576803]
[-0.06462526]
[0.01730314]
[-0.05141607]
[0.08308007]
[0.0242689]
[0.06939161]
[0.01264715]
[-0.07757233]
[-0.0373792]
[0.04853968]
[-0.09585719]
[0.01733334]
[-0.03478113]
[-0.07594312]
[-0.08097108]
[-0.10041902]
[-0.03059779]
[-0.07924458]
[0.05605485]
[0.10911587]
[-0.06654547]
[0.02114356]
[-0.0359578]
[0.02848055]
[-0.00871951]
[0.00102095]
[-0.04602303]
[-0.07133951]
[0.04742264]
[-0.02940514]
[-0.01123903]
[-0.10927951]
[-0.02585916]
[0.09835422]
[-0.10935624]
[0.00194858]
[0.05163655]
[-0.05227615]
[0.08937486]
[-0.07289506]
[0.05728193]
[0.06586155]
[0.03511142]
[0.02622271]
[0.02412912]
[-0.06490041]
[-0.03562561]
[0.05231773]
[0.1051313]
[0.01103724]
[-0.0280576]
[-0.09564933]
[0.03938704]
[0.03280437]
[-0.10313912]
[0.01374397]
[0.02238949]
[0.1127748]
[-0.05756032]
[0.02455249]
[0.00381931]
[-0.06961448]
[-9.758398e-06]
[-0.10159408]
[0.06159136]
[0.0593794]
[0.05749732]
[-0.05292254]
[-0.09491578]
[0.02517573]
[-0.04545519]
[-0.05878868]
[0.03081104]
[0.03068679]
[-0.02592568]
[-0.02307243]
[-0.08046217]
[0.02136189]
[0.04421087]
[0.03574481]
[0.05589487]
[-0.06360018]
[-0.01723546]
[0.08946572]
[-0.10678151]
[-0.06716323]
[0.04118501]
[-0.08337872]
[-0.08960464]
[0.10824057]
[0.036818]
[-0.04649338]
[-0.07043506]
[-0.0213205]
[0.10091057]
[-0.05448963]
[-0.03462674]
[-0.00942295]
[-0.02343637]
[0.03917886]
[0.01200364]
[0.09894509]
[-0.07474989]
[-0.02415388]
[-0.09316648]
[-0.04186996]
[-0.08055909]
[0.07148678]
[0.10993683]
[0.10079067]
[-0.03631768]
[0.00667851]
[-0.06315552]
[0.01359597]
[0.04415488]
[-0.02328049]
[-0.04367543]
[0.07490993]
[0.07463144]
[0.03932279]
[-0.08221972]
[0.06818872]
[-0.08145621]
[0.01982003]
[0.08314101]
[-0.06981079]
[-0.06970464]
[0.00445519]
[-0.0729856]
[-0.10423847]
[0.01847472]
[0.00663083]
[-0.06608507]
[0.02606736]
[-0.06444444]
[-0.07137599]
[-0.04577481]
[-0.07092538]
[0.0043089]
[-0.08293864]
[0.06058608]
[-0.04471416]
[0.01807638]
[-0.03281591]
[-0.08103858]
[0.03137707]
[-0.10215966]
[0.01583394]
[-0.04477964]
[0.00972466]
[-0.09885679]
[-0.10106433]
[0.00074968]
[-0.1012336]
[0.03874979]
[-0.03067776]
[-0.01990982]
[-0.02256819]
[0.01350257]
[-0.06768456]
[-0.01583123]
[0.08495782]
[-0.09038065]
[0.05578342]
[-0.08970257]
[-0.00090479]
[0.10054167]
[-0.02044078]
[-0.08593068]
[0.06422115]
[0.04751447]
[0.01863519]
[-0.00766832]
[0.04407927]
[-0.09452789]
[0.05732282]
[0.06169247]
[0.07185977]
[-0.01187406]
[0.06971919]
[0.04778815]
[0.06446812]
[0.08506346]
[0.08758193]
[0.01990408]
[0.01627827]
[0.05760287]
[-0.09390031]
[0.0999643]
[-0.06032113]
[-0.05522816]
[0.08795768]
[0.0941088]
[0.09662099]
[-0.05710753]
[0.07485366]
[0.0849153]
[0.03538135]
[0.01766959]
[0.05571187]
[0.05333762]
[-0.10375964]
[0.00366517]
[-0.06446858]
[0.0259556]
[0.10434447]
[-0.04268689]
[-0.02315606]
[0.0470195]
[-0.10918421]
[0.08017588]
[0.0972684]
[-0.10146943]
[0.04541766]
[-0.06459578]
[-0.05662297]
[-0.02886235]
[-0.10218601]
[-0.10139534]
[0.07000656]
[0.05717951]
[0.02568143]
[-0.0645347]
[-0.01879757]
[-0.05637025]
[0.05551731]
[-0.02222101]
[0.05520392]
[0.00440072]
[0.01858075]
[0.09417389]
[0.09495521]
[0.07539619]
[0.05380249]
[-0.02277131]
[-0.06982223]
[0.04215304]
[-0.0066899]
[-0.00406049]
[0.04567103]
[0.0983988]
[-0.09198739]
[-0.00747156]
[0.00684702]
[-0.06693673]
[0.02089385]
[0.02138904]
[-0.05566709]
[-0.07790979]
[0.0344757]
[0.02285032]
[0.03945833]
[0.00335997]
[0.03903523]
[0.05744206]
[0.04493631]
[-0.01446711]
[-0.0818259]
[0.04615949]
[0.07614572]
[0.01710316]
[-0.06796761]
[-0.01102521]
[0.09670722]
[0.10933801]
[0.06625773]
[-0.01731079]
[-0.06908908]
[-0.04595055]
[-0.08996152]
[0.08859791]
[-0.056571]
[-0.04048911]
[-0.00071663]
[0.10643706]
[-0.04738858]
[-0.10217007]
[0.05649828]
[-0.02834646]
[0.05082357]
[-0.02088771]
[-0.04329977]
[0.06917371]
[0.02403614]
[-0.06470706]
[-0.09776919]
[-0.04123425]
[0.09410015]
[-0.00896377]
[-0.06207407]
[-0.071917]
[-0.05832321]
[0.02398988]
[-0.00194397]
[0.10797472]
[-0.0344117]
[-0.10536455]
[0.04845103]
[0.02585866]
[0.06982814]
[0.06897828]
[-0.01178137]
[0.00725297]
[0.10345051]
[0.10845138]
[0.02141583]
[-0.10249101]
[-0.07611115]
[0.02113713]
[0.04345369]
[-0.10078588]
[-0.05312364]
[-0.00348741]
[-0.01870255]
[-0.06637334]
[0.07890984]
[-0.0491941]
[0.03692623]
[0.08169415]
[0.08629447]
[0.02391237]
[-0.04876195]
[-0.00078422]
[0.0077996]
[0.10001294]
[-0.08776165]
[0.03543606]
[0.02587901]
[0.03453292]
[-0.0832267]
[-0.11843199]
[-0.10139515]
[-0.0751573]
[0.0988382]
[-0.04037677]
[0.04025728]
[-0.11526579]
[-0.07832798]
[0.05678807]
[-0.04624332]
[-0.11798653]
[0.00655018]
[0.03638821]
[-0.04611978]
[-0.00409245]
[0.01575069]
[-0.08505271]
[0.08806975]
[0.00601092]
[-0.08060924]
[-0.04133934]
[0.06053139]
[0.01805003]
[-0.05986875]
[-0.05075939]
[0.04861691]
[0.05697618]
[-0.00887233]
[-0.03083273]
[0.07873221]
[-0.02681269]
[0.08121262]
[0.11198815]
[0.05223674]
[0.07557008]
[0.11198567]
[-0.03005693]
[0.07099538]
[0.02905102]
[-0.096176]
[-0.07011707]
[-0.08763069]
[0.04963753]
[0.07226047]
[0.0675458]
[-0.08359725]
[-0.0377121]
[0.08800526]
[-0.03591064]
[0.0861889]
[0.01987481]
[-0.09002512]
[-0.05487976]
[0.04615588]
[-0.05818152]
[0.10772963]
[0.0666715]
[-0.05910833]
[-0.05595554]
[0.08017769]
[0.04224811]
[0.00978079]
[-0.06113612]
[-0.02966392]
[-0.01108268]
[-0.08408073]
[0.02712547]
[-0.08005648]
[0.03000789]
[-0.11590791]
[-0.0761009]
[0.08296151]
[0.05352588]
[0.00872169]
[0.00032555]
[0.03424991]
[-0.09656566]
[0.03320657]
[-0.10452588]
[-0.06968457]
[-0.04439919]
[0.00639089]
[0.10543798]
[-0.05870392]
[0.10947543]
[0.01841786]
[-0.1076965]
[0.04702634]
[-0.01679328]
[-0.11188629]
[0.0782716]
[-0.01119267]
[0.10509456]
[0.09216744]
[-0.05901744]
[0.06723426]
[0.04770816]
[-0.11382215]
[0.06553036]
[0.06070682]
[-0.09031916]
[-0.03691797]
[0.11613801]
[0.04184321]
[-0.03265637]
[0.0742913]
[-0.08119059]
[-0.09219383]
[0.08281553]
[0.07563952]
[-0.02339067]
[0.06190287]
[0.0193122]
[0.09070297]
[0.04369775]
[-0.04022537]
[0.03252633]
[0.04454204]
[-0.10310459]
[0.07517531]
[-0.11025086]
[-0.08490966]
[0.11321306]
[-0.01499499]
[0.01523139]
[-0.08663364]
[0.05249188]
[-0.04656148]
[0.08333364]
[-0.09706104]
[-0.02178337]
[0.00546304]
[-0.03996585]
[0.0740893]
[0.11568058]
[0.06865982]
[-0.11666582]
[-0.02507801]
[-0.03589164]
[0.01598043]
[-0.07358027]
[-0.05252072]
[0.09280652]
[0.01997727]
[-0.03419093]
[0.08321654]
[0.04512216]
[-0.07130902]
[-0.06664084]
[-0.02743271]
[0.06413291]
[0.03144313]
[0.03659115]
[-0.03698156]
[0.01801053]
[0.08866827]
[-0.08990636]
[-0.02294329]
[-0.05597144]
[0.05036155]
[-0.0440148]
[0.02438479]
[0.0732622]
[-0.06021678]
[0.05091861]
[0.077058]
[0.04401394]
[-0.07327802]
[-0.02581485]
[0.00392479]
[0.005124]
[0.02461121]
[0.06016999]
[0.04444509]
[-0.0281272]
[0.04083229]
[-0.00206361]
[-0.05195265]
[-0.05764713]
[0.05728005]
[-0.10167841]
[0.00306871]
[0.05791081]
[-0.07294703]
[0.11462834]
[0.11814316]
[-0.09406094]
[0.06892796]
[0.02396755]
[-0.0265522]
[0.07170649]
[0.10917581]
[-0.03105917]
[-0.07221676]
[0.08067556]
[-0.02073112]
[-0.05827091]
[-0.1205532]
[-0.11424845]
[-0.10001833]
[-0.0913933]
[-0.08641492]
[0.05854075]
[0.00719341]
[0.00721437]
[0.04933026]
[-0.10798179]
[-0.10153363]
[-0.08007076]
[-0.11611989]
[0.03852595]
[0.05327882]
[0.05625912]
[0.05273451]
[-0.01030918]
[0.1154848]
[0.06831775]
[-0.07575294]
[0.02317922]
[-0.06751908]
[0.04475535]
[0.02603365]
[-0.02221557]
[0.04598694]
[-0.02381876]
[0.02737902]
[0.01794526]
[-0.01461405]
[-0.01546523]
[-0.10056472]
[-0.03512985]
[0.03687924]
[0.01028997]
[-0.00597417]
[-0.03496566]
[0.0446581]
[-0.10745214]
[-0.03362439]
[-0.11327836]
[0.05583908]
[-0.04106478]
[0.11200995]
[0.09015988]
[-0.06068104]
[0.06209913]
[0.00280373]
[0.02035487]
[0.07480678]
[-0.02289269]
[-0.06451511]
[-0.0775281]
[0.10689713]
[0.10198649]
[0.11643223]
[0.09861243]
[0.03296187]
[0.00180129]
[0.07638167]
[0.07679868]
[0.01548666]
[0.03288735]
[-0.00575153]
[0.08224332]
[-0.06785653]
[-0.07415102]
[0.12817785]
[-0.01364789]
[-0.01852363]
[0.03274174]
[-0.04966583]
[0.02985289]
[-0.03312708]
[0.00641545]
[-0.02185613]
[-0.0757302]
[-0.04807493]
[0.01519064]
[0.03740202]
[-0.00109665]
[0.07355568]
[-0.04195791]
[0.11328681]
[-0.05311843]
[0.09892571]
[0.01990244]
[-0.02444428]
[-0.0023114]
[-0.12255509]
[-0.05417012]
[-0.05947014]
[0.05409557]
[0.10543725]
[-0.04617225]
[-0.01263432]
[0.02148675]
[-0.07742563]
[0.05138884]
[-0.0855004]
[-0.12072746]
[-0.04493026]
[0.01415094]
[-0.04393473]
[0.06755078]
[-0.05720915]
[-0.05404441]
[-0.06528199]
[-0.1256708]
[-0.12946096]
[-0.13160951]
[0.01726907]
[-0.07463072]
[0.08934891]
[-0.03075575]
[0.04817243]
[0.09137896]
[-0.00407024]
[-0.10527906]
[-0.04292905]
[-0.0220631]
[-0.09249863]
[0.01369378]
[0.01223299]
[0.0541047]
[0.01687459]
[-0.05163692]
[0.03825624]
[-0.03339949]
[-0.09655596]
[-0.07808967]
[0.05379273]
[-0.10066338]
[-0.01768846]
[0.07244352]
[-0.07141834]
[0.02547141]
[0.10811188]
[-0.0957322]
[-0.12560138]
[-0.06056367]
[-0.04022547]
[-0.12500177]
[-0.04681848]
[-0.07176581]
[0.09181482]
[0.12108579]
[-0.00696222]
[-0.00165647]
[0.02079746]
[-0.08114025]
[-0.05119563]
[-0.13119146]
[-0.07474227]
[0.11998228]
[0.01376337]
[-0.02497963]
[0.11885026]
[-0.00500886]
[-0.01812856]
[-0.00672534]
[-0.04798282]
[-0.13039123]
[-0.05947354]
[0.04866625]
[-0.00310297]
[-0.05188349]
[0.07934516]
[0.02904091]
[-0.07787068]
[-0.02022633]
[-0.03693723]
[0.05009755]
[0.10741829]
[0.04604668]
[0.02479728]
[0.06312145]
[0.10358496]
[-0.03046166]
[-0.05049314]
[0.01336885]
[0.03541089]
[-0.11769885]
[0.02787012]
[0.09456438]
[0.07494795]
[-0.02158507]
[0.01584103]
[0.07981095]
[-0.01076329]
[-0.06788971]
[-0.08923703]
[0.02522847]
[-0.00645016]
[-0.03969676]
[0.10616016]
[0.03448684]
[0.10761068]
[-0.06515665]
[-0.08358616]
[0.0133432]
[0.02561658]
[0.06101222]
[0.0825825]
[0.05675685]
[-0.04305144]
[-0.01305402]
[-0.0741969]
[-0.00294515]
[-0.0923764]
[-0.02503966]
[-0.00834004]
[0.02113188]
[-0.03011119]
[0.05425305]
[0.07689355]
[0.03043729]
[0.0051291]
[-0.05810876]
[-0.07608943]
[-0.1457959]
[-0.04529362]
[0.02878517]
[0.00064666]
[0.0072304]
[0.13069315]
[0.07690489]
[0.09727905]
[0.08055843]
[-0.0484614]
[0.0090548]
[-0.02759502]
[-0.06264941]
[0.00155946]
[-0.06873147]
[0.0102295]
[-0.03061733]
[0.019091]
[-0.03988188]
[-0.04522001]
[0.04106194]
[-0.01913492]
[-0.01709479]
[-0.02336629]
[0.05920536]
[-0.00146418]
[-0.06873761]
[0.10253292]
[0.01997559]
[-0.0847229]
[0.04240513]
[-0.11065553]
[0.04109837]
[-0.02802426]
[0.06714955]
[0.09613076]
[-0.0566513]
[0.12989089]
[-0.10680112]
[-0.1058122]
[0.01595251]
[0.04678786]
[-0.12489153]
[0.12315275]
[0.04950292]
[-0.05861922]
[-0.06092228]
[0.133239]
[-0.1164371]
[0.00786972]
[-0.09975582]
[-0.0539297]
[-0.1265777]
[0.0687713]
[-0.00902212]
[-0.06976768]
[0.10329394]
[-0.01938687]
[0.03161699]
[-0.04037049]
[-0.05922979]
[-0.11454552]
[-0.07127842]
[0.04888202]
[-0.06651483]
[0.02048435]
[0.01053157]
[0.00627016]
[-0.02256979]
[0.02809172]
[-0.03813767]
[0.05177659]
[-0.11091388]
[0.10226566]
[-0.02225443]
[-0.04022846]
[0.05108478]
[0.11760244]
[-0.01336284]
[-0.00571964]
[-0.11172709]
[-0.02453687]
[-0.06127312]
[0.08478482]
[0.03708443]
[-0.06596147]
[0.12821971]
[-0.05103075]
[0.00488754]
[-0.09290416]
[-0.05791409]
[-0.0172808]
[0.0534201]
[-0.06933832]
[0.0518249]
[0.10514453]
[-0.03194011]
[0.00752768]
[0.0461452]
[-0.0464307]
[-0.07089898]
[0.00882138]
[-0.08444721]
[0.0722042]
[0.07239287]
[-0.01126599]
[-0.03365462]
[0.04682268]
[0.05253602]
[0.03735694]
[0.0475207]
[0.0059774]
[0.03842836]
[0.10103846]
[0.05639662]
[0.04754518]
[0.06386323]
[0.13942315]
[-0.10233011]
[-0.02093046]
[0.04262481]
[0.04887666]
[0.03429932]
[-0.07639372]
[0.00063342]
[-0.05037864]
[-0.01353195]
[0.08279158]
[0.01230698]
[-0.08360866]
[0.04648439]
[-0.04047304]
[0.03002537]
[0.00078465]
[-0.05428941]
[0.03613647]
[-0.04283174]
[-0.02354241]
[0.01944204]
[-0.15508637]
[-0.12541817]
[-0.11872642]
[-0.10974135]
[-0.05695656]
[-0.03976241]
[-0.00454138]
[0.1016968]
[-0.0203269]
[-0.0242081]
[-0.0729479]
[-0.0340667]
[-0.04873037]
[-0.10740677]
[-0.01820759]
[0.06236018]
[0.10838494]
[0.03522087]
[0.1241288]
[-0.07712162]
[-0.00767299]
[-0.10967572]
[-0.0013084]
[-0.00949833]
[-0.00772811]
[0.00288516]
[0.0801933]
[0.0977573]
[0.09607067]
[0.06227652]
[-0.15172833]
[-0.03977235]
[-0.08381279]
[-0.03531313]
[0.01208772]
[0.04000222]
[0.13397725]
[-0.01677662]
[-0.05886127]
[-0.09806396]
[-0.13090312]
[-0.13892606]
[-0.00287354]
[-0.16514748]
[0.02426793]
[-0.04130301]
[0.00763195]
[0.02145477]
[0.07479227]
[0.03544256]
[-0.00209869]
[-0.0901955]
[-0.1479865]
[0.00839381]
[-0.04814066]
[0.10636713]
[-0.05834851]
[-0.06544383]
[0.11432224]
[-0.10909745]
[-0.0028007]
[0.04118293]
[-0.14531223]
[-0.07366292]
[0.09482971]
[0.04285927]
[-0.07025716]
[0.00831321]
[0.10379955]
[0.00659179]
[-0.08380131]
[0.00121438]
[-0.01546778]
[-0.15728885]
[0.10992318]
[-0.02785887]
[-0.00233292]
[0.00120071]
[-0.00487562]
[0.05461767]
[-0.10352178]
[0.00501021]
[-0.11103632]
[-0.00091567]
[-0.01546658]
[-0.05953245]
[0.13723078]
[0.06386295]
[-0.04642393]
[0.01367202]
[-0.06077547]
[-0.13910687]
[0.02714374]
[-0.09140074]
[0.12189455]
[0.12432259]
[0.11935061]
[-0.02435475]
[-0.01343494]
[-0.04854888]
[-0.10900576]
[-0.15097743]
[-0.03755364]
[-0.10567601]
[-0.06229375]
[0.0652061]
[0.0275338]
[-0.02367924]
[0.10937656]
[-0.00869957]
[-0.07498856]
[-0.13748063]
[0.00612469]
[-0.10482713]
[0.01928077]
[0.00247907]
[-0.00316495]
[-0.00194339]
[-0.03681247]
[-0.09486188]
[0.01190259]
[0.0227019]
[-0.15487672]
[-0.08573594]
[0.03773903]
[0.06445394]
[0.1376611]
[0.02577565]
[0.12479509]
[-0.03583625]
[-0.01822804]
[-0.16406901]
[0.04194742]
[0.03406957]
[0.1179081]
[0.06653871]
[-0.05429155]
[0.10314487]
[-0.03266955]
[-0.05561877]
[-0.16538152]
[-0.12167536]
[-0.0203863]
[-0.0631679]
[0.03077159]
[-0.00113871]
[0.01481868]
[0.117024]
[0.13738638]
[0.0298783]
[-0.05208495]
[-0.16002667]
[-0.02830107]
[0.0037066]
[-0.05130338]
[0.13355088]
[0.08122572]
[-0.0028506]
[0.14666697]
[-0.13844508]
[-0.06504618]
[0.0202964]
[-0.09967336]
[0.01348805]
[-0.00354648]
[-0.02258983]
[0.06440891]
[0.11121634]
[-0.05671443]
[-0.07419633]
[-0.00903922]
[-0.02903097]
[-0.08369061]
[-0.09084965]
[-0.06297521]
[0.0967539]
[0.00970572]
[0.05782076]
[0.01723051]
[0.02254732]
[-0.04964229]
[-0.12732345]
[0.04265994]
[0.002046]
[-0.01220632]
[-0.05487184]
[0.08346806]
[0.14233282]
[0.03762195]
[0.03503265]
[0.03595949]
[0.0091911]
[-0.11300404]
[-0.1716477]
[0.08627477]
[0.05600047]
[-0.03014981]
[0.01553907]
[0.08772814]
[-0.02379571]
[0.01388744]
[-0.05566384]
[-0.04005147]
[-0.006851]
[0.10581131]
[0.01432259]
[-0.01602903]
[-0.0575927]
[0.03764545]
[0.03849914]
[0.0356248]
[-0.03370464]
[-0.15918371]
[-0.1716052]
[-0.07688668]
[0.12873045]
[0.12513748]
[0.00830174]
[0.08823531]
[-0.02303549]
[0.02373388]
[-0.14551994]
[-0.03170662]
[0.01394723]
[0.04508769]
[0.15820158]
[0.06161105]
[0.06033997]
[-0.04226067]
[-0.03025246]
[-0.07429643]
[-0.01576717]
[-0.07996752]
[-0.06933426]
[-0.04509627]
[0.04696773]
[0.08774669]
[0.05485468]
[0.08560391]
[0.0333883]
[0.01291461]
[-0.13398686]
[-0.13120696]
[-0.01627307]
[0.00285584]
[0.10740845]
[-0.0359886]
[0.08190779]
[-0.00300251]
[-0.10627599]
[-0.00866181]
[-0.1071602]
[-0.15949833]
[-0.0226339]
[0.04497716]
[0.07772666]
[0.04827021]
[-0.05027708]
[-0.00810342]
[-0.10608113]
[-0.10998443]
[-0.11360159]
[-0.16171446]
[-0.11190543]
[-0.0358154]
[0.09182122]
[0.11896436]
[0.10791646]
[0.08118391]
[0.03624777]
[-0.0789621]
[-0.05665413]
[-0.14700243]
[-0.17667638]
[0.11643343]
[0.02432013]
[0.01360464]
[0.12170319]
[0.10598776]
[-0.13562247]
[-0.05596048]
[-0.16286322]
[0.02573842]
[0.01919236]
[-0.04495629]
[0.14548257]
[0.12697041]
[0.0843371]
[0.05008994]
[0.04830379]
[-0.09922288]
[-0.05037051]
[-0.13154638]
[-0.15602253]
[0.05233454]
[-0.01461262]
[0.01094577]
[-0.03074893]
[0.05235982]
[-0.11994523]
[-0.12084638]
[-0.12880577]
[-0.12820485]
[-0.08690104]
[-0.0723101]
[0.08294016]
[0.04929327]
[-0.04330783]
[-0.04384959]
[-0.03663631]
[-0.17754707]
[-0.04986376]
[-0.00476269]
[-0.16181606]
[0.02071998]
[0.00569248]
[0.10207]
[0.07672869]
[0.07909232]
[-0.12050273]
[-0.03201112]
[-0.08788976]
[-0.15962988]
[-0.10417962]
[-0.02285501]
[0.10027017]
[0.1099479]
[0.08685531]
[0.00451647]
[-0.05170161]
[-0.0617172]
[-0.12185325]
[-0.00607181]
[-0.03252838]
[0.08082092]
[0.02150019]
[0.02311122]
[0.00993214]
[0.15299165]
[-0.09818269]
[-0.06080966]
[-0.06843872]
[-0.17100114]
[-0.02430833]
[0.02354477]
[0.08409961]
[0.07638398]
[0.01091829]
[-0.04584612]
[-0.04238885]
[-0.06560457]
[-0.12577358]
[-0.00590167]
[-0.16653991]
[0.00921346]
[-0.01485395]
[-0.04208609]
[0.05442812]
[0.1324661]
[-0.14488687]
[-0.02498865]
[-0.01619318]
[-0.06566362]
[-0.10129478]
[-0.02573127]
[0.15591729]
[0.00559641]
[-0.03130843]
[0.03616835]
[-0.11644579]
[-0.08233827]
[-0.01479625]
[-0.05433781]
[-0.10380758]
[0.02909637]
[0.13403416]
[0.02266106]
[-0.02968091]
[0.02382238]
[-0.08178462]
[-0.00225864]
[0.02598377]
[-0.03812324]
[-0.04719248]
[-0.05260551]
[-0.02120163]
[-0.0265042]
[0.14606053]
[0.09553483]
[0.00466284]
[-0.04125322]
[-0.0107118]
[-0.06797995]
[-0.16950405]
[0.00861738]
[0.07102487]
[-0.02224749]
[0.14458212]
[0.03788507]
[0.02706691]
[-0.00928594]
[-0.15882239]
[-0.16106588]
[-0.06033245]
[0.12447601]
[0.10863461]
[0.01025077]
[0.04928949]
[0.07555506]
[-0.1375731]
[-0.01749345]
[-0.02833346]
[-0.11125017]
[-0.06217867]
[0.12977806]
[0.06405338]
[0.03976937]
[0.06364975]
[0.04668602]
[-0.15020506]
[-0.00463592]
[-0.13928187]
[-0.01724202]
[-0.11945496]
[0.05874393]
[0.15829323]
[0.11260938]
[0.1375174]
[0.1384128]
[-0.01939356]
[-0.16651657]
[-0.18590337]
[-0.0022651]
[-0.15123647]
[0.0235494]
[-0.00196362]
[-0.00031117]
[0.0266289]
[0.02096505]
[-0.02587546]
[0.00494994]
[-0.01802494]
[-0.03845759]
[-0.16479042]
[-0.01010679]
[0.07469398]
[0.15710962]
[-0.01009233]
[0.14848508]
[-0.10122514]
[-0.14320728]
[-0.02008821]
[-0.05434147]
[0.00242964]
[0.03636703]
[0.06759873]
[0.10318615]
[0.030063]
[0.13587758]
[-0.126602]
[-0.01838271]
[-0.0951072]
[-0.01562465]
[-0.04236246]
[0.03857322]
[-0.02884973]
[0.11852823]
[0.04550149]
[-0.01556582]
[-0.05598808]
[0.00084823]
[-0.16422404]
[-0.09611407]
[-0.01795501]
[0.10247295]
[-0.00347349]
[0.00808889]
[-0.01679845]
[0.08808935]
[-0.03171481]
[-0.16609631]
[-0.16855407]
[-0.12170252]
[-0.03782579]
[0.09426086]
[-0.02874625]
[0.00888506]
[-0.01144794]
[0.14819588]
[-0.02298047]
[-0.1873379]
[-0.01067877]
[-0.01348186]
[-0.12801899]
[-0.06909481]
[-0.03366673]
[0.15124348]
[0.03830581]
[0.1290217]
[-0.02615685]
[-0.10776237]
[-0.0311592]
[-0.17171386]
[-0.06354339]
[0.12187544]
[-0.01053549]
[0.06681804]
[0.02680678]
[0.0015524]
[0.01080418]
[-0.10224866]
[-0.00763125]
[-0.13260083]
[-0.01613548]
[0.11803116]
[0.03816232]
[-0.00505559]
[0.05566224]
[-0.00690227]
[-0.04645227]
[-0.00382576]
[-0.08803122]
[0.01014082]
[-0.02305378]
[0.10851587]
[0.01400901]
[0.08419657]
[-0.00507421]
[0.01662738]
[-0.03341022]
[0.01696067]
[-0.14749819]
[-0.02818822]
[-0.07973842]
[0.11305199]
[0.04101285]
[0.10948045]
[0.06397445]
[-0.00137974]
[-0.11641204]
[-0.04057045]
[0.00247286]
[-0.11600683]
[-0.17434078]
[0.00674428]
[-0.02165285]
[0.13101576]
[0.00987777]
[0.16272306]
[0.00358406]
[-0.07733635]
[-0.05097973]
[0.00648881]
[-0.08521973]
[0.13034394]
[0.15601629]
[-0.01714098]
[0.11736275]
[0.06525229]
[-0.06523862]
[-0.00092772]
[-0.01697191]
[-0.02676384]
[-0.0906954]
[0.06430346]
[-0.03740998]
[0.15488382]
[0.11874275]
[0.10155701]
[0.01035683]
[-0.1369529]
[-0.08484416]
[-0.13252243]
[-0.14757529]
[0.00155813]
[0.10682272]
[-0.04914641]
[0.05202125]
[0.03322478]
[-0.12545149]
[0.02175829]
[0.01216673]
[-0.12210337]
[-0.04935734]
[0.11905063]
[0.02448258]
[0.05302652]
[-0.033307]
[0.01972441]
[-0.14811313]
[0.01422478]
[-0.15586531]
[-0.0443207]
[0.0037525]
[-0.05838073]
[-0.03427987]
[-0.01862044]
[0.15579093]
[0.13841885]
[0.01304376]
[-0.08781454]
[-0.01479475]
[-0.09561757]
[-0.04143784]
[0.10995571]
[0.14857991]
[0.10615579]
[0.14752114]
[0.03801344]
[0.04284443]
[0.00365899]
[-0.03014234]
[-0.05018292]
[0.00097801]
[0.06426007]
[0.06911395]
[0.08577126]
[0.02714544]
[-0.0270322]
[-0.02094317]
[-0.12618506]
[-0.02692541]
[-0.17522866]
[-0.04589614]
[-0.05225533]
[0.06957495]
[0.1343482]
[0.12694429]
[0.11913585]
[-0.06372292]
[-0.08971324]
[-0.16178943]
[-0.01947933]
[-0.03970046]
[0.12980959]
[0.14208901]
[-0.05488401]
[0.06510155]
[0.1026032]
[-0.10803336]
[-0.15827098]
[-0.13177252]
[-0.05500374]
[0.0130171]
[0.0747053]
[0.02171288]
[-0.01265436]
[0.12918685]
[0.12244301]
[-0.14688258]
[0.02364303]
[0.02239668]
[-0.09536289]
[-0.08544324]
[-0.05996544]
[0.03241675]
[-0.02308637]
[-0.02121297]
[0.07135012]
[-0.11595604]
[-0.08060186]
[-0.04205664]
[-0.01715548]
[0.01099323]
[0.10022842]
[0.13268177]
[-0.02075434]
[-0.04898706]
[-0.01074374]
[-0.06388815]
[-0.17240137]
[-0.15440518]
[-0.1227642]
[-0.06744012]
[0.10956039]
[0.02785718]
[0.02311071]
[0.06088421]
[0.16415425]
[-0.00417887]
[-0.14740482]
[-0.09135449]
[-0.01726679]
[0.00016243]
[0.10863555]
[0.16814516]
[-0.05503875]
[0.01615655]
[0.0674414]
[-0.01527371]
[-0.13754983]
[-0.12843716]
[-0.06229727]
[-0.14264448]
[-0.00437589]
[0.15066874]
[0.09602109]
[0.07028937]
[0.01558514]
[-0.06112298]
[-0.06580648]
[-0.09076525]
[-0.15989548]
[-0.1897063]
[0.07906865]
[0.10542439]
[-0.00721575]
[0.0222838]
[-0.03040089]
[-0.11930059]
[-0.06690633]
[-0.00741719]
[0.02940843]
[-0.02110635]
[0.05341274]
[0.12950571]
[0.02930688]
[0.02263884]
[-0.02085425]
[-0.08429558]
[-0.08053011]
[-0.0045937]
[-0.1403963]
[-0.13047323]
[0.03708716]
[-0.04326766]
[-0.04891385]
[0.10666288]
[0.00589765]
[-0.14439966]
[-0.03248729]
[-0.17857766]
[-0.14681956]
[-0.1585873]
[0.01556024]
[-0.0011225]
[0.1434312]
[0.11879729]
[0.10926464]
[-0.15257134]
[-0.17708689]
[0.02843228]
[-0.12642379]
[-0.04327381]
[0.13907637]
[0.10549884]
[0.14393312]
[0.13388994]
[0.15945096]
[-0.13034195]
[-0.04077765]
[-0.0841746]
[0.02677584]
[-0.12459808]
[0.10730132]
[0.018704]
[0.11708448]
[0.05204748]
[-0.04229299]
[-0.14459817]
[-0.08266654]
[-0.12016913]
[-0.02496585]
[-0.04436797]
[0.03403068]
[0.02937598]
[-0.00899625]
[0.00271785]
[0.07139833]
[0.03401188]
[-0.1379132]
[0.02289377]
[-0.12543346]
[-0.01692749]
[0.00870718]
[0.00278331]
[0.06992423]
[0.11602538]
[-0.03610321]
[-0.09054082]
[-0.15263009]
[-0.10877454]
[-0.06622557]
[0.00673226]
[0.01928203]
[0.14408216]
[0.0159159]
[0.04638869]
[-0.01919724]
[0.00442206]
[-0.1128915]
[-0.07316796]
[0.00882423]
[0.00669223]
[0.09377436]
[0.11203457]
[0.12575942]
[0.05658628]
[0.07622652]
[0.0215986]
[-0.15455756]
[0.02966007]
[-0.05146452]
[0.00398434]
[-0.01156823]
[0.08132696]
[0.12583792]
[0.04120419]
[0.04718618]
[0.05501899]
[-0.12940288]
[0.02879832]
[-0.1197252]
[-0.10241774]
[-0.03766571]
[-0.0424224]
[0.04323022]
[-0.00719152]
[0.06963287]
[-0.07149612]
[-0.12293622]
[-0.05208828]
[-0.06192412]
[-0.07225668]
[-0.05879097]
[0.09172845]
[0.02145062]
[0.05547065]
[0.05884543]
[-0.02887485]
[0.01749472]
[-0.08674718]
[-0.10751825]
[-0.07110852]
[0.12031187]
[-0.04418227]
[0.09408817]
[-0.05414482]
[0.06028366]
[0.01576702]
[-0.07177233]
[-0.08241533]
[-0.01986907]
[-0.09438749]
[0.04594671]
[0.02048788]
[0.05180119]
[0.1235536]
[0.05219134]
[-0.10794758]
[-0.10501255]
[-0.08241518]
[-0.02805862]
[-0.17977448]
[0.06460236]
[0.06986311]
[0.04094313]
[0.05619984]
[-0.02765012]
[0.05889136]
[-0.08243561]
[-0.09229035]
[-0.05376656]
[-0.07157252]
[0.10429884]
[0.13270731]
[0.02989285]
[-0.04177943]
[-0.01088239]
[-0.10581292]
[-0.12243878]
[0.02656499]
[-0.16383395]
[-0.02841212]
[0.08596633]
[0.02839415]
[-0.01076471]
[0.0980474]
[0.11931723]
[-0.06971574]
[0.01149635]
[-0.06204984]
[-0.03340371]
[-0.00550362]
[0.04043587]
[0.03825161]
[-0.05729656]
[0.09636856]
[0.04562723]
[0.06207556]
[-0.03185093]
[-0.1193027]
[-0.08795238]
[-0.03688848]
[-0.0081553]
[0.01605115]
[-0.02649099]
[-0.01783271]
[0.06372008]
[0.01140682]
[-0.06355544]
[0.02861825]
[-0.12044264]
[-0.03589018]
[0.10025108]
[-0.01807965]
[0.12733985]
[0.09750944]
[-0.00483329]
[-0.13967252]
[-0.09477967]
[-0.08257398]
[-0.1559394]
[-0.02784175]
[0.10136704]
[0.14871012]
[0.14034873]
[-0.00810908]
[0.13698585]
[-0.12170219]
[-0.14916794]
[-0.12198654]
[0.01703899]
[-0.04021706]
[0.01909723]
[0.02554185]
[0.06975855]
[0.04556341]
[0.01729161]
[-0.13202092]
[0.04092331]
[-0.03640703]
[-0.15709543]
[-0.14011647]
[0.10254656]
[0.11886142]
[-0.05912795]
[0.11326265]
[-0.02196623]
[0.05150202]
[-0.16579485]
[-0.06369001]
[-0.00858543]
[-0.04615133]
[0.06626879]
[0.10266586]
[0.01423462]
[-0.05065265]
[0.07202937]
[-0.05112851]
[0.02518215]
[-0.06329322]
[0.01796625]
[0.0058893]
[0.03848187]
[0.0961863]
[-0.05317414]
[0.05610356]
[0.04862832]
[-0.06164423]
[-0.06970096]
[-0.15547717]
[-0.0113024]
[-0.00474227]
[0.12476306]
[0.05366921]
[0.07300064]
[0.12994957]
[-3.6917627e-05]
[-0.13638225]
[-0.05696176]
[-0.08522737]
[-0.10771578]
[-0.11580656]
[0.0183971]
[0.12344258]
[-0.06795309]
[-0.02912156]
[0.12144293]
[-0.03105018]
[-0.15781818]
[-0.15745428]
[0.05250394]
[-0.07308315]
[0.09466006]
[0.0204114]
[-0.04431142]
[-0.05781345]
[0.10986301]
[-0.02333167]
[-0.04305599]
[-0.07809327]
[0.04331158]
[-0.14763683]
[0.01343428]
[0.00114435]
[0.12354185]
[-0.06555367]
[0.13857324]
[-0.13087843]
[-0.06471868]
[-0.10204174]
[-0.1287429]
[-0.14107196]
[-0.08047031]
[-0.0501545]
[-0.01687633]
[0.0480921]
[0.02044521]
[-0.08506249]
[-0.05541429]
[-0.09142159]
[-0.05621006]
[-0.16488792]
[0.05026114]
[0.10587436]
[0.05227427]
[0.12610264]
[0.0097163]
[-0.0024239]
[0.03084197]
[-0.00671952]
[-0.05793918]
[-0.01037123]
[0.13033116]
[0.03232015]
[-0.04597208]
[0.01755758]
[-0.01382706]
[-0.090786]
[-0.08578676]
[-0.07601994]
[-0.14512275]
[0.04228849]
[0.02360912]
[-0.03065076]
[-0.0093173]
[-0.03379469]
[-0.0587832]
[0.03698536]
[-0.02661326]
[0.02428152]
[0.00609463]
[-0.15134478]
[0.07381056]
[0.02003295]
[0.11693697]
[-0.05668553]
[0.08228762]
[0.02572473]
[-0.06015867]
[-0.04155596]
[-0.14289498]
[-0.01810149]
[-0.04065161]
[-0.00022636]
[0.13208258]
[-0.00114794]
[0.09366447]
[-0.04426981]
[-0.1276094]
[-0.04448169]
[0.00970985]
[0.01879719]
[-0.0390289]
[-0.03910819]
[-0.00667956]
[0.09632059]
[-0.01345157]
[-0.03657674]
[-0.05755669]
[-0.10295411]
[0.04563953]
[-0.03914028]
[0.10658087]
[-0.05887099]
[0.09041139]
[0.08842061]
[0.12624821]
[-0.0475248]
[-0.12453526]
[-0.05932796]
[-0.00053146]
[-0.11706646]
[-0.05391987]
[0.01297616]
[0.05712425]
[0.10323097]
[0.12760384]
[0.00496286]
[-0.14469358]
[-0.11931393]
[-0.0653953]
[0.00149978]
[0.0530179]
[-0.00593029]
[0.07371478]
[0.04101257]
[0.01707214]
[-0.1324324]
[-0.05791105]
[-0.057969]
[0.03492957]
[0.00246329]
[-0.06941853]
[0.01409515]
[-0.01476137]
[0.1250652]
[-0.0403746]
[0.01478302]
[0.01852941]
[0.05599707]
[0.02728945]
[-0.1549097]
[-0.00474404]
[0.05734363]
[-0.0753542]
[-0.00085101]
[0.1187381]
[0.00792458]
[0.02251727]
[0.05594511]
[-0.11792299]
[-0.019216]
[0.12289432]
[0.11054269]
[-0.01444204]
[-0.03437897]
[-0.04291019]
[-0.13315694]
[0.05820166]
[-0.00511302]
[-0.01712378]
[-0.09391066]
[-0.04909621]
[0.00153524]
[0.10145146]
[-0.06497647]
[0.11268111]
[-0.05077527]
[-0.06591358]
[-0.00708217]
[-0.01739545]
[-0.15733366]
[-0.07884028]
[0.13458776]
[-0.00314568]
[0.00853615]
[0.11511272]
[-0.08428435]
[0.01542876]
[-0.09113181]
[-0.02368173]
[-0.00245692]
[0.11068411]
[-0.01492799]
[0.05525513]
[0.01369553]
[-0.05968099]
[0.0283956]
[-0.13863151]
[0.05837155]
[-0.12450665]
[-0.11205413]
[-0.00699746]
[-0.04811464]
[0.07878377]
[0.02390087]
[0.0609957]
[-0.04297692]
[0.00149968]
[0.05837207]
[0.04361617]
[-0.01813734]
[-0.06286944]
[0.01684991]
[0.03325824]
[0.07818402]
[0.13125637]
[0.04367624]
[0.01330087]
[-0.02325714]
[-0.0438181]
[-0.02600979]
[-0.0708217]
[0.06561166]
[0.06904142]
[0.1353379]
[-0.03369942]
[-0.10197745]
[-0.06116865]
[-0.03992799]
[-0.0486533]
[-0.12361021]
[0.12114179]
[0.12345944]
[-0.05577352]
[-0.07635465]
[0.13363135]
[-0.01180587]
[-0.109548]
[-0.10473083]
[-0.03773914]
[-0.11735709]
[0.08023478]
[0.09593048]
[-0.07937941]
[-0.06741073]
[0.09516372]
[-0.11681934]
[0.00200924]
[-0.03017899]
[0.05313403]
[-0.15192017]
[-0.08690906]
[0.03131678]
[0.08835788]
[0.07728952]
[0.05114212]
[0.08000706]
[0.06039734]
[-0.0685733]
[0.03291561]
[-0.04539632]
[0.01416662]
[0.11908053]
[0.03823539]
[0.11478758]
[-0.03815947]
[-0.00587962]
[-0.08141731]
[0.03670764]
[0.02361595]
[0.03105928]
[0.03754764]
[-0.00789202]
[0.10201749]
[0.06442825]
[0.10101533]
[-0.02647784]
[-0.0124237]
[-0.1463576]
[-0.0471055]
[0.01976524]
[0.00677879]
[0.03115686]
[0.12808992]
[0.10407999]
[0.046741]
[-0.04133395]
[-0.0526883]
[0.05481692]
[-0.09841548]
[-0.1365809]
[0.10779209]
[0.07665087]
[-0.06914027]
[-0.03807116]
[-0.02667457]
[0.01100257]
[0.02623269]
[-0.11800902]
[-0.11075142]
[0.01339985]
[0.10749341]
[-0.04110629]
[-0.04202737]
[-0.05129883]
[0.12475981]
[0.03116586]
[0.0347002]
[0.0628984]
[-0.13336724]
[-0.08994691]
[-0.04057387]
[0.06234002]
[0.02484157]
[0.0527829]
[0.00862634]
[0.0839804]
[-0.00756467]
[-0.04957657]
[0.06560242]
[-0.09769726]
[0.02653267]
[0.0732138]
[-0.00657765]
[-0.05575715]
[-0.07383621]
[-0.07095943]
[-0.0809446]
[-0.00349145]
[-0.1281304]
[-0.05715835]
[-0.0350573]
[0.00504932]
[0.05266625]
[-0.03090456]
[0.08235142]
[0.08359518]
[-0.11997549]
[-0.00091439]
[-0.03899598]
[-0.09845227]
[-0.08214059]
[-0.07824919]
[0.03630054]
[-0.06334042]
[0.04019827]
[-0.05683956]
[0.04582578]
[0.03165599]
[0.02520571]
[-0.05547395]
[-0.04063698]
[0.09452973]
[-0.02431499]
[0.09976891]
[-0.06654713]
[-0.0989058]
[0.04080554]
[-0.12079974]
[-0.05054415]
[-0.07953179]
[-0.07049868]
[0.1129607]
[0.12584151]
[-0.02234327]
[-0.03682354]
[0.05691562]
[-0.12561658]
[0.02738905]
[-0.09421989]
[-0.1106804]
[0.03270805]
[0.08852633]
[0.01046592]
[0.06718141]
[0.11748371]
[-0.10366098]
[-0.02100894]
[0.04929386]
[0.07517105]
[-0.06619199]
[-0.07048538]
[0.06110239]
[0.04986633]
[-0.06284662]
[0.08025489]
[-0.09866437]
[0.06430192]
[-0.12985387]
[-0.0608146]
[-0.07975437]
[-0.03222755]
[0.11987174]
[-0.0461593]
[0.02384326]
[0.10365932]
[-0.06968012]
[0.03535139]
[0.06469895]
[-0.07740196]
[-0.03109217]
[0.0861347]
[0.10630824]
[0.02328213]
[0.11429406]
[0.00618752]
[0.03720348]
[-0.02768817]
[-0.1262003]
[-0.09916317]
[-0.01518256]
[-0.07342125]
[-0.06660254]
[0.12177009]
[-0.06174536]
[-0.07807012]
[-0.02117283]
[0.06134056]
[0.01226098]
[-0.01560562]
[0.07294434]
[0.05108423]
[0.0863582]
[0.0531113]
[0.01237093]
[-0.05096031]
[0.07277989]
[-0.05693247]
[-0.09650871]
[0.04424505]
[-0.08814853]
[0.08249249]
[-0.02553239]
[0.11743637]
[0.09994644]
[0.0560084]
[-0.06725278]
[-0.10908871]
[-0.07005844]
[-0.05010771]
[0.06103654]
[0.0401751]
[0.08779778]
[-0.03914129]
[-0.04456106]
[0.01549528]
[-0.04593883]
[-0.00409676]
[0.04855539]
[0.0479587]
[0.04846742]
[-0.04885326]
[-0.03326675]
[0.05184574]
[-0.0018147]
[0.06759431]
[-0.02673858]
[0.05815901]
[0.03510624]
[-0.12150928]
[0.04848516]
[0.06497503]
[0.08672793]
[-0.06520128]
[-0.06592066]
[-0.04937346]
[-0.11795466]
[-0.06262738]
[-0.02701646]
[-0.06824985]
[0.04792752]
[-0.0619843]
[-0.0609604]
[-0.05171734]
[-0.0725327]
[0.03772851]
[0.05908332]
[-0.05084461]
[-0.07963954]
[-0.07082908]
[0.0713397]
[0.08512172]
[-0.0071127]
[0.00278181]
[-0.02381355]
[0.05373312]
[-0.03830241]
[-0.05756733]
[-0.0966943]
[0.06692055]
[-0.05950023]
[-0.04145326]
[0.01212906]
[-0.00871314]
[0.02130546]
[0.06954075]
[-0.06449683]
[-0.11146804]
[-0.12052386]
[-0.07472657]
[-0.05722268]
[-0.05527194]
[0.01650969]
[-0.03416846]
[0.09114824]
[-0.01687795]
[-0.08296982]
[0.02396121]
[0.01838991]
[-0.030744]
[-0.051938]
[0.06450688]
[0.10323005]
[-0.05207812]
[-0.0477691]
[0.01557204]
[-0.11630917]
[-0.09166256]
[-0.12842803]
[-0.08977064]
[-0.117454]
[-0.00606952]
[0.11477888]
[-0.07011034]
[0.08800115]
[-0.05041182]
[0.06728078]
[0.07722995]
[0.01005699]
[0.06634734]
[0.0018348]
[0.07651882]
[0.04600353]
[-0.01615747]
[0.06178646]
[0.03476007]
[0.07982717]
[-0.04183634]
[0.05940776]
[0.01155018]
[-0.0799385]
[-0.09317633]
[-0.06588758]
[-0.0385064]
[-0.02963647]
[0.03143211]
[-0.0919575]
[-0.09253153]
[0.01097948]
[-0.07219942]
[0.01461653]
[-0.01937341]
[0.0405088]
[0.0701265]
[-0.08790329]
[0.11682277]
[0.01724976]
[-0.08533087]
[-0.05036191]
[-0.03023731]
[-0.09026428]
[0.01459334]
[0.05850917]
[0.09096102]
[0.10777216]
[0.09270953]
[-0.08578841]
[0.04060787]
[0.02572216]
[0.0530554]
[-0.07141466]
[0.00340667]
[0.00499202]
[0.03986751]
[0.03859546]
[0.10233094]
[0.00541776]
[-0.08428732]
[-0.02793983]
[-0.02000227]
[-0.07197639]
[-0.04449023]
[-0.07767712]
[0.00992899]
[-0.06996852]
[0.084485]
[-0.09067817]
[0.06000409]
[0.05915333]
[0.06965903]
[-0.03156195]
[-0.03987538]
[0.07686677]
[-0.05019597]
[0.0575624]
[0.03562093]
[-0.09165418]
[-0.05326621]
[-0.09304614]
[0.06800018]
[-0.06672152]
[0.01929184]
[-0.03673073]
[-0.08080462]
[-0.03069855]
[0.01829729]
[-0.02080594]
[0.05617429]
[-0.04553191]
[0.01681248]
[-0.03420509]
[0.08721137]
[0.07495732]
[0.00049813]
[0.07134232]
[-0.06642935]
[-0.00043674]
[-0.12298749]
[-0.02117299]
[-0.11360152]
[-0.08269108]
[-0.00483459]
[0.07179129]
[0.00105625]
[0.06789552]
[-0.06794857]
[-0.04015679]
[0.02025151]
[-0.06996676]
[0.01120732]
[-0.07726377]
[-0.01559843]
[-0.02952662]
[-0.07734025]
[-0.07273658]
[-0.06694421]
[-0.07945921]
[-0.07310942]
[-0.08385899]
[0.01376944]
[0.05862129]
[0.08226983]
[0.08363095]
[0.02317791]
[-0.06268734]
[-0.0373653]
[-0.08213901]
[0.05982568]
[0.09207589]
[0.06648852]
[0.03800912]
[0.04688146]
[-0.01566356]
[0.1118737]
[-0.09515696]
[-0.08340398]
[-0.03625029]
[-0.00210166]
[-0.06700864]
[-0.08427059]
[-0.00321473]
[-0.0609613]
[0.02972147]
[0.01080354]
[-0.02841385]
[0.09437926]
[-0.04924232]
[0.05622788]
[0.0723007]
[-0.03877744]
[-0.11429269]
[0.0118726]
[0.02985908]
[-0.06754652]
[-0.07297744]
[0.02864987]
[0.01038752]
[0.02546694]
[0.01756382]
[0.03199251]
[-0.0082133]
[-0.05684474]
[0.04366838]
[0.03803077]
[-0.08398643]
[0.10171562]
[-0.05845048]
[0.06738086]
[0.04959241]
[-0.03142767]
[0.01715284]
[0.05183722]
[-0.04444459]
[0.03545991]
[-0.04636095]
[-0.05916087]
[-0.09007873]
[-0.10336173]
[0.00884573]
[-0.08983534]
[0.04900045]
[-0.08180545]
[0.00408889]
[-0.03016179]
[-0.01284538]
[0.02045094]
[-0.05475704]
[-0.11069303]
[0.09393379]
[0.00106887]
[0.0464838]
[0.01290547]
[0.0948478]
[-0.07628278]
[0.04156537]
[-0.01508461]
[-0.01145541]
[0.08209319]
[0.01884258]
[-0.03443402]
[0.04744651]
[-0.08185555]
[-0.08251356]
[-0.07751437]
[-0.08949631]
[0.10203335]
[0.08804742]
[-0.01890069]
[-0.0184581]
[0.00682516]
[0.08193783]
[0.08116917]
[-0.09311002]
[-0.08200679]
[-0.06487349]
[0.06634616]
[-0.03592164]
[0.04206056]
[0.07388372]
[-0.07701694]
[-0.03293092]
[-0.10199744]
[0.03302408]
[0.01578092]
[0.05909787]
[-0.0841437]
[0.08207028]
[-0.03298153]
[-0.04166397]
[-0.04003872]
[-0.0276852]
[-0.00787072]
[-0.00090305]
[-0.04334386]
[0.00502483]
[0.02102476]
[-0.05200437]
[0.04977917]
[-0.05100066]
[0.05720632]
[0.05950691]
[-0.01989822]
[0.08787165]
[0.03004724]
[0.0978561]
[-0.08462118]
[-0.00092098]
[-0.11119077]
[-0.08371436]
[-0.03059388]
[0.04887576]
[0.04061669]
[-0.00611173]
[-0.05387404]
[-0.05766305]
[-0.09863021]
[0.09079556]
[-0.06708337]
[0.05285255]
[-0.04636414]
[-0.00624562]
[-0.04932366]
[0.04162901]
[-0.02378701]
[0.03980986]
[-0.00682942]
[-0.06186495]
[0.05662344]
[0.0331911]
[0.04743648]
[0.03775582]
[-0.03583597]
[-0.09963699]
[-0.05146235]
[0.05165134]
[0.03306639]
[-0.09469806]
[0.07234716]
[-0.08110431]
[0.02982349]
[0.05540913]
[-0.02486559]
[-0.04684051]
[-0.03109528]
[0.10559815]
[0.08811582]
[-0.07642549]
[0.03595809]
[0.05982466]
[0.0376122]
[-0.00311227]
[0.03700753]
[-0.07511129]
[-0.0672321]
[0.00805637]
[-0.07358875]
[-0.09211262]
[0.00854067]
[-0.05093639]
[0.01262013]
[0.01575801]
[0.07570916]
[0.0317441]
[0.05956171]
[-0.02060449]
[0.05002799]
[-0.03952365]
[0.08608945]
[0.09519094]
[0.06859649]
[-0.00058396]
[0.08321818]
[-0.09418844]
[-0.10074671]
[-0.01822304]
[0.05408525]
[-0.05958304]
[0.0971477]
[0.02915683]
[-0.00475169]
[0.09741366]
[-0.07770099]
[-0.04751084]
[0.01550157]
[0.00010878]
[0.04719475]
[0.00988794]
[-0.0914949]
[0.04594916]
[0.02149246]
[0.062695]
[-0.05310997]
[-0.0893385]
[0.02328015]
[-0.04323321]
[0.06208461]
[-0.0403411]
[-0.1040635]
[-0.02160094]
[-0.08655974]
[-0.09602843]
[0.06572951]
[0.07011908]
[-0.06780907]
[-0.07556757]
[0.04074215]
[-0.05317566]
[-0.03485934]
[-0.09417422]
[0.06411501]
[0.00661301]
[-0.00362719]
[0.07292616]
[-0.07556372]
[-0.01497122]
[0.01079591]
[-0.05878399]
[0.02294559]
[-0.05514111]
[0.07957729]
[0.07632007]
[0.09609415]
[-0.04821806]
[-0.05413091]
[-0.01989124]
[-0.09747408]
[-0.04111599]
[-0.02933814]
[-0.02777551]
[0.10180082]
[-0.02285815]
[-0.07650574]
[0.08987446]
[0.07325356]
[0.06796421]
[0.00244029]
[-0.0729342]
[-0.01076815]
[0.01024119]
[-0.01346922]
[0.01175278]
[0.03736889]
[-0.02172644]
[0.04563084]
[0.0479949]
[0.08407344]
[0.03500755]
[-0.02529351]
[0.06999775]
[0.00471725]
[-0.04264501]
[0.05835276]
[0.00046904]
[0.03579921]
[0.04947205]
[-0.06711634]
[0.01939884]
[0.04969125]
[-0.08710402]
[0.0936219]
[0.08976636]
[0.10252927]
[0.03473739]
[-0.08842885]
[0.08450419]
[0.00100722]
[-0.06715294]
[0.0262764]
[-0.04958814]
[-0.05345554]
[0.01624166]
[0.01993048]
[0.07192606]
[-0.01942612]
[0.04381141]
[-0.03163172]
[0.09740578]
[-0.05990122]
[-0.06787088]
[0.09440948]
[0.10683423]
[0.07595537]
[-0.08015399]
[0.02568383]
[-0.02701354]
[-0.10192995]
[0.09859181]
[0.00132416]
[-0.09992554]
[-0.02510891]
[0.03471139]
[-0.06815]
[-0.06250665]
[-0.00415861]
[0.06284409]
[0.04467123]
[-0.05002398]
[-0.0573807]
[0.02941944]
[0.0168373]
[0.0048721]
[0.0032717]
[-0.08594533]
[0.018242]
[-0.09927966]
[-0.01847458]
[-0.0172708]
[-0.00745883]
[0.10648726]
[-0.03694502]
[0.04503147]
[0.08111677]
[-0.04280208]
[-0.03020703]
[-0.03819089]
[-0.01509394]
[0.10723264]
[-0.08631978]
[-0.03672926]
[0.05884559]
[0.03446429]
[0.02922139]
[-0.09671131]
[0.03309968]
[0.06552631]
[0.00995843]
[-0.0648789]
[-0.03297207]
[0.03088168]
[-0.01277656]
[-0.05572426]
[0.02942871]
[0.0086446]
[-0.09950279]
[-0.02114028]
[-0.03036122]
[0.02738607]
[-0.07382272]
[-0.02757343]
[0.0434705]
[0.06863726]
[-0.06418703]
[0.06536032]
[-0.11164425]
[0.0825]
[0.0424291]
[-0.08144877]
[-0.06716128]
[0.02492535]
[0.07741776]
[0.05972891]
[0.00834245]
[0.00088803]
[-0.07210127]
[-0.08897712]
[-0.04481706]
[-0.08733453]
[-0.05278623]
[0.01283935]
[0.09439743]
[0.05716019]
[0.05821694]
[0.02362986]
[-0.09994406]
[-0.09408962]
[-0.03640578]
[-0.02033365]
[0.08513352]
[-0.0663743]
[0.04428068]
[-0.03344647]
[-0.07168233]
[-0.0794265]
[0.05761241]
[0.0163609]
[0.02281863]
[-0.0854549]
[0.04451756]
[0.01749399]
[-0.08106603]
[0.09356673]
[0.04426206]
[0.07280859]
[0.03306873]
[-0.06450203]
[-0.05647376]
[0.03194834]
[-0.00092081]
[-0.0147263]
[-0.00117595]
[-0.09000589]
[-0.00963912]
[-0.06600304]
[0.08434974]
[-0.09061743]
[-0.04681072]
[0.0131246]
[0.11969434]
[-0.03037412]
[0.02243878]
[-0.08188917]
[-0.03028452]
[-0.09281021]
[-0.08715443]
[-0.0617741]
[-0.1034584]
[0.08757911]
[0.11290616]
[-0.05975378]
[-0.08073457]
[-0.04592092]
[0.03982661]
[-0.11662252]
[-0.02961105]
[0.0632653]
[-0.02691907]
[0.0747216]
[-0.00183014]
[0.01446457]
[0.03713738]
[0.0450652]
[0.05692389]
[0.04955864]
[0.04872534]
[-0.09698941]
[-0.10014164]
[-0.06700656]
[0.10859847]
[-0.05457293]
[0.0105057]
[0.11825506]
[0.01010561]
[-0.008113]
[0.05153843]
[-0.09819805]
[0.02706598]
[-0.08491163]
[-0.05238638]
[-0.00155501]
[0.11155528]
[-0.04531509]
[-0.00018616]
[-0.06663632]
[-0.00127006]
[0.09604673]
[0.02415825]
[0.03317396]
[-0.08851407]
[0.04681066]
[0.05738228]
[0.04670366]
[0.07173428]
[0.05057398]
[-0.09399705]
[0.06263606]
[0.04503264]
[-0.03096625]
[-0.06403503]
[-0.05527996]
[-0.06401455]
[0.05629139]
[-0.04312802]
[0.01996782]
[-0.00149846]
[0.0296947]
[-0.08247575]
[-0.0751783]
[-0.08688781]
[0.02955992]
[0.06676214]
[-0.03958727]
[-0.05756098]
[-0.0169017]
[-0.11077259]
[0.0443368]
[0.04171348]
[0.11282218]
[0.11258037]
[0.10619432]
[-0.07621033]
[0.07986961]
[0.07996112]
[0.02883705]
[-0.06885405]
[0.00739183]
[-0.08105636]
[0.04491888]
[0.10497136]
[0.02512867]
[0.01795668]
[0.02609532]
[-0.06205076]
[-0.08327061]
[-0.09251219]
[0.09072707]
[-0.03631991]
[-0.00843832]
[0.0913821]
[0.06787505]
[0.0325589]
[0.11848071]
[-0.045056]
[0.06560041]
[0.05291857]
[0.02801933]
[0.04620229]
[0.01456254]
[0.09804551]
[0.06557813]
[-0.07837725]
[0.1211831]
[-0.0698523]
[0.04731715]
[-0.03373301]
[-0.0816811]
[0.04020833]
[0.03215288]
[0.04023969]
[-0.02403138]
[0.04094953]
[0.12143244]
[0.01867882]
[-0.12368517]
[-0.10975739]
[-0.0420687]
[-0.11516951]
[-0.04779406]
[0.01304461]
[0.02419283]
[-0.0238718]
[-0.05606931]
[0.08721688]
[0.04329298]
[-0.01997892]
[0.08812189]
[0.07302201]
[-0.03907785]
[0.10608399]
[-0.08360972]
[0.03343651]
[-0.07261036]
[0.05545655]
[-0.07500398]
[-0.03917086]
[-0.06537356]
[-0.0803934]
[0.01636765]
[-0.01286192]
[0.01574475]
[-0.03866972]
[-0.05493108]
[-0.00180476]
[-0.10653557]
[-0.09668141]
[-0.09066989]
[-0.01295601]
[-0.01174126]
[-0.07309441]
[0.02705736]
[0.07061112]
[0.13313732]
[-0.11163882]
[-0.06893401]
[0.04188747]
[0.0076135]
[-0.07774089]
[0.03689485]
[0.06666358]
[0.11036527]
[-0.07122605]
[0.08362569]
[0.0745588]
[0.08518254]
[-0.00480616]
[-0.03675886]
[-0.00472805]
[-0.01418908]
[-0.05774191]
[0.0733267]
[0.08543155]
[0.12201388]
[-0.05444087]
[-0.04831575]
[0.01453855]
[0.05072676]
[-0.12211956]
[-0.08383599]
[-0.03101305]
[-0.00853736]
[-0.02363409]
[0.05208869]
[0.02012767]
[0.07495316]
[-0.10599518]
[0.03917592]
[-0.07261808]
[0.10751493]
[-0.01025738]
[0.01205486]
[0.0376872]
[-0.03523389]
[0.08593126]
[0.04815736]
[0.022849]
[0.01265609]
[-0.1106657]
[0.01940196]
[0.08784921]
[0.07224549]
[0.05332382]
[0.00388942]
[-0.0694442]
[0.03062805]
[-0.04839967]
[-0.07388172]
[0.07399466]
[-0.02658035]
[-0.00305168]
[0.05551847]
[0.13344277]
[0.13737282]
[0.00706661]
[-0.05113533]
[-0.03068946]
[-0.02330046]
[0.01900219]
[-0.02958424]
[-0.01662106]
[0.0664076]
[-0.03112275]
[0.04450526]
[-0.04446887]
[0.07309314]
[0.03409182]
[0.08571027]
[-0.02912455]
[-0.00506864]
[0.04313046]
[0.13200182]
[0.00088091]
[0.08603054]
[0.00819333]
[0.05445048]
[-0.04065412]
[0.01865652]
[0.05051529]
[0.08236703]
[-0.04556461]
[0.12639597]
[0.00778707]
[0.05368485]
[-0.04027568]
[-0.11141878]
[0.03042023]
[0.07622494]
[0.00187855]
[-0.00381214]
[0.02629884]
[0.05273046]
[0.05718778]
[-0.0346066]
[-0.0288122]
[-0.02422771]
[0.05438442]
[-0.01093656]
[0.01696674]
[-0.06340359]
[-0.01731573]
[0.05264353]
[0.00933281]
[-0.05361083]
[0.06959172]
[-0.09499793]
[-0.12513174]
[-0.09555662]
[0.01651595]
[0.10707283]
[0.11878626]
[0.01724921]
[0.08881457]
[0.04626711]
[0.0808808]
[-0.01490094]
[0.06053374]
[-0.09016191]
[-0.06257097]
[-0.07071026]
[0.03860221]
[-0.01523137]
[-0.03732306]
[0.09480633]
[-0.08857324]
[0.05280068]
[-0.09814653]
[-0.05537546]
[0.06185907]
[0.10537419]
[0.09233385]
[0.0039715]
[0.12664588]
[0.06167329]
[0.04257461]
[0.00150094]
[0.08451904]
[0.00026653]
[-0.07042634]
[-0.08399937]
[-0.01337398]
[-0.02695195]
[-0.03418461]
[0.00116084]
[-0.04843324]
[-0.08945671]
[-0.09867008]
[0.02917459]
[0.0596024]
[0.08230295]
[-0.02290157]
[0.05257455]
[0.10574016]
[0.08387661]
[0.05810855]
[-0.07583192]
[0.05153321]
[-0.08440135]
[0.0574457]
[0.04235839]
[-0.00532287]
[0.02556117]
[-0.06076187]
[-0.04303204]
[0.06348964]
[-0.08137035]
[-0.12466913]
[-0.11049559]
[0.00028963]
[-0.01201332]
[-0.04980898]
[-0.0177625]
[0.00163932]
[0.02638728]
[-0.06266163]
[0.01278966]
[-0.01214042]
[0.03436505]
[-0.11756694]
[-0.04874654]
[-0.02238184]
[-0.0271912]
[-0.01669913]
[0.0307657]
[0.00316258]
[0.05752723]
[0.04799283]
[-0.0188902]
[0.06068426]
[-0.03518107]
[0.07826918]
[-0.0447989]
[-0.03286232]
[0.08396496]
[-0.08811284]
[0.05055974]
[0.08269447]
[-0.05748026]
[0.02526946]
[-0.04410449]
[0.0154688]
[0.09227434]
[0.13599735]
[-0.05533151]
[0.08872914]
[-0.05370033]
[-0.01097496]
[0.0092783]
[-0.11948486]
[0.04676304]
[0.13451996]
[0.04543475]
[0.01706918]
[-0.05724415]
[0.06267705]
[-0.06257382]
[0.04598907]
[0.02472049]
[-0.00443162]
[-0.06357329]
[-0.04559245]
[-0.04844565]
[-0.02529867]
[0.04800864]
[-0.05272577]
[-0.01557112]
[0.00987834]
[0.03814259]
[0.01744938]
[0.04640444]
[0.1410005]
[-0.03073467]
[-0.02508767]
[0.06396098]
[0.03668372]
[-0.04045707]
[-0.03466994]
[-0.08181937]
[-0.03436627]
[-0.05433394]
[0.103595]
[0.00188736]
[0.08106527]
[0.08236294]
[-0.02663617]
[-0.07397236]
[0.0291518]
[-0.04960597]
[-0.0274031]
[-0.05685334]
[0.02781835]
[0.07330948]
[0.04449483]
[-0.01768091]
[0.07795405]
[0.06259597]
[0.05914988]
[-0.05268963]
[-0.12332703]
[-0.01305463]
[-0.04628175]
[0.12521012]
[-0.03358875]
[-0.05510647]
[-0.02075974]
[0.06892774]
[-0.09411857]
[0.01642141]
[-0.10518815]
[-0.01926922]
[-0.03060912]
[0.05084746]
[-0.06297494]
[0.05601196]
[-0.12441991]
[-0.01341156]
[-0.07511736]
[-0.04530649]
[0.06213534]
[0.00444464]
[0.0257159]
[0.01181709]
[-0.04964121]
[0.02068962]
[-0.1241217]
[0.02734606]
[-0.11903241]
[0.07034025]
[0.00721465]
[-0.01997153]
[-0.04231333]
[-0.0398637]
[-0.02163969]
[0.0644073]
[-0.07129685]
[-0.04573836]
[-0.1276419]
[-0.01820329]
[-0.09145455]
[0.01989714]
[0.04318834]
[-0.01523233]
[0.10245501]
[0.15682879]
[0.0547522]
[0.01170708]
[0.01088055]
[0.02452236]
[0.04228232]
[0.0253948]
[-0.01007674]
[-0.05184339]
[-0.02433953]
[0.01299886]
[-0.0543524]
[-0.02495559]
[0.02384252]
[-0.13442902]
[0.03027453]
[0.01432395]
[0.12039452]
[0.04109487]
[0.02175656]
[0.06609813]
[-0.1161475]
[-0.12510906]
[-0.06182095]
[-0.13284491]
[-0.10997459]
[0.07615143]
[0.07937479]
[0.04403965]
[-0.00662601]
[0.07781991]
[-0.09365004]
[-0.09247375]
[-0.02800834]
[-0.07285212]
[0.01572035]
[0.13723762]
[0.03724537]
[0.12563479]
[0.07736677]
[0.11404744]
[0.05503181]
[0.00528605]
[0.02873118]
[-0.10311663]
[-0.05700172]
[-0.02947734]
[-0.03101277]
[0.13451728]
[-0.02404349]
[0.12060418]
[0.04954765]
[0.03512781]
[-0.08453758]
[-0.01517921]
[0.0026492]
[-0.03540599]
[0.15534326]
[-0.01559253]
[0.02613183]
[0.03066724]
[-0.00993853]
[0.0018568]
[0.06523484]
[-0.00433728]
[0.0330976]
[0.0493032]
[0.00251134]
[-0.04359347]
[0.02157742]
[0.11182024]
[-0.11743618]
[-0.02257425]
[-0.05527305]
[-0.10631777]
[-0.11593205]
[0.10118589]
[0.08464828]
[0.03491535]
[0.12074429]
[0.06113045]
[-0.04845519]
[0.03948022]
[-0.0776301]
[-0.03860795]
[-0.05970569]
[0.05750339]
[0.02191214]
[0.02245958]
[0.10735521]
[0.10598639]
[-0.12557177]
[-0.1288999]
[-0.08347368]
[-0.13188612]
[-0.10525027]
[-0.03818699]
[0.0612862]
[0.08367487]
[0.0489234]
[0.08987617]
[-0.03849342]
[-0.10894985]
[0.05455835]
[0.04400311]
[-0.03841889]
[-0.05727951]
[0.00529873]
[-0.01128157]
[0.0447453]
[0.04448961]
[-0.06415207]
[0.02151806]
[-0.13496101]
[-0.02023504]
[0.05578783]
[-0.04485171]
[-0.04102919]
[-0.00752968]
[0.05111902]
[0.09574722]
[-0.09331265]
[-0.01662397]
[-0.112762]
[0.06628118]
[-0.00361154]
[0.08994895]
[0.11613043]
[-0.02629152]
[-0.05351158]
[-0.01761615]
[-0.06876869]
[-0.05909495]
[-0.03606358]
[0.02310137]
[0.00362364]
[-0.046018]
[-0.04371773]
[0.11093423]
[0.14473407]
[0.00184342]
[-0.03901758]
[-0.00345685]
[0.00147708]
[-0.03938479]
[-0.11553468]
[-0.04562405]
[0.12034607]
[0.00270841]
[0.08101075]
[-0.01956027]
[0.02506911]
[-0.10136722]
[-0.08929548]
[0.02969806]
[-0.09193006]
[0.10625147]
[0.05786708]
[0.07197541]
[0.04401301]
[0.07349318]
[0.02455]
[0.01037959]
[-0.00118702]
[0.05372377]
[-0.13856107]
[0.12677433]
[0.09143385]
[0.08146736]
[0.1481505]
[0.00846341]
[-0.1274832]
[-0.05438077]
[0.03606463]
[-0.03991423]
[-0.00271079]
[0.05603659]
[0.1238149]
[-0.01125646]
[-0.00946544]
[-0.02382635]
[-0.0855532]
[-0.02123973]
[-0.05895334]
[-0.14060146]
[-0.12173687]
[0.00425801]
[0.08169615]
[0.03366045]
[0.04408198]
[0.00094488]
[-0.06177618]
[-0.12884006]
[-0.01764138]
[-0.07357465]
[0.02622681]
[-0.01978992]
[-0.01790184]
[0.07862388]
[0.08994766]
[0.07249207]
[-0.00723113]
[0.01675003]
[-0.1047269]
[-0.04825659]
[0.02280968]
[0.02965735]
[0.05019386]
[0.13079946]
[-0.00829545]
[0.0208409]
[-0.12877098]
[-0.04247194]
[-0.14442426]
[-0.11177109]
[-0.13168673]
[0.07808082]
[0.12084977]
[-0.04430776]
[0.11006641]
[0.06400478]
[0.04100275]
[-0.04053286]
[-0.07969865]
[0.04561886]
[-0.11927705]
[0.03785222]
[-0.00469873]
[0.06927589]
[-0.03135229]
[0.04008544]
[-0.0623659]
[-0.13136114]
[0.05802063]
[-0.10751223]
[-0.10286622]
[0.00681943]
[0.13595924]
[0.16257298]
[0.04870772]
[0.1051906]
[-0.12500808]
[-0.10408215]
[-0.00451139]
[-0.06915177]
[-0.01440043]
[0.10862875]
[-0.01506042]
[-0.00468322]
[-0.04711819]
[0.05732139]
[0.0339347]
[-0.14613333]
[0.03400423]
[-0.11513864]
[-0.07269523]
[-0.01377754]
[0.08264279]
[0.12079477]
[0.0628152]
[-0.0069204]
[-0.09397481]
[0.04389777]
[-0.07212323]
[0.02303014]
[0.03575075]
[0.13519399]
[0.01698831]
[-0.03547842]
[-0.04422109]
[-0.00326879]
[0.07832339]
[-0.0382021]
[-0.1341201]
[-0.06137042]
[-0.0538909]
[-0.05487303]
[-0.0343139]
[0.0894127]
[0.04669998]
[0.07594436]
[-0.10733448]
[-0.0755868]
[-0.14614716]
[0.0599355]
[-0.12802821]
[0.07636622]
[-0.03836927]
[0.16111912]
[0.07980292]
[0.12722872]
[-0.02526721]
[-0.09472445]
[-0.14795233]
[0.05038789]
[0.0544208]
[0.05645505]
[0.03942531]
[-0.00796989]
[0.16601771]
[-0.02534541]
[-0.02386112]
[-0.08412512]
[-0.13936315]
[0.00575588]
[-0.15162534]
[-0.06008802]
[-0.03339984]
[-0.02371363]
[0.05855104]
[0.0082873]
[0.01497755]
[-0.14205775]
[-0.08445106]
[-0.0787603]
[-0.06751548]
[-0.04260135]
[-0.00061687]
[0.09129088]
[0.13735348]
[-0.00979678]
[-0.01969812]
[-0.06452841]
[-0.01604488]
[-0.02656862]
[0.00729661]
[-0.03690573]
[0.00989052]
[0.09476808]
[0.13499087]
[0.08815072]
[-0.12423186]
[-0.11005146]
[0.02688054]
[-0.11989275]
[0.03462664]
[0.08092234]
[0.03770967]
[0.05906671]
[0.05614283]
[0.01490264]
[-0.02301772]
[-0.10624358]
[-0.14747797]
[0.04015144]
[-0.01692302]
[-0.01412298]
[-0.00762188]
[0.0553276]
[0.01633184]
[0.1682513]
[-0.01354524]
[-0.14221567]
[0.0044828]
[-0.07143396]
[-0.06565674]
[-0.05067335]
[0.15252504]
[0.11142754]
[-0.01840109]
[-0.00088873]
[-0.11488087]
[0.01496657]
[-0.02361836]
[0.03536246]
[0.01094959]
[-0.04172597]
[-0.01203648]
[0.0883484]
[0.12680505]
[0.13852407]
[-0.0447366]
[-0.08896891]
[0.00061438]
[-0.07995445]
[0.00968059]
[0.02861854]
[0.1556385]
[0.11708072]
[0.09008412]
[0.02958969]
[-0.08856013]
[0.02552438]
[-0.15069887]
[-0.14032538]
[-0.08407384]
[-0.050738]
[0.01092156]
[0.00724031]
[0.07102237]
[0.12204459]
[-0.04711383]
[-0.0982441]
[-0.04759916]
[-0.01221669]
[-0.01128139]
[0.09153317]
[0.08633719]
[-0.01355878]
[0.15285812]
[0.0491282]
[-0.03566088]
[-0.00792085]
[0.03079779]
[-0.05622512]
[-0.06715198]
[-0.05953421]
[0.07242586]
[0.03308977]
[0.02800522]
[-0.00712882]
[-0.03439305]
[-0.07101541]
[-0.1420642]
[-0.1532917]
[-0.16297814]
[0.13671483]
[0.00665467]
[0.13005011]
[0.16461712]
[-0.00623372]
[-0.10288829]
[-0.14886308]
[-0.11749117]
[-0.01957087]
[-0.10886714]
[0.12518415]
[0.10936256]
[0.0646647]
[0.05273478]
[0.00938985]
[-0.08703557]
[-0.0784338]
[0.0232605]
[0.04036072]
[0.02647172]
[0.06819177]
[0.13852677]
[0.16980994]
[0.03567939]
[-0.00258844]
[-0.06098659]
[-0.00774429]
[-0.14448261]
[-0.12302577]
[-0.06041143]
[0.11332679]
[0.15167359]
[0.07704594]
[-0.03228701]
[0.09172387]
[-0.09204786]
[-0.13844296]
[-0.01837851]
[-0.06119389]
[-0.10322089]
[0.11890621]
[0.17591307]
[0.04143082]
[0.12629974]
[0.14877138]
[-0.10723914]
[-0.04728078]
[-0.06480207]
[-0.02064081]
[0.0170734]
[-0.04046251]
[0.04788598]
[-0.00373679]
[0.11563892]
[0.04664224]
[-0.05703024]
[-0.02099428]
[-0.09793039]
[-0.0461209]
[0.0343792]
[0.15665756]
[0.10451967]
[0.17832777]
[0.11434082]
[0.04632296]
[-0.02857403]
[0.03562797]
[0.02529678]
[-0.06206734]
[-0.13767317]
[0.13209358]
[0.15826045]
[0.00261774]
[-0.02336264]
[-0.00279265]
[0.07219879]
[-0.01151505]
[-0.13304085]
[0.0234596]
[-0.11560061]
[-0.04323329]
[0.18335286]
[0.02048351]
[0.15387106]
[0.05517753]
[0.06971176]
[-0.16880451]
[-0.11566833]
[-0.07269876]
[-0.15051293]
[0.14529437]
[0.10912794]
[0.05353951]
[0.03141309]
[0.05718771]
[-0.09975892]
[0.01597022]
[-0.01580113]
[-0.10262127]
[-0.07748584]
[0.03720446]
[0.1622778]
[-0.01197328]
[0.07604691]
[0.14631826]
[-0.00867183]
[-0.16633496]
[-0.09803088]
[-0.1120305]
[-0.09369312]
[0.01461114]
[-0.00679531]
[0.04832599]
[-0.02339041]
[0.04895713]
[0.02123172]
[-0.16777314]
[-0.11936784]
[0.0411177]
[0.04056271]
[0.15764457]
[0.00220196]
[0.090704]
[-0.01457641]
[0.04895218]
[0.05955692]
[-0.0421126]
[-0.02115115]
[-0.13454199]
[-0.04043312]
[-9.3821436e-05]
[0.11693969]
[0.08876557]
[0.08995332]
[0.04879452]
[-0.06169016]
[-0.11357372]
[-0.07335927]
[-0.05882027]
[-0.02214459]
[-0.04449257]
[0.00543702]
[0.00875548]
[0.15266915]
[0.15247981]
[-0.10335579]
[-0.0036067]
[-0.02743788]
[-0.07145965]
[0.03717376]
[0.11418422]
[0.12011109]
[0.06764329]
[0.12155784]
[0.15006888]
[0.0334562]
[-0.10575447]
[0.01175087]
[-0.10003719]
[-0.00391129]
[0.09861366]
[0.05497975]
[0.12764525]
[-0.01029996]
[0.15298346]
[0.0370807]
[-0.09946802]
[-0.01924533]
[-0.07883468]
[-0.01013727]
[0.03174211]
[0.009906]
[0.17725232]
[0.0686268]
[0.11478224]
[-0.02526899]
[0.03834437]
[-0.09965616]
[0.02584441]
[0.0382774]
[0.13668534]
[0.17986798]
[0.13027135]
[0.02046091]
[0.16270581]
[-0.01812594]
[-0.04151561]
[-0.1268192]
[0.02848785]
[-0.00129268]
