[-0.14314958]
[0.21841668]
[0.3670125]
[0.15298381]
[0.05378117]
[-0.04544236]
[-0.04121361]
[0.05113661]
[0.02697997]
[0.3013207]
[-0.13124198]
[0.28364417]
[0.25671053]
[-0.03382592]
[0.38009822]
[-0.12799627]
[-0.07546052]
[0.13478406]
[-0.01524109]
[0.24302326]
[0.14452347]
[0.1896679]
[0.18823385]
[-0.08512685]
[0.35284865]
[-0.05786]
[0.28789625]
[-0.08224488]
[0.3221093]
[-0.14841299]
[0.07383713]
[0.32386735]
[-0.06760865]
[0.00805501]
[-0.14165504]
[0.27251625]
[0.24414746]
[0.31941608]
[0.26327896]
[-0.10708147]
[-0.15710072]
[-0.04316768]
[-0.24268225]
[0.23167728]
[0.16319129]
[0.2699976]
[0.15722643]
[0.07133225]
[0.2487994]
[-0.11802191]
[0.2416537]
[0.01675069]
[0.30780336]
[0.27431494]
[0.20217802]
[0.294995]
[0.1550309]
[-0.09585223]
[-0.1422704]
[0.101372]
[-0.21103181]
[-0.17810893]
[-0.13879801]
[-0.10574046]
[0.17815585]
[0.1451891]
[0.01567267]
[0.13637237]
[-0.08168036]
[0.11297998]
[-0.00459065]
[-0.21671233]
[0.28966215]
[0.1994906]
[0.18312792]
[-0.26035476]
[0.08460438]
[-0.1899694]
[0.14574854]
[-0.09179691]
[0.23543832]
[0.18281049]
[0.06820814]
[0.22366257]
[-0.05805428]
[0.07272225]
[-0.22843511]
[-0.10447621]
[0.07923938]
[-0.21098047]
[0.19543016]
[-0.14705162]
[-0.0042613]
[0.28380084]
[0.14337267]
[0.20075329]
[0.12258837]
[-0.20060094]
[-0.3005099]
[-0.32816952]
[-0.2896244]
[0.172185]
[-0.25462973]
[0.02665952]
[-0.21582]
[0.08732157]
[0.23572731]
[0.12104011]
[0.15328373]
[-0.304529]
[-0.33355027]
[-0.23895782]
[-0.12160952]
[0.1935327]
[0.0736578]
[-0.20071284]
[-0.1991572]
[-0.10859003]
[0.23373808]
[-0.18567005]
[-0.21501145]
[-0.1413177]
[-0.05868461]
[-0.26140532]
[-0.31564063]
[0.04612367]
[0.10868636]
[-0.03827568]
[0.26405466]
[-0.20794936]
[-0.21073571]
[0.1469736]
[0.21552065]
[-0.00063377]
[0.17206766]
[0.15295023]
[-0.00572421]
[-0.20729166]
[-0.15133193]
[0.19630802]
[0.18243639]
[-0.14120217]
[-0.04477531]
[-0.25082594]
