[-0.19903648]
[0.15247199]
[-0.19030523]
[0.03860299]
[0.05454182]
[-0.07884074]
[-0.03156456]
[0.00670467]
[-0.06486242]
[-0.06079599]
[-0.12540519]
[-0.14535528]
[0.06459447]
[0.06062733]
[-0.18009683]
[-0.13050324]
[0.19755019]
[0.18645747]
[0.17901812]
[-0.05863673]
[0.13502419]
[-0.04506985]
[0.22106451]
[0.13534507]
[0.06435285]
[0.01388219]
[-0.04935062]
[-0.14503905]
[0.20571733]
[-0.07659334]
[-0.0168642]
[-0.15737368]
[0.17584187]
[-0.0216869]
[0.15854998]
[-0.03027678]
[-0.1693682]
[-0.11867416]
[-0.02159642]
[0.11627878]
[0.1656996]
[-0.11792109]
[-0.06649075]
[0.21235304]
[0.13140519]
[-0.04848488]
[0.1801348]
[-0.20944439]
[-0.14290111]
[0.00811196]
[0.2346999]
[-0.09744759]
[0.1399423]
[0.06365646]
[0.13426183]
[0.18881273]
[0.19931296]
[-0.14172089]
[0.03637102]
[0.21068656]
[0.22991745]
[-0.06206148]
[-0.16588615]
[-0.17017272]
[0.05887753]
[-0.20897508]
[0.14902255]
[0.02964598]
[-0.03493827]
[0.02396158]
[-0.0603951]
[0.05086198]
[-0.13453583]
[-0.1655843]
[0.07231511]
[0.02409631]
[-0.12451669]
[-0.11152162]
[-0.06614341]
[0.22147039]
[-0.13376549]
[-0.09735654]
[0.25098598]
[-0.07131031]
[0.23449156]
[-0.02747597]
[-0.0149933]
[0.05955998]
[0.23112573]
[-0.08678832]
[-0.03704715]
[0.08927812]
[0.0563232]
[0.17528959]
[0.20482653]
[0.06962524]
[-0.0724185]
[0.14187285]
[-0.12324878]
[0.11960857]
[-0.05419279]
[0.25531855]
[-0.18172124]
[-0.15026873]
[0.2212054]
[-0.08497885]
[0.28791633]
[-0.1052427]
[-0.05141319]
[0.08179159]
[-0.03590721]
[0.01482434]
[0.00076037]
[-0.13841131]
[-0.1559574]
[-0.06163299]
[-0.03560976]
[-0.09831402]
[0.20856471]
[0.26542473]
[0.15357223]
[-0.07622929]
[-0.15282005]
[0.06827982]
[0.09898528]
[-0.13956498]
[-0.01047488]
[-0.11431572]
[0.08184359]
[0.02131579]
[0.21472907]
[-0.01790232]
[0.00502804]
[-0.17880127]
[0.2743925]
[0.19917534]
[0.18531077]
[-0.14472345]
[-0.05957531]
[0.13458681]
[0.12096962]
[-0.11970968]
[-0.02332634]
[-0.17696792]
[0.19163527]
[0.15819828]
[-0.07190972]
[0.01073355]
[0.12950014]
[0.21816652]
[-0.16346624]
[0.13189927]
[-0.18518755]
[0.25661972]
[-0.0828784]
[-0.15548089]
[0.11976077]
[0.02810521]
[-0.07825929]
[0.21414694]
[0.07053584]
[0.06523623]
[-0.077168]
[-0.11645739]
[-0.05979399]
[0.08330348]
[0.18064478]
[-0.11482643]
[0.2512355]
[-0.14700145]
[-0.0124165]
[0.14167917]
[-0.0182163]
[-0.14279282]
[0.04922572]
[0.11398719]
[0.09181459]
[0.01419919]
[-0.16932522]
[0.15517457]
[-0.04400799]
[0.15999927]
[-0.10700063]
[-0.09704746]
[0.19198371]
[-0.07091562]
[-0.08912437]
[-0.12157392]
[0.20622627]
[-0.03590004]
[-0.10441507]
[-0.13943207]
[-0.04608009]
[-0.11424069]
[0.09286121]
[0.11752646]
[-0.16479728]
[-0.07603128]
[0.1405331]
[0.03299182]
[-0.23064992]
[-0.15922563]
[-0.03588804]
[-0.0137582]
[0.0480538]
[0.01711438]
[-0.05158798]
[0.13922112]
[0.13320158]
[-0.13312563]
[0.05232345]
[0.04283183]
[0.20980507]
[-0.13906829]
[0.15495425]
[-0.1245728]
[0.16200429]
[-0.21076697]
[0.19973703]
[0.10483427]
[0.2043694]
[-0.05833048]
[0.08879729]
[0.01397761]
[0.02196119]
[-0.16513091]
[0.07558663]
[0.07769597]
[-0.02040271]
[0.16600344]
[-0.14549762]
[-0.19566715]
[-0.04620155]
[0.07823434]
[-0.1447733]
[-0.0376902]
[0.08750045]
[0.19760549]
[0.20720074]
[-0.14322038]
[0.01708158]
[-0.06783775]
[0.16120955]
[0.17335534]
[-0.16289645]
[0.05884926]
[-0.20398687]
[-0.02606617]
[-0.17035316]
[-0.19284742]
[-0.03569644]
[-0.21556336]
[-0.0150269]
[-0.04017722]
[-0.15511885]
[0.01595392]
[0.19292343]
[-0.18369587]
[0.19557935]
[-0.08604115]
[0.09071047]
[-0.00868184]
[-0.23825853]
[-0.01296746]
[0.08147875]
[0.1756827]
[0.09486161]
[0.06640157]
[-0.18351045]
[-0.0557824]
[-0.14667676]
[-0.13284028]
[0.15334566]
[0.08416993]
[0.11169957]
[-0.11338387]
[-0.18571123]
[0.06515807]
[0.05843068]
[0.2023585]
[-0.04674394]
[-0.18823329]
[0.12684922]
[0.09983463]
[-0.04008131]
[-0.0306919]
[-0.23773833]
[-0.04958691]
