[0.274853]
[0.18765976]
[0.4134729]
[0.23549251]
[-0.08633828]
[0.02616746]
[0.27863818]
[0.01436697]
[-0.06618632]
[0.1515424]
[-0.10862707]
[0.08247522]
[0.37267184]
[0.28610858]
[-0.03914483]
[0.2157358]
[-0.09499299]
[0.11255973]
[-0.03080502]
[0.28472012]
[0.17553633]
[0.13973585]
[0.35833442]
[0.01048198]
[0.36115524]
[-0.09506436]
[0.23008206]
[0.12559578]
[0.05667474]
[0.2249862]
[-0.01387712]
[0.00200567]
[0.155981]
[-0.19779651]
[-0.18017852]
[-0.12662321]
[0.22379237]
[0.20159258]
[-0.08387002]
[0.2965317]
[-0.20828976]
[0.12197032]
[-0.13859609]
[-0.20030445]
[0.19198298]
[0.22469379]
[-0.03347386]
[-0.19947557]
[0.30093372]
[-0.17409356]
[0.3194803]
[0.11130111]
[0.02723829]
[-0.09400637]
[0.05034105]
[-0.16942355]
[-0.16699764]
[0.01086599]
[-0.16741681]
[0.03067542]
[-0.20284837]
[0.23661728]
[-0.082148]
[-0.08060655]
[-0.20029157]
[0.26853907]
[-0.07650066]
[0.12235041]
[-0.00417645]
[0.15246367]
[-0.02618727]
[0.2611057]
[0.08055016]
[0.04490904]
[-0.0035388]
[-0.22355592]
[0.2601631]
[0.11573776]
[0.20215505]
[0.28042662]
[0.3004139]
[-0.02142239]
[0.2570592]
[0.02472824]
[0.1687083]
[-0.17762992]
[0.18325281]
[-0.25574037]
[0.12260326]
[-0.14537725]
[0.09961623]
[-0.257484]
[0.13737033]
[0.22995311]
[-0.23385109]
[-0.17271025]
[-0.16587724]
[-0.12243049]
[0.06044029]
[-0.2598296]
[-0.14937773]
[0.19456705]
[-0.36262578]
[0.10255026]
[-0.03739867]
[-0.2679995]
[-0.33127767]
[-0.01039578]
[-0.20384383]
[-0.31989694]
[0.0558815]
[-0.16106564]
[-0.3273505]
[-0.01370271]
[-0.13223372]
[-0.314466]
[0.1670455]
[-0.05177029]
[-0.19502404]
[0.20444903]
[0.21892959]
[-0.03285522]
[0.10225417]
[0.04337594]
[-0.05013718]
[0.15143703]
[0.1814174]
[-0.01871486]
[0.20600094]
[0.15517491]
[-0.1592396]
[-0.11806812]
[0.20044103]
[0.08787553]
[0.14376536]
[0.04710453]
[-0.30251378]
[-0.12326709]
[0.19116047]
[0.12900838]
[0.2543217]
[0.08413146]
[0.1711961]
[0.19245404]
