[-0.02842524]
[-0.0559881]
[-0.05537902]
[-0.1475896]
[-0.07135186]
[-0.08250747]
[0.11585283]
[-0.15142834]
[0.02930529]
[0.01857148]
[-0.05114235]
[0.22281921]
[-0.07991859]
[0.03293242]
[0.10467659]
[0.05618815]
[0.08972203]
[-0.18764015]
[0.07220359]
[0.05591533]
[-0.04385551]
[-0.00529338]
[0.17476025]
[-0.15330221]
[0.01508414]
[-0.1667274]
[0.05962455]
[-0.03916037]
[-0.12268835]
[-0.04866485]
[0.18799655]
[-0.0702628]
[0.16985212]
[-0.10784443]
[-0.01997072]
[-0.14800812]
[-0.13472946]
[0.1422658]
[0.00960224]
[0.15975772]
[0.14748667]
[-0.11494368]
[0.03971704]
[0.11832567]
[0.18760222]
[-0.13680743]
[0.00786824]
[-0.20742308]
[-0.11097527]
[0.18877603]
[-0.09450686]
[0.14457998]
[0.04461195]
[0.10404474]
[0.1758031]
[-0.20432548]
[0.13110779]
[-0.13230862]
[0.15984546]
[0.03068375]
[-0.20438893]
[0.07999301]
[-0.11068962]
[0.04409713]
[0.13245668]
[-0.20146537]
[0.10377668]
[-0.17084913]
[-0.18458806]
[0.07722121]
[-0.13008054]
[0.20382081]
[0.1569101]
[0.16638313]
[-0.0907766]
[-0.06446171]
[-0.13745688]
[-0.09309851]
[-0.17495136]
[-0.07890324]
[0.00360952]
[0.19123057]
[-0.19586064]
[-0.06746429]
[-0.00990487]
[0.10778128]
[-0.00473627]
[-0.21889621]
[-0.09455607]
[0.21316427]
[0.11628328]
[-0.20880084]
[0.13813888]
[-0.19715984]
[0.21602654]
[0.13137765]
[-0.03898039]
[-0.02881652]
[0.17998908]
[-0.0973298]
[0.03152077]
[-0.05314403]
[0.00631791]
[0.01422756]
[0.16468608]
[0.10882287]
[-0.13127421]
[-0.16991217]
