[0.07160406]
[0.12718251]
[-0.02568948]
[-0.14917411]
[0.21169077]
[-0.07549288]
[-0.2545644]
[0.09031446]
[-0.11011577]
[0.03514454]
[-0.10116757]
[0.19542024]
[0.20421347]
[0.21260673]
[-0.14640397]
[0.00444128]
[0.05044029]
[0.11216266]
[-0.08361033]
[-0.1229029]
[0.15640172]
[0.13535817]
[0.13834086]
[-0.11599309]
[0.06832081]
[0.04039647]
[-0.03059104]
[0.23423772]
[0.10413343]
[0.05824449]
[0.33648244]
[-0.24660857]
[0.1682865]
[0.19626476]
[0.25220713]
[0.07661694]
[0.13904995]
[0.20276073]
[0.00790222]
[-0.3003216]
[0.08743271]
[0.18282615]
[0.08147248]
[0.00293854]
[-0.1717047]
[-0.16706108]
[0.10102549]
[-0.10632005]
[0.12503836]
[0.01801191]
[0.2861741]
[0.22791705]
[0.22471617]
[0.05966498]
[-0.20751765]
[0.14524044]
[-0.03313154]
[-0.09537661]
[-0.1696455]
[-0.1261959]
[0.26893684]
[-0.09125558]
[0.26736662]
[-0.04920656]
[-0.09212565]
[0.03918367]
[-0.28440806]
[-0.23291749]
[-0.23313625]
[-0.03799501]
[0.02793609]
[-0.22118083]
[0.28493595]
[0.11625578]
[-0.00639058]
[-0.19755974]
[0.13998388]
[-0.20507246]
[0.24272573]
[-0.25032148]
[-0.1592766]
[0.12464453]
[-0.20392922]
[0.2920717]
[0.15826778]
[0.00272204]
[-0.20321573]
[0.04495434]
[-0.03111034]
[0.05966718]
[-0.12769625]
[-0.08802561]
[0.08576737]
[-0.02941005]
[0.29289883]
[0.15149523]
[0.15023561]
[0.1098301]
[-0.19839409]
[0.24602602]
[0.13607119]
[0.20447876]
[-0.02936791]
[0.26907498]
[-0.23548934]
[0.05173472]
[-0.31102896]
[0.05075107]
[-0.18694326]
[-0.15820065]
[-0.03453306]
[-0.15789703]
[0.18963112]
[-0.04053942]
[0.24425021]
[0.12502116]
[-0.25769943]
[-0.25029486]
[-0.18091649]
[-0.02196696]
[0.31112882]
[0.13772216]
[0.23658963]
[0.22704688]
[0.27312005]
[0.14103915]
[-0.2867067]
[0.07707387]
[0.1793201]
[0.04384273]
[0.05526485]
[0.25737125]
[-0.08413552]
[0.11483546]
[0.3006856]
[0.15736818]
[0.17086923]
[0.13716587]
[0.03880132]
[0.1874923]
[0.26156914]
[0.16742378]
[0.07252964]
[-0.00500697]
[0.07853642]
[-0.24491149]
[0.24401942]
[-0.21593787]
[-0.28977683]
[0.04296441]
[0.08920015]
[0.08864794]
[0.13402191]
[-0.21164352]
[-0.24049589]
[0.02320335]
[-0.1049765]
[-0.2959866]
[0.04175497]
[-0.23061949]
[0.04127259]
[0.09701975]
[-0.24230614]
[0.05757321]
[0.13741963]
[-0.2554135]
[-0.06776623]
[0.07610405]
[0.08153354]
[0.20841783]
[-0.12783058]
[0.25973347]
[0.25647846]
[-0.11049828]
[0.15458189]
[0.08622298]
[-0.06729203]
[-0.24383907]
[-0.00059065]
[-0.20864177]
[-0.22185393]
[0.20028025]
[-0.13196117]
[0.06737377]
[0.20426056]
[-0.30121267]
[-0.1525081]
[-0.03744477]
[0.03086628]
[-0.10086577]
[-0.23866129]
[-0.07581124]
[0.1799657]
[0.01113531]
[0.2747472]
[-0.05142425]
[-0.15117462]
[-0.10162315]
[-0.03382761]
[-0.2364499]
[-0.06980691]
[0.09751618]
[-0.18962541]
[0.17375071]
[-0.18532744]
[0.10177457]
[0.04299686]
[0.23891243]
[-0.26458052]
[0.14088161]
[0.1982307]
[0.13852645]
[0.1555176]
[0.204668]
[-0.22206388]
[-0.21796313]
[-0.16918139]
[-0.24091436]
[-0.2533897]
[-0.2161096]
[0.06582847]
[-0.13565545]
[-0.03186544]
[0.24672773]
[-0.11087333]
[0.19592503]
[-0.00933489]
[0.22662301]
[0.0854919]
[-0.1604817]
[-0.00578709]
[-0.01455237]
[0.03820704]
[0.08095263]
[-0.06720836]
[0.2571579]
[-0.16594845]
[-0.21959285]
[-0.08206233]
[-0.0014754]
[0.26766336]
[-0.25211856]
[-0.03759156]
[-0.22683118]
[0.17046407]
[-0.11530185]
[-0.06633688]
[-0.25452986]
[0.12489285]
[0.13093884]
[-0.07431503]
[0.1017186]
[-0.10280484]
[-0.0414119]
[0.2827784]
[-0.27825755]
[-0.16144341]
[-0.04803848]
[-0.08566115]
[-0.08183976]
[0.29280725]
[0.15633222]
[-0.22361986]
[-0.10315297]
[-0.22101042]
[0.05555342]
[0.15530266]
[0.16643098]
[-0.24388635]
[0.02055228]
[0.2493146]
[0.25453955]
[0.04131142]
[0.16648087]
[-0.25717184]
[0.1999503]
[-0.21739008]
[-0.24347273]
[0.21189272]
[-0.02475572]
[-0.02987456]
[-0.19335932]
[0.26226112]
[-0.15119158]
[0.06485295]
[0.06824926]
[-0.14207251]
[0.15437452]
[0.03228826]
[0.12612107]
[-0.0580185]
[-0.21975338]
[-0.00949788]
[-0.25471327]
[0.08574019]
[-0.14215805]
[-0.25207862]
[0.1994799]
[0.21826413]
[-0.13819036]
[-0.01211504]
[0.03493672]
[0.2014465]
[-0.120607]
[0.25370517]
[-0.17301117]
[-0.1032651]
[0.15298702]
[-0.19855636]
[-0.12267832]
[-0.04573396]
[-0.14667308]
[0.0903084]
[-0.09708074]
[-0.0770594]
[-0.22187223]
[-0.06580895]
[-0.22217472]
[-0.15819055]
[0.11370028]
[0.1902621]
[-0.2548733]
[-0.27155805]
[-0.07396716]
[0.0337037]
[0.3204347]
[-0.22667052]
[0.06040294]
[0.01323005]
[0.02722725]
[0.18680555]
[-0.12417331]
[0.23780924]
[-0.04772807]
[0.13246116]
[-0.02594005]
[0.10125887]
[-0.04147914]
[0.15460803]
[0.2934471]
[-0.10849297]
[-0.09638528]
[-0.24424204]
[-0.22971082]
[0.01278367]
[0.24852616]
[-0.08508779]
[-0.02926223]
[0.23813972]
[-0.03790911]
[-0.10561706]
[0.06239282]
[-0.25387096]
[-0.05591376]
[-0.27968055]
[0.09425998]
[0.05186286]
[0.21973649]
[0.02869968]
[0.24867533]
[0.06725371]
[-0.22496544]
[0.11107878]
[-0.09232678]
[-0.05888562]
[0.2970492]
[-0.061956]
[0.22432551]
[0.07661104]
[0.18156119]
[0.11486579]
[0.09569604]
[0.24322207]
[0.21295436]
[-0.30080602]
[0.33074713]
[0.11216405]
[-0.09920351]
[0.14264739]
[0.25404185]
[-0.04852007]
[-0.0025337]
[0.2256581]
[-0.1575868]
[-0.26142928]
[-0.15059352]
[0.12189127]
[0.1857014]
[0.0538239]
[0.07009894]
[-0.12322486]
[-0.09559101]
[-0.0004922]
[-0.150983]
[0.05340206]
[-0.22340345]
[0.13969253]
[0.23612444]
[0.28853995]
[-0.259378]
[-0.15218696]
[0.26458648]
[-0.24559791]
[0.25051552]
[-0.2289342]
[0.2856413]
[0.24519359]
[0.04507382]
[-0.09734835]
[0.11778404]
[-0.31028032]
[0.2681302]
[0.26948246]
[-0.26946867]
[0.04306866]
[-0.21033062]
[-0.0942039]
[0.09192909]
[0.12313954]
[-0.1876643]
[-0.09167297]
[-0.22293487]
[-0.10999456]
[-0.11321875]
[0.15634683]
[-0.18694869]
[-0.15990089]
[0.09115448]
[0.1263771]
[0.23148078]
[-0.0686516]
[0.16930829]
[-0.2197575]
[0.09642651]
[0.13424787]
[0.24918818]
[0.09943422]
[-0.0351052]
[0.03605131]
[0.21906212]
[0.06892199]
[0.10203567]
[0.0414991]
[-0.22028771]
[-0.23806104]
[-0.09617478]
[-0.2312451]
[0.10800245]
[-0.235093]
[-0.1603701]
[-0.0887053]
[-0.28763235]
[-0.07303148]
[-0.22825082]
[0.08116944]
[0.00198567]
[0.30184004]
[0.13688356]
[-0.16096152]
[0.17325832]
[-0.21643853]
[-0.2541189]
[-0.14530171]
[-0.03045049]
[-0.00821861]
[0.255167]
[0.01848093]
[0.3025685]
[-0.14029317]
[0.01227154]
[0.22999929]
[-0.17728738]
[0.14775053]
[-0.15576519]
[0.149438]
[0.12253971]
[0.09051145]
[0.19204976]
[0.09122311]
[-0.22804904]
[0.05431079]
[-0.09243485]
[-0.15632728]
[-0.11656799]
[0.1477191]
[-0.13140321]
[0.3002065]
[0.01487069]
[0.29573795]
[0.22296175]
[-0.01813024]
[-0.15061949]
[0.2098535]
[0.08045322]
[-0.23030062]
[-0.01832033]
[-0.06354263]
[-0.11744938]
[-0.05694336]
[-0.0983847]
[0.18768261]
[0.13505623]
[-0.09573266]
[-0.24957106]
[-0.18082815]
[0.09354734]
[0.19258775]
[0.28945157]
[-0.01878948]
[-0.05545803]
[-0.19125655]
[-0.04854423]
[-0.24071787]
[0.16341853]
[0.21684408]
[0.23323248]
[-0.16825892]
[-0.1864187]
[-0.01066756]
[-0.25054342]
[0.23474474]
[-0.1918323]
[-0.08132563]
[-0.03600165]
[0.12449732]
[0.24050719]
[0.24918543]
[-0.04515552]
[-0.17633039]
[0.15483408]
[-0.1479961]
[-0.21131177]
[0.24172197]
[-0.00918678]
[-0.28761163]
[-0.07086638]
[0.29680252]
[0.20544632]
[0.02056534]
[0.20535251]
[0.2239056]
[0.1639028]
[-0.2047205]
[-0.21250476]
[-0.09344792]
[0.290527]
[-0.14110348]
[0.2015474]
[0.06478843]
[-0.06243708]
[-0.25469887]
[-0.20314173]
[-0.10607281]
[0.19206251]
[-0.05872002]
[0.10811065]
[0.11790383]
[0.09922417]
[0.13169779]
[0.11308447]
[0.07862812]
[0.06601367]
[-0.08935665]
[0.08671974]
[0.2394276]
[0.10104121]
[0.09015907]
[-0.18037716]
[0.02456064]
[0.03014569]
[0.22146735]
[0.12063253]
[0.0206898]
[-0.01581546]
[0.2258649]
[0.11361468]
[0.09568606]
[0.08866811]
[-0.03649084]
[0.04290544]
[-0.25957337]
[-0.1696207]
[0.12355109]
[0.06151115]
[-0.13934708]
[-0.01702435]
[0.08137742]
[-0.0053471]
[0.11901025]
[-0.18766795]
[0.16063711]
[0.1695331]
[-0.0994157]
[-0.16774741]
[0.08820344]
[0.13935928]
[-0.0185522]
[-0.11393052]
[0.02301899]
[-0.09279121]
[-0.02805852]
[-0.023369]
[0.02199282]
[0.08648263]
[-0.24903294]
[-0.0512985]
[0.19591172]
[0.04302476]
[-0.14422758]
[0.26500106]
[-0.21962932]
[0.12418772]
[-0.05132089]
[0.17763299]
[-0.10917299]
[0.09624773]
[-0.26629087]
[0.1260757]
[0.0399364]
[0.02752988]
[-0.03488552]
[0.01398606]
[-0.15583992]
[0.11831606]
[-0.22655347]
[-0.1400719]
[0.00249504]
[-0.13241221]
[0.2086876]
[-0.05482532]
[-0.12513557]
[-0.23491935]
[0.00089752]
[0.28232458]
[-0.1503956]
[0.23583637]
[-0.21221974]
[-0.00658924]
[-0.2021962]
[-0.09291802]
