[-0.16606916]
[-0.06315614]
[0.25959462]
[-0.04489873]
[0.08734152]
[-0.05368067]
[0.26742405]
[0.11274333]
[0.2414814]
[-0.01105525]
[0.2615801]
[-0.10456994]
[0.18158846]
[0.01355889]
[-0.12715337]
[0.01402868]
[0.18837114]
[0.22732311]
[0.07997778]
[0.19502415]
[0.20594329]
[0.28823096]
[0.08469447]
[0.14429943]
[0.10663836]
[0.04828971]
[0.16168806]
[-0.19025925]
[-0.0765596]
[-0.09632309]
[-0.06603301]
[0.06326342]
[0.00058572]
[-0.10175794]
[-0.14034139]
[0.13905731]
[-0.03040581]
[0.27517334]
[0.18930624]
[-0.12498019]
[0.26575503]
[0.14699164]
[0.10400091]
[0.2077809]
[-0.01909116]
[0.0449798]
[0.21548535]
[0.04968355]
[0.09925395]
[0.27096426]
[-0.01611162]
[0.11952451]
[0.2890072]
[0.05832013]
[0.1630948]
[0.14070526]
[-0.10651038]
[0.21455799]
[0.13584512]
[-0.05754624]
[0.13293493]
[0.2018604]
[0.03205165]
[-0.14092542]
[0.23379041]
[-0.00836112]
[0.06886888]
[-0.02966154]
[0.10352171]
[0.15583077]
[-0.11021329]
[0.04131353]
[0.12844473]
[0.3414319]
[0.01643776]
[0.01257357]
[0.28196448]
[0.17023927]
[0.18721291]
[-0.08584183]
[-0.01522235]
[0.14343578]
[0.29375318]
[-0.04309218]
[0.26676863]
[0.07568832]
[0.12912568]
[-0.10084901]
[0.03407348]
[0.02395352]
[0.10857689]
[0.09565311]
[0.28323188]
[-0.02876848]
[0.16690314]
[0.14198332]
[-0.03965162]
[-0.11093806]
[-0.10310031]
[0.14108557]
[-0.0540549]
[-0.0579691]
[0.02742621]
[0.15272921]
[-0.09769537]
[0.00294164]
[-0.13097024]
[0.10756297]
[0.02834478]
[-0.1285733]
[-0.06400459]
[0.0984706]
[0.1041147]
[0.12025669]
[0.11673366]
[0.15750034]
[0.07499057]
[0.15740447]
[0.20542873]
[0.10971799]
[0.18627907]
[0.1428464]
[-0.00430122]
[0.211409]
[-0.19879559]
[0.19334155]
[0.18394618]
[0.09118985]
[-0.08459578]
[0.18378268]
[-0.15367337]
[0.17791533]
[-0.21587321]
[-0.06737321]
[0.10898571]
[-0.14517543]
[0.08097557]
[0.10500304]
[-0.18349689]
[-0.12494046]
[-0.10694463]
[-0.0381]
[-0.00135779]
[0.14940804]
[0.1430403]
[0.00327065]
[0.03974092]
[-0.07962036]
[-0.15258631]
[-0.1943081]
[0.06180402]
[0.14156124]
[-0.11065361]
[-0.02569723]
[-0.13426803]
[0.15097825]
[-0.237378]
[-0.21674414]
[0.10102651]
[0.1558148]
[-0.05179828]
[-0.24002017]
[-0.19860448]
[-0.01114091]
[0.04477115]
[0.05828544]
[-0.07425378]
[-0.24447098]
[0.02026996]
[0.15667352]
[-0.05927544]
[-0.14829543]
[0.14358564]
[-0.2168705]
[-0.15711695]
[-0.25740206]
[0.04626372]
[-0.01389428]
[0.07618807]
[-0.18468127]
[0.18882121]
[-0.03082153]
[0.16641663]
[-0.02011552]
[-0.1744372]
[-0.02305456]
[-0.06846268]
[-0.1871208]
[-0.1723067]
[0.03935519]
[-0.21338399]
[-0.0783911]
[-0.14621808]
[-0.16907655]
[-0.01081675]
[-0.0363455]
[0.1738284]
[-0.10804802]
[-0.07662278]
[0.08808108]
[0.17420423]
[-0.1429354]
[0.04812583]
[-0.21653385]
[-0.00147497]
[0.03851827]
[0.0608706]
[-0.24677353]
[0.0807109]
[0.02066904]
[-0.0650142]
[0.15345164]
[-0.19299723]
[-0.02704265]
[-0.08709379]
[-0.02400636]
[-0.27343142]
[0.06491453]
[0.07329211]
[-0.05552853]
[-0.07864533]
[-0.04552777]
[0.00296766]
[-0.09494587]
[-0.09728043]
[-0.0465607]
[-0.25698242]
[-0.14755704]
[0.00716571]
[-0.16179788]
[0.17351298]
[-0.15245892]
[0.00347238]
[-0.04549354]
[0.02008266]
[-0.18605657]
[0.16555151]
[-0.17517215]
[0.11413182]
[-0.01583015]
[-0.2572987]
[0.09140836]
[0.08024283]
[0.03252112]
[0.01876043]
[-0.27197444]
[-0.13388124]
[0.01222935]
[-0.04613286]
[-0.12111838]
[-0.19255319]
[-0.19104965]
[0.08282155]
[-0.16239154]
[-0.26463673]
[-0.23506105]
[-0.02394836]
[0.03245534]
[-0.1606187]
[-0.04213934]
[0.09314718]
[-0.14954728]
[0.14128822]
[0.18965879]
[-0.18973817]
[-0.1433227]
[-0.09959438]
[-0.21602641]
[-0.11597168]
[-0.22028431]
[-0.01555831]
[-0.19355474]
[-0.27122012]
[-0.03608972]
[0.1107257]
[-0.16245306]
[-0.09151973]
[0.01079965]
[-0.2506635]
[-0.10329684]
[-0.07864562]
[0.08789315]
[-0.13425316]
[-0.02188372]
[-0.15083802]
[0.06316014]
[-0.23250791]
[-0.23103562]
