[-0.02378423]
[0.05073591]
[0.08698192]
[-0.1610286]
[-0.00647805]
[-0.05013041]
[0.04697116]
[-0.02646803]
[-0.06692263]
[-0.09720233]
[-0.03721165]
[-0.11068554]
[0.1281308]
[-0.14714193]
[0.03713318]
[-0.07844841]
[-0.03871918]
[0.14366895]
[0.05256865]
[0.05393752]
[-0.000468]
[-0.15917107]
[-0.14513238]
[-0.0161276]
[0.10005981]
[-0.12524024]
[-0.14088434]
[0.13818534]
[-0.1406748]
[-0.02676222]
[-0.08658849]
[0.11437728]
[0.01904931]
[-0.03091452]
[-0.06815975]
[-0.04827474]
[-0.04504017]
[-0.04285191]
[0.12326385]
[0.04260685]
[0.01492863]
[0.10057335]
[-0.17108296]
[0.04298314]
[0.11876334]
[0.03150774]
[-0.05254124]
[-0.00446752]
[-0.04241457]
[-0.09433138]
[-0.14164065]
[-0.10730388]
[-0.03701593]
[-0.09745713]
[0.01486803]
[-0.09790748]
[-0.11641435]
[-0.00664243]
[0.06171963]
[-0.05929773]
[-0.15762144]
[0.07836875]
[-0.166874]
[-0.16052707]
[0.13102762]
[-0.06030694]
[0.0066131]
[-0.00772481]
[-0.03409708]
[-0.12713794]
[-0.1449298]
[0.04133181]
[0.00273779]
[0.06526572]
[-0.05748558]
[-0.1145182]
[-0.14954779]
[-0.05043415]
[0.04392702]
[-0.1104586]
[0.16076443]
[-0.13265966]
[-0.14759089]
[0.10599642]
[0.06232096]
[-0.05482119]
[0.15324463]
[0.11846426]
[-0.07883295]
[0.1614091]
[-0.11867218]
[-0.11043946]
[0.16162904]
[0.07016524]
[0.10005192]
[-0.14935184]
[0.13929246]
[-0.12594187]
[0.14576097]
[-0.00803055]
[0.16626364]
[-0.08440065]
[0.03201997]
[0.1379245]
[-0.00769209]
[0.03084896]
[0.15353832]
[0.1730325]
[0.0684278]
[-0.06671453]
[-0.0212166]
[0.07273328]
[-0.12871361]
[-0.14129698]
[0.04780395]
[0.10503914]
[0.16545899]
[0.01204387]
[0.05631831]
[0.08184125]
[0.04249822]
[-0.07304471]
[-0.0228729]
[-0.05034052]
[0.01382446]
[-0.13845281]
[0.05259987]
[0.00684983]
[0.05495629]
[0.11876021]
[-0.07623012]
[-0.13756624]
[0.1433575]
[-0.05084949]
[0.16129912]
[0.03607342]
[0.06559108]
[0.00610568]
[0.09176137]
[0.04753038]
[0.0786294]
[0.12118222]
[-0.11776467]
[0.06892349]
[-0.09362592]
[0.01897693]
[0.07382312]
[-0.0091635]
[0.04255665]
[-0.12663816]
[0.1345197]
[-0.13949569]
[-0.06549767]
[-0.08620115]
[-0.00240682]
[-0.07786945]
[0.09292104]
[-0.05579016]
[0.08976742]
[-0.03403173]
[0.05033538]
[0.13660257]
[-0.12664132]
[-0.15186088]
[-0.03488482]
[0.13253981]
[-0.15656653]
[-0.11361403]
[0.14261343]
[-0.07260396]
[-0.14874458]
[0.01586183]
[0.07176074]
[0.01681181]
[0.0289715]
[-0.0416737]
[-0.11278738]
[0.04847388]
[0.05905532]
[0.02636138]
[0.12186725]
[-0.03470695]
[0.01433089]
[0.09363451]
[-0.03070932]
[-0.05552929]
[-0.10408542]
[0.04057999]
[-0.02838011]
[-0.15790151]
[0.12689476]
[-0.03863327]
[0.11559054]
[-0.09686948]
[0.12867227]
[0.14715181]
[0.07515352]
[0.0299083]
[-0.05072026]
[0.08069615]
[0.0612079]
[0.02314058]
[0.00123858]
[0.149699]
[0.04609031]
[-0.08907741]
[-0.01530966]
[0.12817907]
[-0.15586655]
[0.11271249]
[-0.09181768]
[0.09226378]
[-0.04112944]
[-0.13626282]
[-0.06689413]
[0.11660674]
