[0.1638081]
[-0.05982791]
[0.1885737]
[-0.01260433]
[0.04662124]
[-0.06494663]
[0.16015977]
[0.12800518]
[0.13940674]
[0.02167075]
[0.0039678]
[0.15297635]
[0.2896901]
[0.2205249]
[-0.07567313]
[0.10336384]
[0.1627558]
[0.26103005]
[0.30618486]
[-0.06481711]
[0.25196296]
[-0.12123331]
[-0.08340861]
[0.13814023]
[0.13159795]
[0.22661395]
[0.27273238]
[-0.16528071]
[-0.09633968]
[0.30886286]
[0.28288144]
[-0.05128911]
[-0.04680571]
[0.23015848]
[-0.10742537]
[0.24119867]
[-0.09683838]
[-0.0243353]
[0.16178414]
[0.20859483]
[0.03493448]
[-0.11021537]
[0.18174255]
[0.02793069]
[0.2986941]
[0.19046794]
[0.05798434]
[0.2296122]
[-0.0735516]
[0.0878787]
[0.04043726]
[-0.1029734]
[-0.10457458]
[0.00506053]
[0.14237975]
[0.26757017]
[-0.05385073]
[0.12917376]
[0.15263438]
[-0.08978912]
[0.2688765]
[-0.16031873]
[-0.03945786]
[-0.09864984]
[0.24227367]
[0.09160139]
[0.13972756]
[0.18673237]
[-0.16235426]
[0.18751392]
[-0.09830639]
[-0.05922859]
[0.03054877]
[0.14276463]
[0.2673682]
[-0.09011319]
[-0.15445375]
[-0.09021967]
[0.00843369]
[0.23379838]
[0.07885078]
[0.03312735]
[0.11026389]
[-0.213608]
[-0.0870638]
[-0.08907648]
[-0.07454246]
[0.23608066]
[0.08656667]
[-0.10915986]
[-0.08599096]
[0.0636805]
[-0.13846582]
[0.059849]
[-0.16845852]
[0.0270667]
[-0.10367575]
[0.0438793]
[-0.28574228]
[0.17610933]
[-0.10420416]
[-0.02726639]
[-0.09544342]
[-0.05169589]
[-0.2020345]
[0.1749514]
[0.04782256]
[-0.03473931]
[-0.2310403]
[0.04987894]
[-0.12341681]
[-0.20534666]
[0.10647068]
[0.06524394]
[0.10424527]
[0.00658124]
[-0.01519089]
[-0.22025727]
[0.14381655]
[-0.04998115]
[0.08460077]
[0.00760101]
[0.10010385]
[0.09973995]
[-0.16732763]
[-0.26033634]
[-0.06304728]
[-0.00720596]
[-0.11284653]
[-0.00234023]
[0.07826559]
[-0.14715531]
[-0.1594753]
[-0.29679623]
[-0.18527816]
[-0.21915571]
[0.10390344]
[-0.14734179]
[-0.15004757]
[-0.12396463]
[0.09247706]
[0.08499049]
[0.1095323]
[-0.16521497]
[0.04588924]
[0.05978867]
[-0.17178063]
[-0.19357333]
[-0.00667848]
[-0.01994406]
[0.09128942]
[0.03534488]
[-0.14698337]
[-0.00355361]
[-0.01704103]
[-0.2492679]
[-0.38558072]
[-0.32850483]
[0.05436684]
[-0.28931835]
[0.02658607]
[-0.17935339]
[0.00213397]
[-0.15931845]
[0.14522278]
[-0.00770703]
[-0.21640426]
[-0.12618932]
[0.02035456]
[0.01684209]
[-0.16581562]
[0.01515794]
[-0.18757322]
[0.16226812]
[0.07051486]
[0.03167595]
[0.1453354]
[0.11956907]
[0.04353698]
[-0.10969384]
[0.02749994]
[-0.2698523]
[-0.20648989]
[-0.22616905]
[-0.10106333]
[0.02425494]
[-0.11995791]
[-0.20658556]
[-0.10197447]
[-0.20210224]
[-0.08847305]
[-0.19791791]
[-0.11407942]
[-0.25778604]
[-0.04877935]
[0.15852176]
[0.04518241]
[-0.18828398]
[0.11185448]
[0.03965667]
[-0.10853766]
[-0.2302414]
[-0.03682583]
[-0.03713748]
[-0.25279266]
[0.16863382]
[-0.1286572]
[0.11100167]
[-0.09133869]
[0.12049958]
[-0.13239102]
[-0.15073551]
[0.05980435]
[-0.01355129]
[0.04568952]
[-0.13705552]
[0.00793094]
[-0.02896047]
[-0.12301223]
[-0.17601843]
[0.02115611]
[-0.07138921]
[-0.16250485]
[0.04801099]
[-0.07298247]
[-0.24062444]
[-0.18322974]
[0.11430106]
[0.03847994]
[-0.00259361]
[-0.21199514]
[-0.09497711]
[-0.2232326]
[0.00488093]
[-0.14544426]
[0.16165626]
[0.17098488]
[-0.05040529]
[0.09332314]
[-0.07927727]
[0.09055354]
[0.14858428]
[0.00808742]
[0.10772481]
[-0.2390001]
[-0.10692666]
[0.20198129]
[0.0780651]
[-0.12740445]
[-0.10879159]
[-0.11906648]
[-0.14760405]
[-0.19399685]
[-0.24515374]
[-0.11869358]
[-0.09651551]
[-0.1210171]
[-0.12368215]
[0.00519663]
[-0.01056411]
[0.05807873]
[-0.10936482]
[0.13260731]
[-0.11468939]
[0.09228522]
[0.08167173]
[-0.1713626]
[0.01456473]
[-0.20318903]
[0.0774791]
[-0.02143762]
[0.1113832]
[-0.20126006]
[-0.17464542]
[-0.14587134]
[-0.03616384]
[0.14100882]
[-0.1710321]
[-0.12170891]
[0.17883411]
[0.18732128]
[0.18978122]
[-0.00246977]
[0.1855901]
[-0.23482089]
[-0.0522714]
[0.13937934]
[0.19888775]
