[0.06252333]
[0.11260824]
[0.02042762]
[0.02605289]
[0.06553663]
[-0.10705202]
[-0.03483563]
[-0.12690677]
[0.02518802]
[0.06220265]
[0.05659631]
[0.10346381]
[0.10867468]
[-0.10789818]
[-0.06286113]
[-0.0673279]
[-0.09214887]
[-0.00372209]
[-0.11300243]
[0.0110099]
[0.12916665]
[0.01266556]
[0.01207758]
[-0.00198374]
[-0.04423612]
[-0.08777227]
[0.08775369]
[0.12940156]
[0.1131625]
[-0.0790343]
[-0.01023953]
[-0.01075735]
[-0.042038]
[0.07388677]
[0.11993198]
[-0.10326549]
[0.08483119]
[-0.02572788]
[-0.05481724]
[0.03708243]
[0.0421574]
[-0.1102808]
[0.07425848]
[-0.06130332]
[-0.1287132]
[-0.02409389]
[-0.11925239]
[-0.05089862]
[0.07866794]
[-0.08607534]
[-0.10463808]
[0.06583732]
[0.09940646]
[0.0445942]
[-0.07617906]
[0.00917291]
[-0.06466326]
[-0.04578234]
[0.08161235]
[-0.08045536]
[-0.11735762]
[-0.11654816]
[-0.02432184]
[-0.05694714]
[-0.04141206]
[0.02141037]
[0.07398996]
[0.10306583]
[0.00082664]
[0.06766914]
[0.12425201]
[0.06153264]
[-0.14089198]
[-0.03601503]
[-0.09615947]
[-0.06487031]
[0.06885334]
[-0.02407873]
[-0.11473265]
[0.13097617]
[-0.03689372]
[-0.09531432]
[-0.08079182]
[-0.11440781]
[0.08255327]
[0.0857321]
[0.04831457]
[0.00842608]
[-0.12593624]
[-0.03197563]
[0.09557346]
[-0.08272866]
[-0.06766238]
[0.04824228]
[0.00363129]
[0.14438966]
[0.01365141]
[-0.01728147]
[0.13985075]
[-0.02271584]
[0.05145485]
[-0.11281753]
[0.08301775]
[-0.02386547]
[-0.08541426]
[-0.03409432]
[-0.08951293]
[0.12885803]
[-0.0915346]
[-0.12302426]
[-0.10108246]
[-0.06493719]
[0.11481486]
[0.12683709]
[-0.00235798]
[0.04478537]
[-0.06207233]
[-0.09042595]
[-0.04300854]
[0.05619437]
[0.12299962]
[0.01172767]
[0.08234919]
[0.00686484]
[0.00989172]
[-0.06800497]
[0.10977485]
[0.08236043]
[0.13900952]
[0.08546238]
[-0.11270014]
[0.09185287]
[-0.11561968]
[0.07755396]
[-0.08180701]
[0.1424429]
[-0.09907159]
[-0.09168933]
[0.06659001]
[-0.0574087]
[0.03261616]
[-0.0265121]
[-0.00169056]
[0.0650709]
[0.12188543]
[-0.10050437]
[0.09146747]
[-0.1308414]
[-0.01685227]
[-0.01806379]
[-0.10485538]
[0.12415309]
[0.12466291]
[-0.10734642]
[0.02222477]
[0.04457783]
[0.11196622]
[0.13123474]
[0.08105583]
[-0.07445692]
[0.0511807]
[0.10392345]
[0.03422205]
[0.03667351]
[-0.01049713]
[-0.04538364]
[-0.05110482]
[0.00633985]
[0.10554574]
[-0.07016665]
[0.11255953]
[-0.04938548]
[0.03159795]
[-0.01590333]
[0.09268613]
[0.03767506]
[-0.12630467]
[-0.1157061]
[-0.07008268]
[0.01421737]
[0.08791098]
[-0.10481849]
[0.03042153]
[-0.03021137]
[-0.00765661]
[0.10774995]
[0.05507582]
[-0.06059962]
[0.11809384]
[0.0814441]
[0.05116128]
[-0.11246669]
[0.07941112]
[-0.04812481]
[0.03726177]
[-0.09731989]
[-0.07630085]
[-0.01847139]
[0.00820075]
[0.09453034]
[0.135869]
[0.13400918]
[0.05180829]
[0.00135463]
[-0.05351433]
[-0.06326293]
[-0.04906838]
[-0.05719182]
[0.12802787]
[0.0227431]
[0.08475589]
[-0.11113459]
[0.05555341]
[-0.13022701]
[-0.02986946]
[0.06818072]
[-0.10818796]
[-0.12221697]
[-0.00794812]
[0.10122205]
[0.12936786]
[0.099772]
[-0.01811312]
[-0.07368553]
[-0.09121565]
[-0.03596558]
[0.07652069]
[0.04989407]
[-0.00361581]
[0.10729376]
[-0.0145612]
[0.06244171]
[0.01799781]
[-0.07931828]
[-0.11741704]
[0.01833404]
[0.0022259]
[0.06816322]
[-0.10916957]
[0.06620114]
[-0.05604533]
[0.0828949]
[-0.07321241]
[0.09249522]
[-0.09787146]
[0.07962666]
[-0.04364108]
[-0.04185715]
[-0.11280547]
[0.05717883]
[0.06838829]
[0.02552489]
[0.12046295]
[-0.10332356]
[0.03848652]
[0.03561058]
[0.06447937]
[-0.00513198]
[-0.08594976]
[-0.08562256]
[0.01846177]
[-0.07685573]
[-0.03452588]
[-0.04773074]
[0.13087063]
[-0.03917659]
[-0.11172572]
[-0.06516568]
[0.1014897]
[0.0306933]
[-0.06572334]
[0.12326966]
[-0.07864349]
[-0.0002995]
[0.14589371]
[-0.01429769]
[0.12329149]
[0.00171716]
[0.08838184]
[-0.00889998]
[0.10507251]
[0.1018007]
[0.09191183]
[-0.01278168]
[-0.03988736]
[0.04755789]
[-0.08555397]
[-0.03122281]
[0.0131077]
[0.03439035]
[0.02999924]
[0.05976313]
[-0.12780613]
[-0.11991394]
[0.0889761]
[0.0982214]
[0.0099464]
[0.08696008]
[0.051297]
[0.00308176]
[0.00018278]
[-0.04241651]
[0.02926136]
[-0.03307201]
[0.11512977]
[0.08768805]
[-0.00392556]
[0.03984545]
[0.08311021]
[0.01881608]
[-0.02443207]
[-0.05827305]
[0.04866383]
[-0.01118997]
[-0.04683237]
[0.01328229]
[0.05551428]
[-0.11052261]
[0.10658306]
[-0.1090683]
[-0.03437965]
[0.02583696]
[0.03668641]
[-0.08406097]
[-0.03123808]
[-0.09306615]
[0.07168409]
[0.14571835]
[-0.02446476]
[-0.1144913]
[-0.03768763]
[0.10038034]
[0.09025882]
[0.12507558]
[0.14752956]
[0.1343933]
[0.06212452]
[-0.09689641]
[0.03530312]
[0.07594638]
[-0.04251117]
[0.01483328]
[0.13864692]
[-0.00490964]
[0.10890057]
[-0.03048596]
[-0.05343007]
[-0.02180424]
[-0.0432805]
[-0.12173465]
[-0.00507041]
[-0.02497596]
[-0.05809019]
[-0.04412747]
[0.08017409]
[0.02983852]
[0.01436501]
[-0.10872182]
[-0.016199]
[-0.09493451]
[-0.13017897]
[0.02762518]
[-0.05539494]
[0.06090648]
[0.06884542]
[0.03335799]
[0.06845838]
[0.07130112]
[-0.01332468]
[0.0371592]
[-0.09988739]
[-0.12562627]
[0.06369722]
[0.07286052]
[0.118977]
[-0.10998671]
[-0.01929869]
[-0.00145347]
[0.08316654]
[-0.0578112]
[-0.05737907]
[0.0626475]
[0.10673536]
[0.01076419]
[0.06040181]
[0.10788708]
[-0.001157]
[-0.08481179]
[0.02601895]
[-0.10615332]
[0.09476775]
[-0.06311202]
[-0.00513647]
[0.09003612]
[0.11785716]
[0.01392995]
[-0.07827199]
[0.1354165]
[-0.03957544]
[-0.09070887]
[-0.00875718]
[0.15386778]
[-0.08784876]
[0.09395147]
[0.09113962]
[-0.09566379]
[-0.02915598]
[0.11007065]
[-0.04351614]
[0.07448097]
[0.1165767]
[0.09845415]
[-0.1146172]
[0.10740448]
[0.0786844]
[0.06331818]
[0.13345394]
[0.05950427]
[0.04269601]
[0.13830937]
[-0.07035119]
[0.13245885]
[0.09859138]
[0.14597422]
[-0.00393747]
[-0.09933054]
[0.10910521]
[0.02601937]
[0.10581238]
[-0.0285831]
[0.02709417]
[-0.10186336]
[-0.03277431]
[0.10771981]
[-0.10333232]
[0.09006627]
[0.00798942]
[0.0783486]
[-0.07951856]
[0.13587026]
[0.12110469]
[0.00176527]
[-0.10824999]
[-0.05583784]
[0.01300888]
[-0.00614682]
[0.02239557]
[-0.09457786]
[0.05938148]
[-0.09142836]
[0.11035591]
[-0.01793418]
[0.04472825]
[0.01808052]
[0.00560044]
[-0.00624258]
[0.01710351]
[-0.10046218]
[-0.07430478]
[0.10184484]
[0.03914018]
[-0.06251401]
[0.0254279]
[-0.0850606]
[0.06490729]
[0.01172688]
[-0.10978547]
[-0.0227716]
[0.01482666]
[0.08140047]
[0.06313866]
[0.08103815]
[0.09175006]
[-0.10041676]
[-0.05540117]
[0.13502254]
[-0.05099415]
[0.09885269]
[0.14841607]
[-0.07288392]
[-0.12979303]
[0.0708713]
[-0.03894655]
[0.09425705]
[0.04228643]
[0.05702997]
[-0.11780842]
[-0.0984747]
[0.11871348]
[-0.08931809]
[0.09702908]
[-0.10342796]
[0.03432151]
[0.09381253]
[0.11508648]
[0.08348267]
[-0.0197002]
[-0.06271276]
[-0.00991184]
[0.11132471]
[0.09491038]
[-0.0861384]
[0.12007453]
[0.04124553]
[-0.04520728]
[0.0223903]
[0.11883055]
[-0.03204778]
[-0.04616427]
[0.01388256]
[0.0698752]
[-0.10001288]
[0.05506726]
[-0.01413716]
[0.03017545]
[-0.0842857]
[0.13371527]
[0.01346107]
[0.02954593]
[0.00294901]
[0.11251716]
[7.403642e-05]
[-0.09908241]
[-0.00093402]
[0.05867565]
[-0.00099664]
[0.02957084]
[0.04496076]
[-0.04228603]
[-0.04420439]
[0.09674674]
[0.12591232]
[0.0909587]
[0.10345263]
[0.02462795]
[0.0614621]
[0.11623324]
[0.00751803]
[0.02222552]
[-0.06671116]
[0.04706941]
[-0.03972925]
[-0.05637413]
[-0.09188718]
[0.07814654]
[0.14693864]
[0.01625931]
[0.02391749]
[-0.00465738]
[0.0452431]
[-0.02209841]
[-0.02915235]
[-0.01537316]
[-0.01885565]
[-0.10960655]
[0.08282316]
[0.11142033]
[-0.08417853]
[0.06994385]
[0.04493386]
[-0.09102877]
[0.03821509]
[-0.08266564]
[-0.02442248]
[-0.08417857]
[0.03007879]
[-0.08757253]
[0.00376785]
[0.05683319]
[0.13789657]
[-0.01750693]
[0.07454179]
[0.09738905]
[0.08085548]
[0.07746732]
[-0.08235465]
[0.07274481]
[-0.064283]
[0.12816471]
[-0.08417763]
[-0.11415476]
[0.03616268]
[0.14351238]
[0.12577322]
[-0.06007168]
[-0.01681519]
[0.05438761]
[-0.01186357]
[0.04569345]
[-0.08801396]
[-0.09838505]
[-0.11508617]
[-0.01689061]
[-0.0880696]
[-0.02565021]
[0.13555014]
[-0.08524292]
[-0.05095602]
[0.05903155]
[0.13152954]
[0.12903732]
[-0.02788794]
[-0.06500097]
[-0.04503222]
[0.10703836]
[0.12837842]
[0.10616572]
[-0.10616747]
[0.03267138]
[0.02316215]
[-0.09165095]
[0.06251393]
[-0.10401236]
[-0.0491948]
[-0.06774357]
[0.03742373]
[-0.12028293]
[0.12201402]
[-0.0791398]
[0.10701083]
[-0.04878817]
[0.04529675]
[0.14495106]
[-0.01023353]
[0.12006592]
[-0.01030515]
[0.01909361]
[0.04978893]
[-0.05847012]
[0.07319726]
[-0.11211957]
[0.1311959]
[0.00228164]
[-0.09836482]
[-0.0647137]
[-0.02930775]
[0.09266748]
[0.10660835]
[0.02634284]
[-0.04642183]
[-0.1064043]
[-0.10978179]
[-0.05976097]
[-0.09846926]
[0.1123443]
[0.03778726]
[-0.06854652]
[-0.05684441]
[0.05832199]
[0.10051352]
[-0.06127284]
[0.08559182]
[-0.05850507]
[0.11010612]
[-0.06806288]
[-0.08117104]
[0.07631878]
[0.02350201]
[0.13247167]
[0.13856155]
[-0.06763894]
[0.09530532]
[-0.04227019]
[0.09100694]
[0.11536333]
[-0.116981]
[-0.1074157]
[0.00431417]
[-0.0540246]
[-0.10772499]
[0.09131742]
[-0.11351333]
[-0.01895664]
[-0.04495544]
[-0.0914942]
[-0.10922098]
[-0.10138511]
[0.13431488]
[-0.00753725]
[-0.09418476]
[0.03364106]
[0.00987194]
[0.1160397]
[0.1198846]
[0.0709931]
[0.04368632]
[0.1025604]
[-0.01625334]
[-0.0110216]
[-0.06781539]
[0.08448289]
[-0.12328789]
[-0.08430777]
[0.08883525]
[0.14584255]
[0.0501655]
[0.04806874]
[0.0053687]
[0.10986147]
[-0.08919483]
[-0.04526121]
[0.08236147]
[0.01714612]
[-0.04014264]
[0.1185376]
[-0.06240234]
[-0.10185837]
[-0.01105657]
[0.00920936]
[0.12630808]
[0.06422815]
[-0.06525341]
[-0.11323058]
[-0.01293981]
[0.07730594]
[-0.02530988]
[0.04850133]
[0.09913576]
[0.02201586]
[-0.08161563]
[-0.13594277]
[0.05549251]
[-0.03110149]
[-0.00301969]
[-0.08506396]
[-0.12861328]
[0.02193146]
[-0.12717357]
[0.12570778]
[-0.05152452]
[-0.09353101]
[-0.05771951]
[-0.06420115]
[0.06866587]
[-0.11346843]
[0.05836381]
[0.10858212]
[-0.00640686]
[-0.01721378]
[0.13909093]
[0.11625353]
[0.06272195]
[-0.06454392]
[0.11297166]
[0.09927146]
[0.10134343]
[0.00158469]
[0.02099483]
[0.09325387]
[-0.11208987]
[-0.00497541]
[-0.08628494]
[-0.0800858]
[0.1269845]
[-0.10017025]
[0.09292663]
[0.1331828]
[0.12459518]
[0.02769708]
[0.10005219]
[-0.07488661]
[0.13892746]
[0.12384524]
[0.06706845]
[-0.03613231]
[0.11997027]
[-0.05132495]
[-0.04599183]
[-0.13088065]
[-0.09862886]
[0.01097204]
[-0.11926573]
[-0.00387282]
[-0.01727877]
[-0.10444748]
[0.13304245]
[-0.05028]
[-0.06942175]
[-0.01932501]
[-0.09702594]
[-0.04387463]
[-0.10524558]
[-0.09977754]
[-0.05624451]
[-0.05657048]
[-0.05953083]
[-0.12023684]
[0.04927014]
[0.06440817]
[-0.1274849]
[0.04756726]
[0.01527926]
[-0.07137355]
[0.00917173]
[0.06587178]
[-0.03983651]
[0.08436847]
[0.02978028]
[0.0875619]
[0.04780245]
[0.09968218]
[0.01309541]
[0.05809054]
[0.08628257]
[0.04309737]
[0.01754442]
[0.05098869]
[-0.06753384]
[-0.01894913]
[0.09285206]
[0.03146109]
[-0.00400398]
[0.02170178]
[0.08190959]
[-0.08643197]
[-0.05585365]
[0.1086415]
[-0.03458535]
[0.01363706]
[-0.02549703]
[0.03458765]
[-0.00407642]
[0.1117304]
[0.06540807]
[0.09889046]
[0.12374926]
[-0.10732065]
[0.09020894]
[-0.13387093]
[-0.04770561]
[-0.0559238]
[0.09211475]
[-0.0010556]
[-0.05254462]
[0.11212014]
[0.0093]
[-0.09789445]
[-0.06281905]
[-0.05771469]
[0.12736094]
[0.09057128]
[0.07970514]
[0.08412224]
[-0.00976603]
[0.04458702]
[-0.05517694]
[-0.07951607]
[0.11724488]
[-0.0931465]
[0.06138869]
[-0.09353326]
[-0.08548231]
[0.05135391]
[0.03271551]
[-0.13006082]
[0.0892437]
[0.06015415]
[0.02191193]
[-0.10281412]
[0.12214412]
[-0.11208467]
[0.11215708]
[-0.11229049]
[0.02858502]
[0.08096796]
[0.14850104]
[0.1262286]
[-0.10595768]
[0.05508745]
[0.14347422]
[0.13610598]
[0.10394438]
[0.03761799]
[-0.07385311]
[-0.07716922]
[0.07457935]
[0.13929236]
[-0.04912755]
[0.07564704]
[-0.01129339]
[-0.0809112]
[-0.04126241]
[0.09702647]
[-0.06745877]
[0.114409]
[0.05821431]
[0.04212832]
[-0.03940712]
[0.14853573]
[-0.08088523]
[0.11453138]
[-0.09940049]
[0.0774429]
[-0.07306767]
[0.15501255]
[0.14268218]
[-0.11368686]
[0.00770612]
[-0.03310722]
[0.12658584]
[0.06845681]
[-0.00531789]
[0.06768724]
[-0.01087053]
[0.07153334]
[-0.0128225]
[-0.09901334]
[0.00384679]
[0.01804057]
[0.06651939]
[0.13988869]
[0.09374343]
[0.09001342]
[0.03919557]
[-0.02610852]
[0.00934552]
[-0.01969223]
[0.05223705]
[0.12212817]
[0.11017785]
[0.05423149]
[0.15938005]
[-0.04957959]
[0.14503607]
[-0.09491237]
[0.02068944]
[-0.10468753]
[-0.07090094]
[-0.09011002]
[0.12829524]
[-0.05438073]
[0.08894156]
[0.10769062]
[0.0566112]
[-0.07361768]
[0.01887408]
[-0.0178798]
[-0.04637063]
[-0.06778691]
[0.10225046]
[0.00565752]
[0.00845747]
[-0.10471626]
[-0.0243924]
[0.08595435]
[-0.09949623]
[0.07471486]
[-0.08305414]
[0.01505781]
[0.01418165]
[0.06360914]
[0.00528823]
[-0.07968232]
[0.13352986]
[0.00877159]
[-0.06633453]
[-0.09536804]
[0.07736163]
[-0.02727539]
[0.05349441]
[-0.02282929]
[0.14601216]
[-0.06541331]
[-0.11305705]
[0.03328892]
[-0.07621944]
[-0.04217282]
[0.05680837]
[-0.0601483]
[0.09830566]
[0.15197903]
[0.09840569]
[0.06875581]
[0.03324497]
[0.15826996]
[-0.00810703]
[-0.04552446]
[-0.09522936]
[0.1255972]
[0.03743185]
[0.07023658]
[0.15523314]
[-0.08191288]
[0.14744706]
[0.00134467]
[0.12199227]
[0.04216131]
[0.12997119]
[-0.06176839]
[0.08126482]
[0.1303209]
[-0.01043923]
[0.0391203]
[0.0279701]
[0.07682705]
[0.03681921]
[-0.02608526]
[-0.02286142]
[0.05410343]
[0.02907052]
[0.08735917]
[0.08188175]
[0.06984527]
[-0.10034461]
[0.04062286]
[0.11274569]
[0.00856661]
[-0.04815097]
[0.13038027]
[0.08368475]
[0.15089132]
[0.15546775]
[-0.03920839]
[0.0130045]
[-0.07344311]
[-0.09631468]
[-0.02858753]
[-0.03206234]
[-0.01215333]
[0.09808251]
[0.12779279]
[0.10294881]
[0.13733953]
[0.11669777]
[0.06527994]
[-0.03390294]
[-0.03791966]
[0.14803025]
[0.12390506]
[0.00078721]
[0.07455675]
[0.03900064]
[0.08031169]
[-0.06672649]
[-0.00059325]
[0.1332156]
[0.08401044]
[0.10612188]
[-0.06661501]
[-0.04639404]
[-0.05692475]
[-0.05228164]
[0.09286702]
[-0.01150657]
[0.09980597]
[0.05009393]
[0.15585186]
[-0.06349678]
[0.02696721]
[-0.07364148]
[-0.09631974]
[-0.02658977]
[-0.03870722]
[-0.10588157]
[0.0009501]
[0.03699781]
[0.06674396]
[0.01629929]
[-0.07299671]
[0.07217535]
[-0.06400231]
[-0.03003996]
[0.06115109]
[-0.04547986]
[0.02271811]
[-0.00289087]
[-0.10387983]
[0.07164678]
[-0.05576549]
[0.05240595]
[-0.04914705]
[0.14555499]
[0.00975563]
[-0.09234954]
[0.05818099]
[0.10922971]
[-0.05742732]
[-0.01300319]
[-0.09551397]
[-0.01308695]
[0.10247254]
[0.00806678]
[0.12877493]
[0.08108523]
[0.09535494]
[0.12369058]
[-0.08496457]
[0.07201726]
[0.00048036]
[-0.00277236]
[0.01639227]
[0.00373702]
[0.1164996]
[-0.10419378]
[0.12714031]
[0.11898004]
[0.05049301]
[0.12827863]
[0.02424221]
[-0.08690631]
[-0.02556858]
[0.15217586]
[0.11088996]
[0.06554713]
[-0.0633089]
[0.15510897]
[0.01305956]
[0.13074319]
[-0.10557709]
[0.0907434]
[0.07993246]
[-0.02161943]
[-0.07848898]
[0.04239522]
[0.15288004]
[-0.08077995]
[-0.00242216]
[0.08643968]
[0.00910721]
[0.03021342]
[0.03084822]
[-0.08471453]
[0.06058984]
[0.11633378]
[-0.08577538]
[-0.10204645]
[0.12042952]
[0.06030552]
[-0.11175741]
[-0.09492746]
[0.02235631]
[-0.0275284]
[0.10609385]
[-0.02581457]
[-0.09364764]
[0.00476984]
[-0.04822731]
[-0.08030434]
[0.05071471]
[-0.05884591]
[0.05511624]
[0.15638447]
[0.08175783]
[0.06825815]
[-0.03937326]
[-0.01048097]
[0.07950746]
[0.11985391]
[-0.06141703]
[-0.0188952]
[-0.08646181]
[-0.02309407]
[0.09260258]
[0.1518067]
[0.01777268]
[-0.02383753]
[0.08513787]
[0.06832659]
[0.11770108]
[-0.07844297]
[0.15368164]
[0.11741535]
[0.13074213]
[-0.08454169]
[-0.00952066]
[0.06269324]
[-0.09775563]
[0.10671057]
[0.02970705]
[-0.07884826]
[0.04768116]
[0.00338988]
[-0.08292391]
[-0.07354117]
[0.16635962]
[-0.04966193]
[-0.04297882]
[-0.01129183]
[0.00334684]
[0.03233073]
[0.14476874]
[-0.09587185]
[0.12658073]
[0.01311242]
[0.07800408]
[-0.00894449]
[0.09178378]
[0.00916165]
[0.04817647]
[0.01044868]
[0.04695567]
[0.02918172]
[0.01766202]
[0.01866422]
[0.13064976]
[-0.05875051]
[0.15588324]
[0.10452104]
[0.04172247]
[-0.01511844]
[0.02440979]
[0.09570584]
[0.12206441]
[0.08632366]
[0.0407355]
[0.13125616]
[-0.02569233]
[-0.0097251]
[-0.09067462]
[0.00981588]
[0.04017227]
[-0.11160372]
[0.11630814]
[-0.06508794]
[-0.06287442]
[-0.06978273]
[-0.07139365]
[0.14649267]
[0.1552324]
[0.14732367]
[-0.00278758]
[-0.04083396]
[-0.06555395]
[0.15513001]
[-0.03636263]
[0.12742582]
[-0.06371115]
[-0.09052154]
[0.13461456]
[0.11397504]
[-0.06298038]
[0.11921358]
[-0.09573092]
[0.14183308]
[-0.02008739]
[0.13763449]
[0.08371434]
[0.11464566]
[-0.00807964]
[-0.05294773]
[0.15861836]
[-0.05331378]
[0.14231658]
[0.06685731]
[-0.02011334]
[-0.04200365]
[-0.01635664]
[0.15168704]
[-0.03381639]
[0.07734589]
[-0.04710638]
[0.02878996]
[0.09372369]
[0.08297257]
[0.14318652]
[-0.02150739]
[0.05778762]
[-0.03450638]
[0.08817154]
[0.03949817]
[-0.00580101]
[-0.07132144]
[0.1235697]
[0.16154774]
[-0.00938095]
[0.0143158]
[0.01695522]
[-0.10216665]
[0.02931877]
[-0.03344483]
[0.05022798]
[-0.08716894]
[0.08894265]
[-0.09224018]
[-0.08914275]
[-0.09619846]
[0.07664599]
[0.11718038]
[-0.03675952]
[-0.04916948]
[0.04160118]
[0.02169427]
[0.10127825]
[-0.06723057]
[-0.04264655]
[-0.02415457]
[0.03299322]
[-0.09342149]
[-0.02039107]
[0.04331021]
[-0.00717868]
[0.00079375]
[0.03095523]
[-0.03935421]
[-0.07916775]
[-0.08656444]
[0.01598196]
[-0.08705316]
[0.12050097]
[0.03757979]
[0.03275116]
[0.09630121]
[0.11406796]
[0.08466078]
[0.08579804]
[0.1174899]
[0.0256018]
[0.11392453]
[0.12382405]
[0.11710036]
[0.06253665]
[0.10693706]
[0.16747597]
[0.13035326]
[-0.00851069]
[0.02068518]
[0.00934525]
[-0.01444955]
[0.02944676]
[0.13536704]
[0.14250202]
[-0.09083167]
[-0.04790072]
[0.08555931]
[0.14312373]
[0.1185089]
[-0.09953719]
[0.00658442]
[0.15361325]
[0.10775088]
[-0.01113708]
[0.09204797]
[0.06738444]
[0.16454719]
[0.1145283]
[-0.01790212]
[0.02064883]
[-0.04095995]
[0.13452938]
[0.11969356]
[0.14793512]
[0.14232175]
[0.019201]
[-0.03438555]
[-0.00241019]
[0.11462422]
[-0.09355976]
[0.01375605]
[-0.06908506]
[-0.08336209]
[-0.01825831]
[0.12799735]
[-0.0090024]
[0.13421656]
[0.12012273]
[0.1538845]
[-0.05017861]
[-0.08369577]
[-0.02366647]
[0.03546829]
[0.13096109]
[0.1439926]
[-0.04963762]
[-0.09752215]
[0.14025177]
[0.0369174]
[-0.07263176]
[0.11485501]
[0.119522]
[-0.04346868]
[-0.07549265]
[0.01400431]
[0.03032203]
[-0.05040395]
[-0.02163591]
[0.0208134]
[0.06155756]
[-0.02212981]
[0.02706602]
[-0.0066513]
[-0.10412225]
[0.03079669]
[-0.10026965]
[0.03374638]
[0.05247276]
[0.13822207]
[-0.05436133]
[-0.04712215]
[0.13971126]
[-0.09906779]
[0.08632804]
[0.15223417]
[0.03617908]
[0.1164206]
[0.10495616]
[0.01826231]
[0.11143655]
[-0.04151136]
[-0.06421556]
[0.05407818]
[0.1385928]
[-0.09215353]
[-0.04673646]
[0.09106437]
[-0.07071928]
[-0.05804689]
[-0.03780538]
[-0.07009293]
[0.00819866]
[0.14933188]
[0.10175125]
[-0.0300394]
[-0.08717939]
[0.11891051]
[0.06747606]
[-0.08093879]
[0.11844335]
[-0.06174834]
[0.16911629]
[0.01723338]
[-0.04118194]
[0.08089362]
[0.06740251]
[0.00027284]
[-0.04154301]
[-0.00549099]
[0.00581535]
[0.07157819]
[0.01074707]
[0.06946492]
[-0.08809978]
[0.09809554]
[0.11438768]
[-0.06658787]
[-0.07709286]
[0.11552379]
[0.03566859]
[0.14697333]
[0.1438522]
[0.12843132]
[0.14611863]
[-0.01692073]
[0.10671642]
[-0.00509495]
[-0.11739887]
[0.10186294]
[-0.03163043]
[0.12364758]
[-0.10502841]
[0.14667846]
[0.00613694]
[-0.01200536]
[0.06892274]
[0.12286086]
[-0.02087145]
[0.09815719]
[-0.02964086]
[0.02036509]
[0.14826466]
[0.02024944]
[-0.04492929]
[0.1029564]
[0.04934339]
[-0.08354977]
[-0.05150931]
[-0.07605311]
[0.05587372]
[0.10660398]
[-0.07847995]
[-0.06650033]
[0.12507467]
[0.0608563]
[-0.08119071]
[0.00085033]
[-0.06037417]
[0.12666005]
[0.13285074]
[-0.03518121]
[0.12705332]
[0.04723783]
[-0.10366999]
[-0.01761435]
[-0.10182367]
[0.12911037]
[-0.00748514]
[-0.0342369]
[0.11198083]
[0.12030289]
[0.13731563]
[0.08386108]
[0.03357027]
[0.08120341]
[0.07718515]
[-0.05097058]
[-0.04651438]
[0.03608938]
[0.08922152]
[0.05386748]
[0.10179184]
[0.07508163]
[0.11990988]
[-0.08834991]
[-0.09155007]
[-0.07345279]
[0.16093744]
[-0.07793093]
[-0.05376806]
[0.12815873]
[0.14226264]
[0.0117311]
[-0.01337668]
[0.03597779]
[-0.02154889]
[-0.09142474]
[0.14477642]
[0.13825113]
[-0.11477471]
[0.01174436]
[0.00434692]
[-0.05589281]
[0.09230304]
[-0.06351706]
[-0.05680045]
[0.01965895]
[-0.07704215]
[0.07857661]
[-0.01566767]
[-0.05502389]
[-0.0724689]
[-0.08711911]
[-0.08662293]
[0.02746961]
[0.09890117]
[-0.09205886]
[-0.0576006]
[-0.07724386]
[-0.02708389]
[0.10293758]
[0.03252649]
[0.09866336]
[0.13393447]
[0.03113077]
[-0.00779432]
[0.10429989]
[0.05256999]
[-0.05666188]
[-0.10972272]
[-0.01326393]
[-0.0539166]
[-0.03239234]
[0.06420326]
[0.12766823]
[-0.0463347]
[0.14723201]
[0.01503599]
[0.15293151]
[-0.0996431]
[0.04551212]
[-0.0416642]
[-0.08829053]
[-0.03004035]
[0.15930808]
[-0.05982763]
[-0.10106246]
[-0.08406247]
[-0.03013452]
[0.12892902]
[0.11747775]
[-0.05609241]
[0.1482491]
[-0.04287443]
[0.00584522]
[-0.0212959]
[0.11478227]
[0.09185317]
[0.12834375]
[0.09421536]
[0.13817774]
[0.10205851]
[0.05938415]
[0.06680394]
[-0.04534814]
[-0.00542474]
[0.01958702]
[0.09789675]
[-0.05061651]
[-0.06209106]
[0.00139716]
[0.06131404]
[0.10802106]
[0.10967537]
[0.06587988]
[0.1027301]
[0.10218269]
[0.08580885]
[-0.03932295]
[0.03924823]
[0.09353538]
[0.11649587]
[0.00384933]
[-0.08757526]
[0.05597557]
[0.12945831]
[-0.09138586]
[-0.0424916]
[-0.10402009]
[0.03983354]
[0.04125574]
[-0.10380019]
[0.12144284]
[0.09464903]
[0.13898326]
[0.13974586]
[-0.02791608]
[-0.03101626]
[-0.06796085]
[0.14335841]
[-0.07802127]
[0.15115985]
[0.05834966]
[-0.04855211]
[-0.10695755]
[-0.0469693]
[0.12229191]
[-0.06188066]
[-0.05441454]
[0.0556397]
[-0.08503051]
[0.07335629]
[0.05092645]
[-0.00139102]
[0.06505883]
[-0.05162805]
[0.02541041]
[-0.10029051]
[-0.02873588]
[0.13816994]
[0.05426047]
[-0.060279]
[-0.08877889]
[0.08277394]
[0.13425897]
[-0.04885015]
[0.08551946]
[0.00266296]
[0.02272731]
[0.13170412]
[-0.05432328]
[0.09840198]
[0.15196131]
[-0.10537846]
[0.02942179]
[-0.04906984]
[0.15514293]
[-0.00642705]
[-0.00404719]
[-0.10403008]
[-0.01573735]
[0.03489267]
[0.1041824]
[-0.0706123]
[-0.05776723]
[0.03872711]
[0.15442817]
[0.11271166]
[-0.10170747]
[-0.00796747]
[0.01557018]
[0.15386978]
[0.10529694]
[-0.05151355]
[0.01937824]
[0.12648767]
[0.13821429]
[0.15559597]
[0.01879996]
[-0.08353082]
[0.15233766]
[-0.00618601]
[0.04449566]
[0.13525012]
[0.13005581]
[0.06367497]
[-0.03046228]
[-0.0559174]
[0.10428855]
[0.12858662]
[-0.08618687]
[0.09283575]
[-0.00019674]
[0.11423258]
[0.04581917]
[0.15063316]
[0.04498646]
[0.0283935]
[0.09629533]
[0.01835738]
[0.14817911]
[-0.07058265]
[-0.05814166]
[-0.06797247]
[0.08909422]
[0.04042307]
[0.07178169]
[-0.0178331]
[0.14884509]
[0.05834632]
[-0.0171869]
[0.00389089]
[0.07829083]
[-0.02648788]
[-0.00718985]
[-0.02141092]
[0.14601669]
[0.06373253]
[0.13156871]
[-0.07640231]
[0.02491423]
[0.0646938]
[0.06254011]
[0.12539984]
[-0.03126946]
[-0.09457663]
[-0.0096304]
[0.10962682]
[0.0047633]
[0.02273983]
[0.00539021]
[-0.01702627]
[0.01066875]
[-0.04629571]
[0.09272137]
[0.10223749]
[-0.07152996]
[0.05848587]
[-0.09880926]
[0.13360788]
[-0.03844281]
[-0.1367695]
[-0.11634333]
[-0.03463028]
[0.02733488]
[-0.08719419]
[-0.07900794]
[-0.06725214]
[-0.08835839]
[0.00521665]
[-0.03966407]
[-0.03874233]
[0.09692691]
[0.03635904]
[-0.0091651]
[-0.09406606]
[0.06963817]
[0.05624047]
[0.02780455]
[0.05795548]
[-0.00801319]
[-0.00464054]
[-0.03404959]
[0.0438621]
[0.09903479]
[0.05666351]
[0.07803549]
[-0.04564112]
[0.04175216]
[-0.00719935]
[0.10569473]
[0.12740819]
[0.09639677]
[0.13871478]
[0.05545808]
[-0.11705799]
[0.05697471]
[0.09318046]
[-0.01700198]
[-0.00476692]
[0.14695558]
[-0.04005925]
[0.0370557]
[0.0307579]
[-0.0826462]
[0.09739611]
[0.05936581]
[-0.04995425]
[-0.00065463]
[0.01417221]
[0.1106925]
[-0.04161817]
[0.04152047]
[-0.04548735]
[-0.00868574]
[0.08814346]
[-0.07168161]
[0.02404779]
[-0.0674356]
[-0.09038556]
[-0.02217034]
[0.0419823]
[0.03434828]
[-0.02745921]
[0.04592179]
[0.00063514]
[-0.09190012]
[-0.11502905]
[0.00975142]
[0.03104227]
[-0.06381322]
[0.10842946]
[2.8123148e-05]
[0.01154655]
[-0.06755473]
[-0.11319315]
[-0.07337387]
[-0.00908298]
[0.04018189]
[-0.10522754]
[-0.03591272]
[-0.07548989]
[0.08405082]
[-0.05196649]
[-0.06611879]
[0.07447513]
[-0.09521789]
[-0.07881507]
[-0.11493132]
[0.08382387]
[0.0963599]
[-0.07705342]
[0.12410242]
[0.02530207]
[-0.042202]
[0.07349666]
[-0.10327726]
[-0.00424214]
[0.12712428]
[-0.10383759]
[0.13135928]
[-0.00645801]
[0.0456821]
[0.10351818]
[0.00273522]
[-0.04439932]
[0.00471483]
[-0.06062701]
[-0.04101093]
[-0.09431861]
[0.0010279]
[-0.09778842]
[0.04316223]
[-0.01435145]
[-0.00527173]
[-0.0020381]
[-0.09431265]
[0.09016237]
[0.13343574]
[0.04674769]
[0.0451006]
[0.06479614]
[0.01515268]
[-0.09864291]
[-0.11542]
[0.13186571]
[0.02716741]
[0.04804659]
[-0.05275539]
[0.0228558]
[0.01376125]
[0.01293981]
[0.03131595]
[0.02978652]
[-0.05785524]
[0.04879866]
[0.10125087]
[-0.0012346]
[-0.04035478]
[-0.05945101]
[0.10799991]
[-0.04426799]
[0.01704769]
[0.11504976]
[0.02158962]
[0.01090611]
[-0.12102476]
[0.03763247]
[-0.0926188]
[-0.07258353]
[-0.09566723]
[0.03763954]
[-0.00688515]
[0.0133267]
[0.03503154]
[0.07665484]
[-0.05982939]
[0.07934207]
[0.13059384]
[0.00305761]
[-0.07530572]
[0.0620768]
[0.12788859]
[0.12563673]
[0.05684778]
[0.09871759]
[0.03822634]
[-0.07217267]
[0.05186162]
[0.09848867]
[0.04885766]
[0.06459922]
[0.10182802]
[0.05692504]
[-0.06169003]
[0.01822361]
[0.12072705]
[0.08644772]
[-0.01332104]
[0.07043599]
[-0.03737745]
[-0.10741985]
[-0.03448235]
[-0.10129942]
[-0.09565876]
[0.04775423]
[0.05294923]
[0.03330923]
[0.12431656]
[-0.13841495]
[0.05342956]
[-0.01717276]
[-0.10688096]
[0.06667405]
[0.07341609]
[-0.00626502]
[-0.07685339]
[0.12555598]
[-0.0953145]
[-0.11720163]
[0.06161795]
[0.09662045]
[0.04797594]
[-0.02414289]
[0.09694667]
[0.1314745]
[0.11399045]
[0.00115318]
[-0.07982819]
[-0.05189703]
[0.00961394]
[0.12867874]
[-0.13210265]
[-0.03376745]
[0.03855333]
[0.11274008]
[0.05106448]
[-0.02207563]
[0.1252867]
[0.08069982]
[-0.07158282]
[0.12405269]
[-0.04675579]
[-0.07025363]
[-0.05162119]
[-0.00126824]
[0.07745495]
[0.03873273]
[-0.10328482]
[0.02246006]
[0.04948044]
[0.03802202]
[0.08208968]
[0.08989856]
[-0.07865273]
[0.11490283]
[0.0233709]
[-0.06577739]
[0.01945163]
[0.11138135]
[-0.01783685]
[-0.13578147]
[0.09467696]
[0.04391403]
[-0.1162083]
[0.03762862]
[-0.0739198]
[0.06289292]
[-0.07574879]
[-0.0604704]
[0.01281032]
[-0.02711364]
[0.01849941]
[-0.12985957]
[-0.13825728]
[-0.12679183]
[-0.04498822]
[-0.05912244]
[-0.01294807]
[0.03539827]
[-0.1131363]
[0.00738789]
[0.13435341]
[0.09947018]
[0.14181148]
[0.12522037]
[-0.09386463]
[0.04713694]
[0.138724]
[0.01308654]
[-0.01742768]
[0.14664789]
[0.09498779]
[0.08817925]
[0.05406256]
[0.04213652]
[0.12609418]
[0.0164878]
[0.03744407]
[0.09276129]
[-0.07282557]
[0.0694515]
[0.02888037]
[0.08125034]
[-0.10627199]
[0.04272035]
[-0.05060243]
[-0.05658205]
[-0.0028278]
[-0.00643277]
[-0.13056998]
[0.06262923]
[0.08431999]
[-0.02198367]
[-0.1166452]
[-0.01350592]
[0.10920031]
[-0.10941616]
[0.08529577]
[-0.1158662]
[-0.08999086]
[0.00537562]
[0.06169686]
[0.0178849]
[0.05550189]
[-0.01101589]
[0.02459477]
[-0.0724129]
[-0.07161634]
[0.0829673]
[-0.03523494]
[0.04904797]
[-0.08238912]
[-0.12814291]
[0.08887517]
[0.11000866]
[-0.0445011]
[-0.00058094]
[0.03545629]
[0.10557258]
[0.08058451]
[-0.03177962]
[-0.03886174]
[0.1293268]
[0.08903316]
[-0.00177265]
[0.06863229]
[0.02030167]
[-0.05401294]
[-0.01830875]
[-0.13011798]
[-0.12835295]
[0.09843218]
[-0.01153506]
[0.08968394]
[0.0313163]
[0.12748969]
[0.07075576]
[0.03859672]
[-0.05872501]
[0.06975412]
[-0.06565125]
[-0.03516216]
[-0.086871]
[0.01539185]
[-0.09550193]
[-0.13329163]
[0.02628173]
[0.0923553]
[0.05930953]
[0.07935106]
[0.0725578]
[-0.11427452]
[-0.03863133]
[-0.01427002]
[-0.06037101]
[0.05667424]
[0.04502378]
[-0.08914335]
[-0.03830811]
[-0.05017431]
[-0.04742334]
[0.00377603]
[-0.05299594]
[0.08946376]
[0.09209429]
[0.08308642]
[-0.06047253]
[0.0021657]
[-0.02023494]
[0.0709238]
[0.119248]
[0.09850668]
[-0.06228636]
[-0.06668015]
[0.08049266]
[0.03922477]
[-0.0691429]
[-0.05259844]
[0.04469541]
[-0.00795086]
[-0.11897603]
[0.07114626]
[0.09206229]
[0.1398573]
[0.00069979]
[-0.02577587]
[-0.05348526]
[0.00584233]
[0.03549474]
[0.11980336]
[-0.10949712]
[-0.0199074]
[-0.10707569]
[-0.02961776]
[0.08620702]
[0.05014862]
[0.1097187]
[0.00324016]
[0.09687047]
[-0.02614709]
[-0.03741423]
[-0.06672171]
[0.05668093]
[-0.11057891]
[-0.11511089]
[0.12755315]
[0.13949333]
[-0.05997387]
[0.0173892]
[0.02136133]
[0.10572515]
[-0.06783723]
[-0.09360568]
[-0.06626458]
[-0.02057035]
[0.07951112]
[-0.0439341]
[0.11734248]
[0.12005882]
[-0.10187238]
[-0.06246245]
[-0.04066444]
[-0.06929184]
[-0.09361038]
[0.07378254]
[-0.02650199]
[0.11630038]
[-0.12248375]
[0.09883562]
[0.10493453]
[0.06971323]
[-0.11353131]
[0.12838022]
[0.07331064]
[-0.05822924]
[0.04492112]
[-0.07325464]
[0.08324367]
[0.09587672]
[0.035065]
[0.02062199]
[0.10709393]
[0.11389449]
[0.09874547]
[-0.09029833]
[-0.0439993]
[0.08823556]
[-0.00799916]
[0.11446337]
[0.13037106]
[-0.11980808]
[0.13518539]
[-0.07521416]
[0.12917049]
[0.02274069]
[-0.00358962]
[-0.09053488]
[-0.07149082]
[0.09934488]
[-0.07644618]
[0.1215828]
[0.01843799]
[0.0823439]
[-0.09462302]
[0.08980368]
[0.01655497]
[-0.01462092]
[0.01576245]
[0.02280078]
[0.10180616]
[0.10491797]
[-0.00941517]
[0.08013622]
[0.03114955]
[0.04353535]
[0.07743715]
[0.09340163]
[0.05782716]
[-0.06316003]
[-0.03929299]
[0.06200818]
[-0.06987842]
[0.01471592]
[-0.07379982]
[0.07384472]
[0.11572413]
[-0.00338079]
[0.0748242]
[0.11754975]
[0.11378562]
[-0.00125246]
[-0.06721981]
[0.04086837]
[-0.03670423]
[-0.06464081]
[-0.06088525]
[-0.09692968]
[0.00181355]
[-0.11921418]
[-0.11545432]
[0.11616806]
[-0.0339586]
[-0.11410616]
[-0.11098939]
[-0.07199717]
[-0.06147776]
[0.05659724]
[0.07176992]
[-0.11765737]
[-0.10619992]
[0.10487761]
[-0.03756735]
[0.13221106]
[-0.10131378]
[0.07623706]
[0.06811918]
[0.12699302]
[0.12293442]
[0.12563592]
[-0.11083406]
[-0.05533297]
[0.12247324]
[-0.04452891]
[-0.08837041]
[-0.05510952]
[0.04782621]
[-0.10143322]
[-0.00933744]
[-0.11629047]
[0.03105477]
[-0.03174293]
[-0.04050822]
[0.04087031]
[0.04333623]
[-0.06012872]
[0.08020046]
[0.1179452]
[-0.00921274]
[0.03547075]
[-0.08982445]
[0.10588389]
[-0.01275888]
[0.110719]
[0.05955061]
[0.07295822]
[-0.12906362]
[0.08389999]
[-0.01930877]
[-0.05677178]
[-0.12030762]
[-0.12094884]
[0.11891539]
[0.00914458]
[0.10616994]
[-0.07949344]
[0.11423499]
[-0.0222184]
[0.01630519]
[0.09560604]
[-0.03391974]
[-0.08933993]
[0.07756536]
[0.10026503]
[-0.00508747]
[0.02244421]
[-0.06501213]
[0.03975319]
[-0.09565605]
[0.04282285]
[0.12709744]
[0.12920567]
[0.01559586]
[0.12301634]
[-0.03183455]
[0.13619632]
[0.03739944]
[0.1012415]
[-0.10383331]
[-0.01867186]
[0.0526012]
[-0.10759509]
[0.00525293]
[-0.08805107]
[-0.05321423]
[-0.03806973]
[-0.11470556]
[-0.10375973]
[-0.07012987]
[-0.0772977]
[0.08621009]
[-0.0400948]
[0.14736971]
[-0.04786919]
[0.01207479]
[0.07724894]
[-0.03961806]
[0.07606437]
[-0.04337136]
[0.07043989]
[0.09141727]
[-0.11260763]
[-0.02781767]
[-0.06684769]
[-0.04982002]
[-0.08796601]
[0.08256506]
[-0.09136249]
[-0.07736287]
[-0.01840732]
[0.09145386]
[0.10595816]
[-0.05704981]
[-0.03834511]
[0.02617041]
[-0.06485826]
[-0.09530751]
[0.05819286]
[0.01158639]
[0.06935261]
[0.08586697]
[0.11301384]
[-0.08627098]
[0.12091648]
[-0.04788569]
[0.00853414]
[-0.09571849]
[0.09518539]
[0.00092163]
[-0.05205964]
[-0.09150442]
[-0.09873794]
[0.05457716]
[-0.12461656]
[-0.07517364]
[0.08430687]
[0.03417489]
[0.0082407]
[0.05513227]
[0.13922279]
[-0.0861708]
[-0.07694295]
[0.12075792]
[0.01292811]
[0.10612373]
[0.10934205]
[-0.05936025]
[-0.07893983]
[-0.07303442]
[-0.01277698]
[-0.00822758]
[0.13400854]
[0.08361947]
[-0.12140309]
[-0.05837533]
[-0.1094024]
[-0.13400963]
[0.07005244]
[0.13659553]
[0.0438684]
[0.06797266]
[0.08533586]
[0.04348361]
[-0.04828575]
[-0.10455642]
[0.06324364]
[0.05763718]
[0.04072301]
[0.05561181]
[0.05287626]
[0.06453817]
[0.07689088]
[0.10437473]
[-0.02356467]
[-0.07797484]
[0.09093384]
[-0.08486392]
[0.03096592]
[0.06327088]
[0.00318793]
[0.05140799]
[0.04757958]
[0.10353871]
[-0.07266828]
[-0.10273061]
[0.0012411]
[0.06011264]
[-0.12220354]
[-0.11963488]
[0.04858343]
[-0.12144341]
[-0.07333409]
[0.03403813]
[-0.07923125]
[0.09076631]
[-0.13282377]
[0.01778654]
[-0.04913231]
[-0.01397494]
[0.04867105]
[0.03549814]
[-0.10207572]
[0.07943356]
[-0.01504119]
[-0.10533854]
[0.08913185]
[-0.05654529]
[0.08173285]
[0.02990107]
[0.092078]
[0.01587546]
[-0.01584712]
[0.02197765]
[0.05400836]
[-0.03105146]
[-0.0200663]
[-0.097133]
[0.00864304]
[-0.04279458]
[-0.02067056]
[-0.04621591]
[-0.01004202]
[-0.00038357]
[-0.11983562]
[0.03834003]
[-0.1168941]
[-0.02364626]
[0.06407154]
[0.11007564]
[0.01848468]
[-0.05749536]
[-0.12738045]
[0.0383522]
[0.05155674]
[-0.07092555]
[-0.00090246]
[0.10257184]
[0.09211198]
[0.12308332]
[0.11011665]
[0.09994265]
[0.12633534]
[0.07504792]
[-0.06841708]
[0.07764317]
[-0.08785278]
[-0.12922375]
[-0.12424262]
[0.0474827]
[0.0264757]
[0.11215191]
[-0.08789596]
[-0.08724038]
[-0.11101549]
[0.11237568]
[0.06456715]
[-0.10996231]
[-0.01052681]
[-0.03910638]
[-0.12831105]
[-0.0438541]
[-0.09037392]
[-0.02068991]
[0.07836324]
[-0.06927688]
[0.12681909]
[0.0406949]
[-0.0519944]
[-0.07158515]
[0.07257804]
[0.1118027]
[0.03162614]
[0.00829826]
[-0.06454974]
[-0.09849042]
[-0.03945086]
[-0.04257003]
[0.03036589]
[0.06231964]
[-0.10006997]
[0.03507407]
[0.12964399]
[0.08669329]
[0.00327388]
[-0.09156924]
[0.09210766]
[-0.11732464]
[-0.0621244]
[0.07912436]
[-0.06283823]
[-0.11179709]
[0.10799192]
[-0.12527354]
[0.02990503]
[-0.10209244]
[0.10850544]
[-0.0932956]
[0.02626822]
[-0.01559556]
[0.1441346]
[0.05517308]
[0.03533731]
[-0.04891798]
[0.0481379]
[-0.12200513]
[-0.12681544]
[-0.12949404]
[-0.00143552]
[0.02640178]
[-0.13008885]
[0.00612675]
[-0.06042503]
[-0.06645346]
[-0.02687234]
[-0.06732476]
[-0.0273705]
[-0.01081974]
[-0.03029909]
[-0.12260838]
[-0.01279645]
[-0.01350437]
[-0.00486744]
[-0.00450485]
[-0.08487305]
[-0.12199204]
[-0.10059296]
[0.05394345]
[-0.09579867]
[-0.07963452]
[0.01969824]
[0.11690636]
[0.08958031]
[0.12471815]
[-0.09011307]
[0.12177487]
[-0.07868078]
[-0.08195565]
[0.0880729]
[-0.12711166]
[-0.04901579]
[-0.00435254]
[0.11881226]
[-0.05694304]
[-0.00016872]
[-0.07319398]
[-0.06909016]
[0.09890502]
[-0.05234056]
[-0.01655735]
[-0.01564725]
[0.07689939]
[-0.0966173]
[-0.06627426]
[-0.03925459]
[-0.1397955]
