[0.03842787]
[-0.20222417]
[0.19133356]
[0.00998282]
[0.1386298]
[-0.1906443]
[-0.07595782]
[0.14728214]
[-0.13955554]
[0.04410645]
[0.14593366]
[0.23294337]
[0.20314048]
[0.2523542]
[0.26990214]
[-0.01162937]
[-0.1208031]
[-0.07092445]
[0.01613375]
[0.09625793]
[0.13383383]
[-0.05977699]
[0.1476102]
[0.00840609]
[0.13756077]
[0.15853596]
[0.29263702]
[0.00019007]
[0.21459655]
[-0.14397614]
[-0.20557024]
[0.06734756]
[-0.08696528]
[0.02966923]
[0.09304123]
[-0.17411917]
[-0.0407987]
[-0.1848075]
[0.02152997]
[-0.21758062]
[0.2933379]
[-0.01015409]
[-0.06983858]
[0.078605]
[0.12915036]
[0.01800028]
[0.08032006]
[-0.21291259]
[0.21973021]
[0.27123645]
[0.16695799]
[0.25837398]
[0.19269964]
[-0.10255872]
[0.26326665]
[-0.10127679]
[0.15457852]
[0.06553964]
[0.04797847]
[0.12040188]
[-0.00088467]
[-0.04413056]
[0.30868942]
[-0.04300828]
[-0.07510588]
[0.02391592]
[0.3177758]
[-0.0564367]
[0.05448914]
[-0.08904766]
[0.11784276]
[0.25904518]
[-0.0646572]
[-0.17662224]
[0.25659102]
[0.22878855]
[-0.00953822]
[0.24701616]
[0.12229059]
[0.04947839]
[-0.07174513]
[0.01086326]
[-0.23753029]
[0.16716675]
[-0.18254523]
[0.12462799]
[-0.08357653]
[0.09323107]
[0.26410595]
[-0.16529724]
[0.26363337]
[-0.23776254]
[0.01259623]
[-0.15436089]
[-0.04055524]
[0.21173695]
[0.19287618]
[0.2445204]
[-0.04261426]
[-0.11202871]
[-0.08215538]
[-0.13632041]
[0.00446389]
[0.18936612]
[-0.04905119]
[-0.25010717]
[0.2591952]
[-0.03729285]
[-0.13246818]
[-0.15059228]
[0.11115038]
[0.18693243]
[0.11281824]
[0.14538272]
[-0.00832387]
[0.07614236]
[0.11207593]
[-0.194702]
[0.02490218]
[-0.28229076]
[-0.15393849]
[-0.00595274]
[-0.15317412]
[0.10607281]
[-0.09226671]
[0.27330562]
[-0.00433409]
[0.00684]
[-0.08793585]
[0.03172874]
[0.11108817]
[0.06219445]
[-0.15248439]
[-0.05382618]
[0.04203466]
[-0.0431465]
[0.18849884]
[0.18551077]
[0.14221108]
[-0.2845107]
[-0.17679335]
[-0.23344815]
[-0.01791145]
[0.0657275]
